solver_type L2R_L2LOSS_SVC_DUAL
nr_class 2
label 1 -1
nr_feature 23128
bias -1
w
0.3260848406502987 
-0.2407032862336833 
1.865383378952901 
0.209785635945844 
-0.7440208153479355 
0.4659942065926097 
0.5416707689498236 
-0.6568431620090597 
-0.02143162597851485 
-1.130821978583338 
1.353634847859954 
0.07998071569978534 
1.768344751033249 
1.447216984987197 
-1.310648138568616 
-0.1032173854868845 
-0.4203588869368935 
0.210161194549484 
-0.3596701302180955 
1.553641557907237 
1.477163603930002 
-0.4614548550617912 
0.698489980457635 
-0.1660096968374579 
0.4632319442082437 
-1.649976845384028 
3.146844156639889 
1.051642903771892 
1.673508807900842 
-0.04072132315535949 
0.5948566317838806 
0.08977775899272079 
1.832437421764308 
-0.2336669395960844 
-0.5497028209097526 
-0.2766855839242349 
0.46181402424839 
-1.736178849923495 
-0.6327311917412888 
0.4057875514074592 
0.1183241700995471 
0.3096495183965672 
-1.369180612990744 
0.3781791522191052 
0.4027578249299517 
0.9233006741569225 
-0.3122194817419831 
1.113908535363147 
0.7582620630763707 
0.9503453870559202 
0.1966034864206133 
0.380497480184071 
-0.7532205773041736 
-0.2490086466673013 
-1.007697209257298 
-0.4099307376800219 
0.5777256291497189 
0.2289992742736009 
-0.4837299179035062 
0.4525992768205936 
-0.6179365013668828 
-0.3573539046199861 
3.030493388271244 
0.5376183821259845 
-1.22971943682987 
-0.9082040117409216 
0.9951904596098028 
0.6615874963112768 
-1.116178124513351 
0.1296683968151721 
-0.5957804522794626 
0.2581613504870098 
-1.121654814487171 
0.03051104080527985 
0.8886974004143101 
-0.4436355011442955 
1.138411798215265 
0.1382798419421591 
0.03011746325272454 
0.8130286624315052 
0.009978914971050905 
0.7457167078533552 
-0.4355072195157285 
-1.023281001903235 
-0.1254692544789578 
1.018218114267003 
0.6219442430805173 
-0.5872322379959554 
0.01652563492068236 
-0.3177675652877599 
1.076870803011849 
-0.3735647158770752 
-0.8272743187997206 
-0.009856400966112348 
-1.003081204821114 
0.8905550320615734 
-1.13363202054576 
-1.081995398990845 
0.9189803466838818 
0.4945368831035758 
-0.8440764162232755 
-0.04052002556150853 
-1.256310182274892 
0.1370205789941077 
-0.1865228232921338 
0.5277957886259695 
0.1618088706198874 
-0.4544384510617313 
1.298811419808741 
-0.9754400202511752 
0.4179531084872851 
-0.752154823845423 
1.220501368930927 
1.762649967270232 
-0.3549154129615773 
0.1044523828032598 
-1.503257617326117 
1.312682459394418 
0.3446469517374706 
-0.02239681966876372 
1.341075129011597 
0.838712339475138 
0.2747487619138242 
0.6141758085032038 
1.154669648381151 
-0.9392789166807581 
0.5489522799178126 
-0.3673098839576302 
-0.02896432557874217 
-0.3263257770796549 
-0.1051115679647224 
-0.8881810414025231 
-0.8748491368492987 
-0.07469738275148719 
-1.019744500856033 
-1.289284540351676 
-0.4155117643540754 
-0.1542098219534449 
0.3189918990211973 
-0.6460495495479282 
-0.9699323521479962 
-0.1503437508632635 
1.213003077983475 
-1.294677463787945 
0.5095275192536691 
0.03232591426827212 
-0.03117102433350874 
-0.1824621537673793 
-0.4370585802747209 
2.164780611265354 
-0.03162364578016057 
0.3820914508782312 
-0.3816074125523449 
0.558048816351359 
0.8791427847215728 
0.6408961154362187 
-0.2706789163901413 
-1.780759793107084 
0.5177209720195191 
-0.1249326526812428 
0.5116226998426933 
0.5577948858499984 
0.04308592679764493 
0.5628477974129044 
1.049920033203496 
0.4034100083873039 
0.640766164762559 
0.4611559243774294 
-1.767463844373135 
2.574134406356047 
1.931478303572903 
2.228551278220798 
2.115598757510417 
0.06133586382771013 
0.9209250845420185 
-1.555695449601498 
0.4331295234870817 
0.2089194076138196 
-0.8405279595463836 
0.5721423964857035 
-0.6764806769421391 
0.1975751328329322 
1.283098072074992 
-0.5746911675012816 
2.115598757510417 
-0.2532646803876882 
-0.1284655419265867 
0.8415652692106627 
0.108751851707274 
-0.5813366245501633 
-0.1462146537967973 
-0.1462146537967973 
1.58101362376146 
-0.7389759441268913 
-0.7462912422865267 
0.2130797664005362 
-0.04584378551830911 
-0.4801134918333367 
-0.04398226349270474 
0.4008508670712084 
0.9209250845420185 
0.1753490767854526 
0.3587041067647478 
-0.08086540295965379 
1.259773855893693 
1.796721908313927 
0.06133586382771013 
3.469446951953614e-018 
0.3230411273734758 
0.1079665183882547 
-0.8553492560003219 
-0.07375213056559411 
0.2027902709405165 
0.4074003136037607 
-0.2425173741968744 
-0.1408082678948377 
-0.6208238573013868 
0.4416058352311468 
0.4641152076524021 
0.4641152076524021 
0.4641152076524021 
0.5528962669147453 
0.5528962669147453 
0.4641152076524021 
0.5569229330468315 
0.4641152076524021 
-1.214381426948954 
-0.1731835036330928 
1.045384261278921 
-0.1731835036330928 
-0.6624030423644923 
0.04142354076777867 
0.1198511572956477 
-0.03103961550777675 
-0.05706260823872975 
0.9777477596477355 
0.3424689754301185 
1.279526803712287 
0.1343057472994502 
-0.5849282955736643 
0.0507248116653933 
0.01630849497328086 
-0.5849282955736643 
0.0507248116653933 
0.01630849497328086 
0.01630849497328086 
0.01630849497328086 
0.01630849497328086 
0.01630849497328086 
0.01630849497328086 
-0.280005005451911 
-0.0705951301328666 
0.5775337751930872 
0.529328935144431 
-1.645116235035381 
2.288288353204364 
-0.6231368195355994 
0.1713469394625199 
1.229441607306985 
-0.1980927187904731 
0.509949012488949 
-0.3267171416964586 
-0.00816485704868989 
-0.1314435151389193 
-0.2931644597486458 
0.04524643415949897 
-8.673617379884036e-019 
-0.5277490446712065 
-8.673617379884036e-019 
-8.673617379884036e-019 
0.265957994486931 
-1.345253320688105 
1.000052853460018 
0.3311689697631639 
0.7644192858715168 
0.6742806824625349 
0.850860367485975 
-0.2008923219887958 
0.09853384062744108 
-0.03042760307709821 
0.130729159933023 
-0.0008392512851294665 
-0.1500658042055744 
0.4267986645136216 
-0.3206658147785799 
0.04784203566072126 
0.04784203566072126 
0.795547511541487 
0.08162883578808863 
0 
0.8633310243307647 
-1.017563537642144 
-0.5202135939532032 
0 
0.2133656318314136 
0 
0.850860367485975 
1.076286481831644 
0.81776020528154 
0.6489641470851099 
0.1028132365954437 
0.77286695709336 
0.9574484145436196 
-0.1597080695241769 
-0.1182994777592914 
-1.097240343328954 
-0.09417678150822351 
-0.09479420204436347 
-0.09479420204436347 
-0.02835551397312019 
-0.09479420204436347 
0.08820392692533637 
0.09176896128485748 
-0.1516312616338723 
0.08820392692533637 
0.8143783728822239 
0.572686530963148 
-0.4228297895771719 
-0.3445886380942616 
0.02252689576201405 
0.02252689576201405 
0.02252689576201406 
0.4926259575787628 
0.2548402106880219 
-0.3911651360777908 
0.01335694742153072 
-0.4973577486437013 
0.5429216791982514 
0.07102657561273564 
0.09292955702060395 
-0.7703466294475345 
0.02252689576201406 
1.076286481831644 
0.03706256301058959 
0.81776020528154 
0.1889887773056044 
0.6616694163909875 
-0.06683531160977461 
0.3079683087712263 
0.5170233487721444 
0.5946995149768378 
0.3345550238876585 
0.3132059822956321 
0.5841111036314484 
-1.056967903428378 
0.4244525721033494 
-0.03157941981462326 
0.4532917347533085 
0.2747410862633752 
0.3079683087712263 
1.202465093398146 
0.08681489402236384 
0.4894017044010952 
-0.3888261224370897 
0.1319206731976185 
0.1351492692172665 
0.3491357434017187 
0.512396881914997 
1.202465093398146 
0 
0.08681489402236384 
-3.469446951953614e-018 
-0.1183144349792339 
0.1114789941828353 
1.042445216158557 
0.07696653121643249 
0.6346864708822425 
0.04378612579111966 
0.4894017044010952 
0.6707641424150667 
0.2878378637654367 
0 
0 
-0.01201926127619913 
-0.6258660683634736 
1.631717502955878 
-0.1311573522129344 
1.626303258728257e-019 
1.626303258728257e-019 
-0.5708344488759625 
0.3340703747914492 
1.626303258728257e-019 
1.626303258728257e-019 
-0.5597271603126415 
0.3554197249022819 
0.06515045807977478 
-0.9752271839638002 
0.1496068129650977 
-1.671714387356412 
-1.027278319911547 
-0.3888261224370897 
0 
0.1319206731976185 
2.49366499671666e-018 
0.09122544425905436 
0.1351492692172665 
3.170245907497633 
0.881279207431322 
0.1882027255163136 
-1.211186925597099 
-0.5862172645141621 
0.4210024043123263 
0.08948155119466388 
0.2539973851526086 
0 
0.2425481330905347 
0.02435654045270762 
0.02435654045270762 
-0.1308136067285018 
-0.4090710562711757 
0 
0.2553599170203769 
0 
0 
0.1038788557129586 
-0.3979351468341911 
-4.336808689942018e-019 
-0.3189453706647937 
-0.09279281681969277 
0.2860647892056563 
-0.2094757485288358 
0.5840061613398194 
0 
0.09535599930173262 
0.09535599930173264 
-0.1866836035530573 
0.09535599930173264 
1.129433165879034 
2.168404344971009e-019 
3.686287386450715e-018 
0.1816853123987716 
-1.681608358195036 
8.673617379884036e-019 
0.2571404816259908 
0.1220339206788717 
0.1220339206788717 
0.1347055694843298 
0.1655941051957094 
0.9674664701628225 
0.09848579889433419 
0.1655941051957094 
-1.66465828451803 
-0.5555629782475637 
-0.6419209771524704 
0.3587652134391553 
-0.1478617100645062 
0.4569765092401156 
-0.1544997376663841 
-0.5945159267833431 
-0.2275215156945877 
0.7559728984288883 
0.3822304777023309 
-0.05098403806696368 
0.4070281221720255 
0.4070281221720255 
0.3895590775493922 
0.09030229038490284 
-2.168404344971009e-019 
-2.168404344971009e-019 
-2.168404344971009e-019 
0.617432489526785 
-2.168404344971009e-019 
-2.168404344971009e-019 
-2.168404344971009e-019 
0.7066769535803179 
-2.168404344971009e-019 
-2.168404344971009e-019 
-0.3306394807884061 
0 
-0.4280283812549635 
8.673617379884036e-019 
-0.7587818392719657 
-0.1546971570132646 
1.141154325800567 
-0.5011427569243137 
-0.330492761592052 
-1.036732210285935 
0.08315558467643325 
0.2393979433775993 
0.2712851430279268 
0.3268720457124325 
0.5146281691321215 
0.2584390272089722 
-0.3523213597198471 
0.3556143854103852 
0.2584390272089722 
-1.103353380208682 
0.1046300608778241 
0.1465855832927243 
0.1465855832927243 
-0.8290837661169613 
0.1465855832927243 
0.1465855832927243 
0.8617696309714108 
0.09990830062850795 
0.09990830062850795 
-0.3109288737770291 
0.2416633422537766 
0.1266641153407648 
0.09202262590850859 
0.2584390272089722 
0.2595141896959873 
0.2584390272089722 
-1.549930106454942 
-0.3088766946246201 
0.5566938172393585 
0.3668864519850593 
0.4855647200777666 
0.5203207021268052 
-0.07438728773807546 
0.1458995223559788 
0.02766862600486354 
-0.4783300778396131 
-0.05809058280817576 
-0.07402211860711648 
0.03365401854680256 
0.007564274909556338 
1.569938225467349 
-0.3088766946246201 
0.181748237072356 
0.8793482716717125 
0.1196457509643925 
0.07585085439782001 
0.07585085439782002 
0.07585085439782002 
-0.4132699153930104 
0.659271208526406 
0.07187393019279621 
-0.4748556564803413 
-1.758504119159164 
0.5050470719675211 
-0.3776703963074167 
-0.5861684659800254 
0.4963496612806748 
0.4524415729970717 
0.5779113599714687 
-0.2452539190480428 
-0.2266899340548855 
0.1159445231789382 
0.0179487532846516 
0.1168876279654823 
-0.1185667757004396 
0.1808009634878853 
0.4368991751172632 
-0.4019940903625738 
0.04164550010691154 
0.5779113599714687 
0 
-0.8383235734778728 
-0.04169382808832144 
-0.252513543727893 
0.1028574717940351 
-0.05628844409744571 
-0.3409538198699269 
0.1028574717940351 
0.1229961422863544 
-0.2452539190480428 
-1.017724509829118 
-0.6121431705229973 
0.3288130984371473 
6.938893903907228e-018 
0 
0 
0.4801585907021978 
0.1363791626880562 
0 
0 
0.3288130984371473 
0.3735783309502861 
-1.978852259956124 
-3.850262421132106 
0.3288130984371473 
0.09635359632429466 
0 
-0.3815147489309358 
0.3917255777988348 
0.3746967681247511 
0.3917255777988348 
0.2251624097899632 
0.2211300083729237 
0.4810453562434977 
-0.7895857599996234 
0.02270177827880487 
-0.4119413391406058 
-0.3162581445153861 
-1.807185815810363 
0.3746967681247511 
-0.3394576033241548 
0.2786554940325212 
0.2786554940325212 
0.02756952878710431 
0.02756952878710431 
-0.5524762042543048 
-0.7138834169441428 
0.6265950142757657 
0.2733676816059902 
0.1638208152263603 
0.007176112816933376 
0.008601734082147724 
0.008601734082147724 
0.3177536892968629 
0.3884414123532844 
0.3177536892968629 
-0.1392438200966795 
0.1743535468562994 
0.095217175805124 
0.1052133362413074 
0.1975751328329323 
0.8757197664719361 
0.1281059437537402 
0.07938344212686492 
-0.7155881282667495 
-0.8044692637110241 
-0.696812318298053 
0 
0 
0.2827322550548416 
0.06623520767157728 
0.150610494193849 
-0.7751271808360333 
0.6069178088436613 
0.2859410695593441 
0.285941069559344 
-0.3937006582156502 
0 
-0.01017599296259791 
0 
-0.8057194182955604 
0.08323615712324413 
0.0562568145758413 
-0.003676362955910274 
0.5676368537332377 
0.1197634961678749 
-0.702144132491053 
-0.003470501244161655 
0.152641974561786 
0.152641974561786 
0.0899072961143516 
0.00253734453647957 
-0.1824189957313529 
-0.5434673862843121 
0.2788556459987789 
1.38481561729467 
0.0296310678683751 
0 
0 
-1.215231483378213 
-0.01017599296259791 
-0.447491697359276 
0 
0.1446091774451993 
0.04088178276318281 
0.7266360197812404 
-1.301042606982605e-018 
0.2204173938600701 
0.5504168784344687 
0.06811830458624744 
0.04476300343067756 
0.004420465598689403 
0 
-0.3070773432504524 
-0.6859297463012984 
0.6286972896945757 
0.1446091774451993 
0 
0.7945810859868658 
0.1477582706392295 
0.1477582706392295 
-9.974659986866641e-018 
0 
-0.1342528710876203 
-0.362677687277552 
-0.516668668657889 
-0.1818754978862982 
-0.3551543169668828 
-0.2297721631262548 
-0.5508018750931047 
0 
0.4094817458533825 
-0.08781722888931672 
-0.08781722888931672 
4.336808689942018e-019 
-0.1969830614296328 
1.13813851855239 
-0.09790102063474952 
2.146121809924606 
-1.208046908607241 
0.5246612130664761 
0.4469947762701599 
0 
2.146121809924606 
-0.3606881805655676 
-0.2308830687611135 
0.1336196068182984 
-0.1096252290160932 
0.4981126083841717 
1.185927511959197 
-0.1212516562050788 
-0.1639244690862346 
0 
0 
0 
-0.003170805677746659 
0 
0.467252529831681 
0.07992670412399738 
0.07992670412399743 
-0.07011727328017736 
0.2055580388549105 
0.3646784203138395 
0.3646784203138395 
0.07992670412399743 
0.3646784203138395 
0.07992670412399743 
0.467252529831681 
0.467252529831681 
0.1673277629711103 
0.07992670412399738 
0.1052792423559907 
0.2502926193516046 
-0.231565000686889 
0.1069142276371653 
0.9866578230462054 
0.2567876690110997 
-0.3128609742979152 
-0.3536656340976267 
-0.1290720366136983 
0.3512324200886681 
-0.06057659538307698 
-0.3816319985022644 
0 
-1.598322758223857 
-0.5162115057387745 
0.02265530801012419 
1.078364247182015 
-0.2637832050189227 
0.1791312488787883 
0.3070866196482976 
0.01395137359497243 
0.3599468186719931 
0.02621276045055811 
-0.2578816733354715 
0.1150026834941206 
-0.1590147077763642 
-0.1590147077763642 
-0.02145932207630518 
-0.08591158105982823 
-0.3128609742979152 
0 
-0.5445196001885573 
-0.6459940894291789 
1.337012540787764 
0.3673762852118334 
0.5442132617585583 
-0.02129765335698463 
-1.396552127458316 
0 
-0.5445196001885573 
-0.2795912999589699 
0.07358763376868911 
-0.39360803737931 
-2.168404344971009e-018 
-0.03224800366273101 
0 
0.07902675975455888 
0.06089453810832655 
0.5362470877060349 
0 
-0.1903527859494656 
1.518987729838968 
2.524854265742063 
-0.3754731534116528 
1.197835606651396 
0.2329271801053278 
0.1742368070989832 
0.4900910213570253 
-0.03573078619853713 
0.1279534512250311 
0.06366443457243756 
0.2058190082016914 
-0.1114829707007832 
0.04147767931393481 
0.1197184492754536 
0.04147767931393481 
0.211054377791211 
-0.2375942220582865 
0.005280359635459819 
-0.4633834885613567 
0.179076214189486 
-2.602085213965211e-018 
-0.2110177186732805 
0.3819507393264091 
0.6569598735069642 
0.2180124352616407 
1.508169641921012 
0.2143689329089159 
-0.1133678143158537 
0.08017616861121353 
-2.602085213965211e-018 
0.3509964405290185 
-0.3566775059588808 
5.204170427930421e-018 
-0.5887104450278389 
-0.09621064374395992 
0.01428933223020342 
0 
1.276502975879991 
-0.6472954243174628 
0.2016010088536993 
0.4524361165038525 
0.06831720572996029 
0.01517125283036371 
-0.1226698623015168 
-0.8500774249242669 
0.007205746205790114 
-0.06236714313857542 
-0.1364570972974329 
1.301042606982605e-018 
-2.168404344971009e-018 
0.07927641238808228 
-0.008149989945714696 
0.09768639786262925 
0.1216258459284232 
0.1829218158680205 
0.1923554730498345 
-0.2251532033732501 
-0.4062123662094489 
1.301042606982605e-018 
0.6819145949566801 
-0.3716353682189215 
0.9036988844295626 
0.6253584583884969 
1.301042606982605e-018 
0.2324386855063912 
0.2330327900515949 
0.3191014634274543 
-0.08871649878495269 
-0.08871649878495269 
-0.09892069217472781 
-0.02119994105108678 
-0.04347238188342946 
0.2031777554699383 
0.2031777554699383 
0.6557806699541086 
0.4235951493300082 
0.1712709738117322 
0.2031777554699383 
-0.001076639605910657 
0.8633782433912768 
-0.337542336736954 
0.3465203395639442 
0.3465203395639442 
0.06980248970133401 
-0.4185999742919323 
1.509488429107788 
0.5803863917146902 
0.2031777554699383 
0.2031777554699383 
0.2338065459515955 
-0.02119994105108678 
-0.04347238188342946 
0.5025650746765601 
0.2942463680404761 
0.4031998181479357 
-0.09621064374395992 
-1.734723475976807e-018 
0.3040007735479446 
-0.294987974000725 
-1.734723475976807e-018 
-1.734723475976807e-018 
-1.734723475976807e-018 
0.07458458796748554 
-1.734723475976807e-018 
-1.734723475976807e-018 
4.336808689942018e-019 
-1.734723475976807e-018 
0.751372436093477 
0.006572149479174656 
-0.3245738744139317 
-0.6635440316978468 
0.52929372900366 
0.5707634161488485 
0.1863923565620018 
-0.1661269771672005 
0.171625811345152 
0.1863923565620018 
0.2697613810980624 
0.006488712497249524 
0.3829833475859474 
0.1863923565620018 
0.1863923565620018 
-0.03638239873774948 
0.3861104071388224 
0.297624612737131 
0.1726645197591559 
0.297624612737131 
-0.2214605911085686 
0.1219639457044371 
0.1219639457044371 
-0.09426617006077856 
-0.08777067423176851 
-0.2707193858701875 
-0.1992965277172552 
0.0546725517612278 
-0.1992965277172552 
0.0546725517612278 
-0.04585701026027739 
-0.04585701026027739 
0.1662080360185685 
-0.04585701026027739 
-0.04975243692800772 
-0.1421142335196325 
0.08931744678589304 
0.1863923565620019 
0.5486536716354625 
-0.01534270936623956 
0.1863923565620018 
-8.673617379884036e-019 
0.07603020811657484 
0 
-8.673617379884036e-019 
0.2364170864870147 
-0.322441096324756 
0.07603020811657484 
0.5300939019565716 
0.1145006008354285 
0.370692733606446 
0 
0 
0.03539579238965092 
-0.7010652873936841 
-0.7010652873936841 
-0.3051236141350792 
0.1762975460773175 
-0.05325076789603981 
0.1646653766508253 
-0.3481777237751232 
-0.1359833889994855 
-0.2896401082295442 
-0.1359833889994855 
-0.5147241646016761 
0 
0 
0.0350812808046452 
-0.1393526127879676 
-0.190257044916176 
0.1373790590466167 
-0.1370340861248368 
-0.8268709503748508 
-0.6254441551970258 
-0.476731331722841 
-0.1423825359544547 
-0.4267093343280647 
-0.6254441551970258 
0.09067423378244514 
0.09067423378244514 
0.09067423378244514 
-0.3877098596408962 
0.1330052579286176 
0.09067423378244514 
0.09067423378244514 
-0.09382610236561872 
0.09067423378244514 
-0.09382610236561872 
0.09067423378244514 
0.04973910354631857 
0.04973910354631857 
0 
0 
0 
0.1234875861568423 
0.3262350265458343 
0 
0.2455319147568802 
0.1793768210311112 
0.05018886608179041 
-0.06360864567172746 
0.1885123510114837 
0.3434291441286083 
0.3182020463113237 
-0.06057659538307698 
0.2407642598144536 
0.4234026576497764 
-1.399036687487998 
0.4218076578011461 
-0.04235205469073339 
0.03609762233482583 
0.149979988926234 
0.2455319147568802 
-0.9954204396532261 
0.2239649723536829 
0.05188545977941554 
0.2239649723536829 
0.1010648854898316 
0.1941228956150998 
0.891792909084543 
0 
0.05188545977941554 
0.2702166387021424 
1.24022234217889 
-0.4767427483058553 
0.2968898767786221 
0.342046765120069 
0.1505141776828801 
-0.07993724230820383 
-0.0565174070260125 
0.1493098718834451 
-0.6962730515214525 
-0.5601961477056601 
0 
-0.06080426657562928 
-0.2006792093409842 
-3.469446951953614e-018 
-0.1071194076308788 
-0.6669811999875623 
-0.5175233620235008 
0.07456751404990371 
-0.9156247862052509 
-0.3235339101318464 
-0.1259730114667791 
-0.1259730114667791 
-0.2342875525276709 
-0.2342875525276709 
0 
-0.1365169948942578 
0 
0.2808913442260636 
0.1865821541722463 
-5.204170427930421e-018 
0.2734598579492412 
0.2734598579492412 
0 
0.0656770311633223 
0.0656770311633223 
0.2654722119246761 
0.8726495367814013 
-0.1585441700085669 
0.4522660673842617 
0.00978514891695003 
0.8001401986145172 
0.08460216256558735 
1.343363880642603 
-0.09837384897296735 
0.142832290162617 
-0.4048421196993097 
0.1086979438955445 
-0.2682031622437209 
0.1309685441224314 
0.524072820188194 
0.1309685441224314 
0 
0.1780340106400619 
0.1332610767116877 
0.1332610767116877 
0.524072820188194 
-0.3162504687758109 
0.09332277596097537 
0.4000072101989773 
0 
-0.3334668971955797 
-0.2257625480045524 
-0.22155288016072 
-0.08237840793106124 
0.01965243448362414 
0.4074831620005276 
0.0627725501134848 
0 
0.5072315923348075 
0.7674207090109018 
0.2945378099883257 
0.8037856386668534 
0.154558312311872 
0.7674207090109018 
-0.3617480207883785 
0.3192612047101878 
0.0189676412035985 
-0.007612363763377384 
0.0005830827261004701 
0.616341385771949 
0.3192612047101878 
0.2057760973642269 
0.3752748454465559 
0.3192612047101878 
0.1498317843689778 
0.6746078740238254 
0.2671501629188597 
0.2660040162449902 
0.3192612047101878 
0.3192612047101878 
0.5243909519587457 
0.5243909519587457 
0.2945378099883257 
0.4057578231542581 
-0.07916487665130385 
0.1411401568403604 
0.1411401568403604 
0.00936524497215304 
0.9122383633822354 
0.3463867701225983 
0.1519381275315059 
0.1411401568403604 
0.2242231396483596 
0.2242231396483596 
0.1411401568403604 
0.1411401568403604 
0.01255864747834937 
0.01255864747834937 
-0.231632092072764 
-0.231632092072764 
-0.165548004860351 
0.1077328083462495 
0.03214127928914545 
0.1843333898444053 
0.3531032453815537 
0.2904333698257969 
0.2904333698257969 
0.4057578231542581 
0.3285522803499259 
0.290433369825797 
0.3136405902015507 
-0.007568768385042079 
0.9464277121833343 
0.1411401568403604 
0.1865420832102181 
0.01028439994465795 
0.2851994092611497 
0.9474636657607516 
0.3327789730379646 
0.1445455793112394 
0.6155228879094771 
-0.1658495051687502 
-0.133792399087883 
0.04802694480518971 
1.656286843276619 
-0.1035685642757243 
-0.9813208451474335 
-0.1269786299392411 
0.1323995738728788 
0.4758917898955423 
0.9503864663126984 
0.9503864663126984 
0.7814193895409574 
-0.133792399087883 
-0.4700278170852781 
-0.3275304368640644 
0.05489686794705709 
0.05489686794705709 
-0.1658495051687502 
-1.34180380238784 
0.1483900565629716 
0.0375172065718416 
-1.34180380238784 
0.00962131093020077 
-0.2335651755264677 
0.00962131093020077 
0.1483900565629716 
-0.6295995359908579 
1.313940523114429 
-0.3779600386879906 
0.3520902863603191 
0.5475653289968863 
-0.2576829090140351 
-0.06941437954573781 
-0.004163946301790266 
-0.2120323362572287 
-0.004163946301790266 
-0.4465064007261618 
0.00962131093020077 
-0.3395406840057342 
0.05324013963287352 
0.00962131093020077 
-0.3619788668927662 
-0.005958308627467569 
0.1375429346166932 
-0.001239377069702203 
0 
-0.001239377069702203 
0 
-0.1974339472303336 
0.03493750260016131 
0.07211673180737085 
0.5549390718266202 
0 
-0.2144114585522166 
-0.006738463000165124 
0.1865186607254868 
0.05052313651027202 
0.446018984908648 
-1.203190398282349 
0.3517802103014241 
-0.4364372581790625 
-0.9644043281196594 
0.04412539495053143 
-0.1159280735455442 
-0.9764668328681097 
-0.4289602480582511 
0.3137672267451261 
0.3137672267451261 
0.1988113817337171 
0.1447410871204168 
-0.06195891248984956 
-0.2608604115444759 
0.1315684112181524 
0.09872005231965035 
0.03927964822309076 
0.03927964822309076 
0.1315684112181524 
0.2096880162498456 
0.2096014573417056 
0.4082520393861834 
-0.1602695714176168 
-0.4224016446953883 
-0.7865151933303625 
-0.9089006021153727 
0.2096014573417056 
0.2096014573417056 
0.4265703664784422 
0.3683303570599124 
0.5764616876422304 
0.0235833285278691 
0.4384649745359219 
0.9071753765863966 
0.4082520393861834 
0.9061749914295963 
0.2588498202749205 
0.4924229283361101 
0.2096014573417056 
0.2471256412951309 
0.1893852407260588 
0.6041081386221248 
0.5532277125526315 
-0.160581129092527 
-0.05625124027574796 
-0.3889480625803017 
0.2194630896966807 
-0.2241673116798573 
-0.06565091719835173 
-0.2756641877333692 
-0.2768242367879855 
-1.275888702818336 
0.6761362750202385 
0.6761362750202385 
0.3924453823093802 
0.1314900132706108 
0 
0 
0.3904105512644145 
0 
0.975203939297154 
-0.04239039547475356 
-0.4191403309983766 
0.08906388750297666 
0.002308593998697325 
0.2743254288536829 
0.2592031733905139 
4.77048955893622e-018 
4.77048955893622e-018 
-0.04239039547475356 
4.77048955893622e-018 
4.77048955893622e-018 
4.77048955893622e-018 
-0.1301911526230266 
4.77048955893622e-018 
4.77048955893622e-018 
0.2988314765808837 
0.2327473893684707 
0.2718722037607833 
0.2327473893684707 
0.0604490076160191 
0.2327473893684707 
8.673617379884036e-019 
-1.419157384023373 
0.1291770334988454 
-0.2894529219430646 
-0.3500300320193797 
-0.2172270614032289 
-0.1204890142789305 
0.501317581872594 
0.1317075845477741 
0.8995001184931314 
-0.1118490014115151 
0.1624012280053108 
0.1061229267174459 
0.4509768759911443 
1.084598005156049 
0.1409037412655887 
0.2843112556503551 
0.07390098628026345 
0.6267942053191611 
-0.1134462027257895 
-0.1134462027257895 
-1.153488617074016 
0.1009170237912416 
0.1009170237912416 
0.2098398232483718 
0.3527722675783729 
0.3527722675783729 
0.4590828736950249 
0 
0.02679884465641409 
0.1898029780946277 
0.07390098628026345 
0.4020268476386963 
-0.1762331801727305 
0.03080509570572497 
0.03080509570572497 
0.6267942053191611 
0.4570017897181913 
-0.4569480969946389 
0.1440848255242942 
0.4570017897181913 
0.1324723432130285 
0.1324723432130285 
0.1324723432130285 
-0.04757099041957517 
0.09291301284318776 
-0.1984991775602198 
0.4644423157712088 
0 
0.172553382272235 
-0.4569480969946389 
0.01506931656608639 
0.1914764757722472 
0.1815347782465271 
0.2088004718342999 
0.02675012527059923 
0.1877074740951374 
0 
-0.1327661204022821 
0.05136432180914059 
0.4889190569790488 
1.503307834464287 
-0.007698194816954782 
-1.283421148742022 
-0.1014104623217017 
-0.004338966919631106 
0.8425437271390472 
0.4007981511062338 
0.1215958667080363 
-0.007698194816954782 
0.1582335018643747 
0.1582335018643747 
0.2165475282043644 
0.07523637244017607 
0.6598479623573204 
-0.1523818214472071 
-0.1125617717007633 
0.3848363709688828 
-0.6148224466277454 
-0.4553948602617631 
-0.141336467704357 
-0.5402054938721317 
-0.141336467704357 
-0.141336467704357 
-0.3238208446901186 
0.2727788688475933 
0.1401955653910668 
0.1372684930822494 
0.07523637244017609 
-0.5237715399583183 
0.165673674716724 
-0.02117288112592602 
0.6490176593128623 
-0.7277216841850085 
0.2859244708692818 
-0.2912340729381968 
-0.4334584215160858 
-0.8805190356368514 
-0.7131925331173423 
0.08846859740792831 
-0.1812404473837063 
-1.734723475976807e-018 
0.1568812075857396 
-0.4567674482961713 
-0.4567674482961713 
-0.4567674482961713 
-0.3359797457965337 
0.6490176593128623 
-0.4273413462621037 
-0.46099199807217 
0 
0 
0 
0.308108775835347 
0 
-0.4595099445435169 
-0.3409273999886343 
-0.288936674792801 
0 
-0.2820006052426888 
-0.1997925894382796 
0.04792565195581865 
-0.5261836516145798 
0.5366198822935646 
0.2334942572017109 
0 
0.1206429844452444 
-0.06352720351630253 
-0.01810103399373177 
0.6891867259978768 
0.1949865185895848 
-0.4935521966096743 
0.1054806564782404 
-0.2075489149893862 
0.7572011835606849 
-0.18106280355737 
0.1949865185895848 
0.2188957757087866 
0.391157807131189 
0.02121017626837967 
0.3292472133872367 
0.2188957757087866 
0.05986996089190091 
0.1817353152736354 
0.1817353152736354 
0.4331571024948236 
0.2188957757087866 
-0.4935521966096743 
0.2978610863423916 
0.2978610863423916 
0.3044986077794202 
0.02166657692781717 
-0.8268335263717324 
0.1251413146566671 
0.1115434158824651 
0.1115434158824651 
-0.2931683055264709 
-0.2931683055264709 
-0.8268335263717324 
-0.6081110389113331 
0.009738017625186179 
-0.1344087762932744 
-0.448312582108429 
0.2959851032094199 
0.009738017625186186 
0.2070786385516886 
0.1231336802509633 
0.009738017625186179 
0.009738017625186179 
-0.333913121339668 
-0.4020741366629355 
0.009738017625186175 
-0.4020741366629355 
0.009738017625186175 
0.009738017625186182 
0.2853389373689483 
0.7072403999406117 
-0.660150801634832 
8.673617379884036e-019 
1.280171546112597 
-0.4471581739372065 
0.417955026268186 
0.4041270630713342 
0.1570003295039729 
8.673617379884036e-019 
-0.4217152776340156 
0.2010089375105358 
0.283218606007179 
0.2442729846766981 
0.01701367936598362 
-0.1765497020535186 
-0.1023123523413956 
0.7072403999406117 
0.07059120542969712 
-2.602085213965211e-018 
-1.445059324422396 
-0.09407998786511025 
-0.2805088158556442 
8.673617379884036e-019 
8.673617379884036e-019 
4.228388472693467e-018 
8.673617379884036e-019 
-0.660150801634832 
0.1517422450738382 
0.1517422450738382 
0.1517422450738382 
0.2280720577347785 
0.1932028193645798 
0.2088772209434256 
0.1715395012580713 
0.06664536619918184 
2.49366499671666e-018 
2.49366499671666e-018 
-0.2072359142142861 
-0.3935848147103015 
0.1956450370115208 
-0.07554435897168461 
-0.2656633185240623 
-0.5360479025149754 
-0.2361447934900096 
0.3960514815512963 
2.49366499671666e-018 
0.1715395012580713 
2.49366499671666e-018 
0.4447139745852751 
-0.05281898634194078 
0 
0.09762900523965745 
0.03549973400782298 
-3.252606517456513e-018 
0.3576514841141315 
1.329679790194925 
-0.006126400526620927 
0.01599605852343766 
0.07011248993056425 
0.354529921881406 
-0.1344589422718005 
-0.1344589422718005 
-0.2816415798461178 
0.01517125283036371 
0.01517125283036371 
-0.4094482203619261 
-0.05738657037527495 
-1.374715726639077 
0.005308740389239871 
-0.1049963795299071 
0 
0.1978777336518187 
0.01857602832942622 
0.6836154407367598 
-0.1049963795299071 
0 
0.0493356305943452 
0.0195232741860034 
-1.12271944788632 
-0.1862681673408811 
-0.8068004553510059 
-0.1862681673408811 
0.05825272822261931 
-0.6884599982744473 
-0.04191752778474184 
-0.0521515261178169 
-1.734723475976807e-018 
-0.03388199349724144 
0.5660531974611476 
0.01066456035864306 
0.1915781660292452 
0.4460739894753146 
0 
-0.4166089920230314 
-7.589415207398531e-019 
-2.054330046055402 
0.4357365737806587 
0.1847564368833002 
0.1265307432137831 
0.1265307432137831 
0.04136904940629794 
-0.1276069150985789 
-0.0005851830081668811 
-0.05327076247275465 
-0.2324448321606948 
-0.1215023796370154 
0 
0.1773741714019095 
-0.08026643796484402 
-0.08026643796484402 
0.4357365737806587 
-0.1165128017363474 
0.1847564368833002 
0.2753198727615472 
0.2497853448693619 
0.2497853448693619 
0.4383882003979223 
0.969168283731922 
4.336808689942018e-018 
-0.0653624760397403 
4.336808689942018e-018 
0.728607962468054 
0.09631369277508449 
0 
0 
-0.002127431995535662 
0.02797843795041512 
0.1885018689942688 
0.2871670357814894 
-0.2235243395941802 
-0.2937978575254679 
-0.192828739879612 
0.1444282362867473 
-0.06460097647213238 
-0.1011341860544786 
0.01920885977354529 
0.1550958062273505 
-0.06959251099371927 
-0.2245736695432883 
-0.1081548663416618 
-1.843143693225358e-018 
-0.2690250642481685 
0.6043083644298605 
0.05039040159709737 
0 
0 
-4.87890977618477e-019 
-0.6754390471471382 
0 
-0.0004331359787975015 
-0.401872067830317 
-0.1567576878166419 
-0.1477826073671763 
-0.3413879642654734 
-0.1658013756690611 
-0.3413879642654734 
-0.1275331670694233 
0.06531249970977997 
0 
0.3766845979722856 
0.4399945007625011 
-0.371629273802164 
0.01204080662398695 
0.5495453300072999 
0.1976127711666091 
-0.09974329844523598 
0.314270657568538 
0.314270657568538 
0.7208912265064547 
0.8618702431106083 
0.314270657568538 
0.01204080662398695 
0.7888606310343809 
0.314270657568538 
-0.6684440473884968 
0.4417055305424573 
0.314270657568538 
0.5495453300072999 
0.3472812492870656 
0.32615812013047 
-0.2713470393884251 
-0.1214516388819276 
-0.08752478257279503 
-0.08752478257279503 
-0.08752478257279503 
0.5076733431093393 
0 
0 
0 
0.1505964773287588 
-3.469446951953614e-018 
0.008598595615792858 
0.002021040888793819 
0.3135891914956023 
-0.356916649695575 
1.302254723717037 
0.4509480130746891 
0.3135891914956023 
0.02907833917175247 
0.3878099906175725 
0.01176147020718675 
0.3135891914956023 
0.3899528058090708 
0.1769191731713831 
1.197905494403917 
0.8425728988404095 
0.416480730621781 
0.4059447423663566 
0.7483424733551413 
0.2919420865056911 
0.2919420865056911 
0.09321167465334954 
0.2919420865056911 
-0.4087619520247289 
0.6345868521139131 
0.04638654441029166 
-0.5473861885174967 
-0.2148332878024852 
-0.2493096385897936 
0.2073076384681081 
0.164773982401173 
-0.1006474616730972 
0.2717085452279004 
0.2073076384681081 
-0.5417559124906504 
-0.3381489093216597 
-0.3120172500052178 
0.01018881620587955 
0.01018881620587955 
0.164773982401173 
-0.3682721130657947 
0.01018881620587955 
-0.3179952474123237 
0.2046061926250455 
-0.09621449134469225 
0.2889079011693598 
0.1774990151729881 
0.01018881620587955 
0.5733185883371429 
0.01018881620587955 
-0.3162848187545596 
-0.1006474616730972 
-0.08080330944449497 
-0.06886878905285154 
0.4940759359272148 
0.2717085452279004 
-0.0201302215517815 
0.4116788194618646 
0.190509651668047 
0.190509651668047 
0.1768021779754774 
0.1768021779754774 
0.18561979101889 
0.5565525058014581 
-0.02726770921464673 
-0.3877392337777686 
-0.3205787098970237 
-0.06911592801358668 
-0.2731725746431338 
0.0767900494487576 
0.6523304084832998 
0.09716484315858667 
0.04806922620046386 
0 
0 
0 
0 
0 
0 
0 
0 
0 
0 
0.1419813129254633 
0 
0 
0 
0 
0 
0 
0 
0.08749895714766173 
0 
0 
0 
0.1135064077880417 
0.2426923542377709 
0 
0.2426923542377709 
0 
0 
0.03415519717985766 
-0.08506213453189003 
5.204170427930421e-018 
-0.3757153021233267 
-0.3757153021233267 
-0.2474464685395657 
-0.08722588930304701 
-0.2474464685395657 
-0.2703438892536972 
-0.2474464685395657 
-0.05432861499460464 
4.119968255444917e-018 
0 
-0.08506213453189003 
0 
0.03157513215991029 
1.301042606982605e-018 
1.219727444046193e-018 
0.1536569852799612 
0 
-0.01896473099921136 
0.06219982622176462 
0.01992201197040847 
0.05408859159943598 
-4.336808689942018e-018 
0.10802871818413 
-0.1092296305162772 
4.77048955893622e-018 
-0.0758596003190463 
4.77048955893622e-018 
-0.6410100184324641 
-0.7693333821152421 
-0.07950704543837915 
0.0162674343307289 
0.07117629193061519 
0 
-0.1571045408687388 
0.04493467268684746 
-0.187109801027369 
-0.29121043055772 
0.08665333546132403 
0.2325207840810275 
-1.734723475976807e-018 
0.5905488921863115 
0 
0.2141559543833305 
-0.1943597381468996 
0.1991502445179399 
-0.09407998786511025 
-0.4585225067424245 
-0.3234489464493601 
-0.3234489464493601 
-0.1017438750309353 
-0.4203582551547873 
0 
0.143350913706438 
-1.734723475976807e-018 
0.5905488921863115 
0.0453050899023576 
0.4695973962160404 
0.01849936004347902 
-0.04800941397325954 
0.5901956319191443 
0.2871167110568568 
0.7496884838710729 
0.2002364774443813 
-0.04800941397325954 
0.06811830458624744 
0.06811830458624744 
-0.7763348821150908 
-0.04394400197989504 
-0.3130064944585064 
4.336808689942018e-019 
-0.1186856464657319 
0.06610613026075904 
0.1947343357276164 
0.08378249798157483 
0.2152338457576482 
0.3322051059413086 
0.1622468750663023 
-0.01745004929940862 
-0.11965709601066 
0.005840432237534298 
0.1101904719520925 
0.06075556120998976 
0.03563159189559248 
-0.01570146835415919 
0.00395980215883129 
-0.71495827649269 
-0.6284869055513003 
-0.3227897085649267 
-0.2322708785474718 
0.1330336776441306 
0.08437713031250441 
0.08437713031250439 
0.5669415801488789 
0.03017268503789523 
0 
0 
0 
0.5207613828149647 
0.1940324881256153 
0 
0 
0.02373008779936648 
0 
0 
0.3954031585051047 
0.1852347154806843 
0 
0.5709659494509891 
0.6246995465806021 
0.298634212655076 
0.05853792944566903 
0.3400428044199615 
0.3400428044199615 
-0.007428095739879555 
0.2546238043554927 
0.1316685645964871 
-1.822904620305504 
0.1597192448798883 
0.5451725516685193 
-0.07377785939126978 
0.5451725516685193 
1.009221586585255 
0.3400428044199615 
0.05983643600581892 
0.5709659494509891 
0.3400428044199615 
0.4970053091608596 
0.3433672391314763 
-0.2506320530761637 
0.4970053091608596 
0.3433672391314763 
0.3433672391314763 
0.3433672391314763 
-0.5167692696400483 
-0.2648469700601091 
0.8154454693292828 
0.1855171976616095 
0.1594511311098159 
0.1594511311098158 
0.3922142339231838 
0.148417126054725 
0.6913085166019888 
0 
0 
0.09962628201045148 
1.301042606982605e-018 
0.3909104474622678 
0.2814126066136906 
0.6555073786894187 
0 
0.05344612897583719 
-0.2284505438447084 
0.2485774722430852 
0.1346791905283232 
0.08235573584450297 
-0.06207721131742674 
-0.1968002064821428 
-0.0585274565206506 
-0.0585274565206506 
0.1808228035496134 
-0.1019127839034135 
-0.2875759612379166 
-0.5089456349045328 
0.1346791905283232 
0.1346791905283232 
-0.443269319541054 
0.2272153271150598 
0.2721488993873487 
0.1346791905283232 
-0.3595663655312485 
-0.6644499909418581 
0.3382200960351585 
0.1346791905283232 
-0.5201302356371014 
0.3103078974577855 
-1.194077918621821 
-0.1699820802013485 
0.3554923291456679 
0.01447180412197362 
-0.3851328666834977 
0.353270444180037 
0.2809868507812049 
-0.9555152688638269 
-0.1119100883317817 
-0.351650232999242 
-0.1775837908130899 
0.2305089630189287 
0.4489887346366884 
-0.01171572278512035 
-0.01171572278512035 
0.08026997401449618 
-1.338718951902637 
0.411390165993641 
0.1680033557169307 
0.1680033557169307 
1.355252715606881e-019 
0.1118829200550263 
-0.5036916917956429 
0.202544905697568 
0.6431186278288734 
-0.2459112778101037 
-0.05547046069057203 
0.1026401810119107 
0.3568998242887696 
-0.3772475846520472 
-0.1343041891860851 
0.07497711121138476 
0 
0 
0 
-0.3691443352847098 
0.2319592762111054 
0 
0 
-2.818925648462312e-018 
0 
0 
-0.1243950215128294 
0 
0 
0 
0 
0 
0 
0 
0 
0 
0 
0 
0 
0.1884350954758821 
0 
0 
0.1884350954758821 
0 
0 
0 
0.3126993720910317 
0.158060709515602 
0 
0 
0 
0.09702357763741998 
0 
-6.938893903907228e-018 
0.0656770311633223 
0.0656770311633223 
0.007760637147541969 
-0.1853904948140503 
-0.1853904948140503 
-0.1853904948140503 
-0.1853904948140503 
-0.1853904948140503 
-0.1853904948140503 
-0.1853904948140503 
-0.1853904948140503 
0.2529673216253243 
0.2529673216253243 
-0.360717733740854 
0.5127140609412495 
0.6057031401308383 
-0.1359595137793146 
-0.1359595137793146 
0.2831007055164969 
0.0656770311633223 
-0.013474527810701 
-0.2041540123960482 
-0.1306861791530902 
0.3374874696584507 
-0.1866714729892687 
0.475995999862659 
0.7557352551237843 
0.03961325507973094 
0.03961325507973094 
0.03961325507973094 
-0.07803809897969906 
0.03961325507973094 
0.03961325507973094 
0.1100159163383208 
0.03961325507973094 
0.03961325507973094 
0.27635842026597 
0.03961325507973094 
0.03961325507973094 
0.03961325507973094 
0.03961325507973094 
0.03961325507973094 
0.03961325507973094 
0.03961325507973094 
0.03961325507973094 
-0.122450201488327 
-0.2773923458651883 
0.03961325507973094 
0.03961325507973094 
-0.08428881274643392 
0.03961325507973094 
0.03961325507973094 
0.03961325507973094 
0.03961325507973094 
0.03961325507973094 
0.03961325507973094 
0.03961325507973094 
0.4296222435986997 
0.03961325507973094 
0.03961325507973094 
0.03961325507973094 
0.03961325507973094 
0.03961325507973094 
0.03961325507973094 
0.03961325507973094 
0.03961325507973094 
0.03961325507973094 
0.03961325507973094 
0.03961325507973094 
0.03961325507973094 
0.03961325507973094 
0.03961325507973094 
-2.018641441298485 
0.03961325507973094 
0.03961325507973094 
0.03961325507973094 
-0.4470279744738043 
0.03961325507973094 
0.03961325507973094 
0.03961325507973094 
0.03961325507973094 
0.03961325507973094 
0.03961325507973094 
0.03961325507973094 
0.03961325507973094 
0.03961325507973094 
0.03961325507973094 
0.03961325507973094 
0.03961325507973094 
0.03670121875904302 
0.03961325507973094 
0.03961325507973094 
0.03961325507973094 
0.03961325507973094 
0.09285432256865389 
0 
0.2372439965496009 
0.3851119871372618 
0 
0.06130759507486142 
0.05399094875089537 
0.03315021351268525 
0.03315021351268525 
0.03315021351268525 
0.03315021351268525 
0.03315021351268525 
0.03315021351268525 
0.03315021351268525 
0.03315021351268525 
0 
0.2075464400279878 
-0.0388541811159033 
0.3194930637199012 
0.3194930637199012 
0.4056709676241753 
0.3194930637199012 
-0.3296776111604812 
-0.4321277458863862 
0.06896521536193731 
-0.0601800387148634 
0.3810377376749114 
0.2596380232413107 
0 
-0.3447818433214775 
0 
0.2596380232413107 
0.3379825698035014 
-0.138657094591734 
-0.01891701164623773 
-0.2177189491965875 
0.2214007626493697 
0.2214007626493697 
0.04965597030591649 
0.04965597030591649 
0.06240314337531281 
0.2037180346176399 
0.4677961743582776 
2.38524477946811e-018 
-0.1569730243089893 
-0.0005987218438113113 
0.09643436240221846 
0.3472714893110922 
-5.421010862427522e-019 
0 
0.5605270196519662 
0.02776284143974907 
0.0005519512067377441 
0.01554519774128722 
0 
0.2736396111354247 
0.2215319900788519 
0.06760823553847208 
-0.138759414311587 
0.04832940886221711 
-0.4812983222346854 
0.3569861223930897 
-0.00131430417963312 
0.4174961677317766 
0.4147391750140447 
0.9229562397589141 
-0.510210991530376 
3.035766082959412e-018 
0.2258723515915289 
0.2258723515915289 
0.2258723515915289 
0.1336016189427585 
-0.08375564380880539 
-0.5868687679883964 
0.2143689329089159 
-0.08135915976956122 
-0.08135915976956122 
-0.04847223934274925 
0.942330435430448 
4.87890977618477e-019 
0.01791690715537346 
0.09293151092430188 
-0.09476461256388984 
-0.09476461256388982 
4.87890977618477e-019 
4.87890977618477e-019 
0.09146154853633647 
0.3006741219205776 
1.550489489733408 
-0.3701730131768031 
0.01284611581895463 
-0.2231511963199185 
0.7469179737693267 
-0.1886892670349401 
-0.1736741155113734 
0.03014623311733288 
0.4181117669768514 
0.1697271895215627 
-0.4250266960537703 
0.03158043362208189 
0.5729231017582621 
0 
0.008647157504618717 
-0.03625907211352997 
0.2135864418320473 
-0.3519565027971288 
0.1542742995384074 
-0.3283601028019573 
-0.2233816056992534 
-0.1545499350733293 
0.06883167062592419 
0.240479449618799 
0.02044544231100125 
0.01102453314430472 
-0.06122146493749296 
-0.04911178217347473 
-0.2054721394820675 
-0.1623181113375942 
0 
0 
0 
0 
0 
-0.04195552241490011 
0.04842870312990361 
0 
0.3170496160919357 
0.1504833558211884 
0.05919569440333432 
0 
-4.336808689942018e-019 
0 
0.3950536291994445 
-0.6333918567513617 
-0.9458518094640326 
-0.3394894379152146 
0.2703273274684471 
-0.3394894379152146 
-0.3394894379152146 
-0.3633162827250596 
0.03478514145669063 
-0.4235181212285162 
0.03478514145669063 
0.03478514145669063 
-0.1396532710790672 
0.03478514145669063 
0.03478514145669063 
0.03478514145669063 
0.25937820381212 
0.03478514145669063 
0.03478514145669063 
0.03478514145669063 
0.03478514145669063 
0.03478514145669063 
0.03478514145669063 
0.03478514145669063 
0.03478514145669063 
0.2994013974082948 
0.03478514145669063 
0.03478514145669063 
0.1724482789768214 
-0.1974066365937443 
-0.02284893315904896 
-0.05341059467326609 
-0.0179532273940201 
0.2703273274684471 
0 
0 
0 
-0.2934205645590516 
-0.3129894355470421 
-0.4936515142078483 
0 
0 
-0.1448515796347803 
-0.1840908312893768 
0.367615170471197 
8.673617379884036e-019 
8.673617379884036e-019 
8.673617379884036e-019 
-0.02888085663696131 
0.367615170471197 
0.367615170471197 
0.05444672204378455 
-0.8070048713812249 
9.974659986866641e-018 
1.108370928110978 
0.04123747852554995 
0.05444672204378455 
0.02925891136451268 
0.06266987555575665 
0.7033608821734166 
0.07811960503169328 
0.07811960503169328 
0.07811960503169328 
0.1812984736020584 
0.1812984736020584 
0.1812984736020584 
0.1812984736020584 
-0.8070048713812249 
0.1144076902338243 
-0.07000133722104826 
0.2019383776006243 
0.1100930467768526 
-0.0954595085985821 
0.02621195410386756 
0.8199493864566073 
-0.03436434989960542 
-0.03436434989960542 
0.2974320609058975 
0.1372219570192965 
0.2302782310320536 
0.1144076902338243 
0.3339352339282369 
0.0004648601823335413 
0.2373713067917672 
0 
0.0004648601823335413 
0.8812476690643812 
0.2373713067917672 
0.2373713067917672 
0 
-0.02781663672267461 
0.05213691537763768 
0.05213691537763768 
-0.1658618902081511 
-0.2059630622109383 
0.08909657059856396 
0.4935121616308489 
0.06807753150075954 
-0.1663017088725325 
0 
-0.2180028728877203 
0.3945484307175244 
0 
0 
0 
0.1434538131339403 
0.1434538131339403 
0.1434538131339403 
0.2048882881067594 
0.1434538131339403 
0.1719093559010384 
-0.1663017088725325 
-0.1663017088725325 
-0.2351673395660932 
-0.1663017088725325 
-0.1289568449248575 
0.04132334875944896 
-0.640813018646392 
-0.7805138671084517 
0.02823231554066969 
0.2742865979033424 
0.01883208222804027 
0 
0.03361875637686401 
0.0805955100126582 
-0.7369913239749812 
-0.2410551655458983 
-0.04020546483392536 
0 
0.02706728196339197 
-0.4298928154750444 
-0.01426134903678977 
0.03658203246683096 
0.1176748446450437 
0.5616830953531624 
0.1281649695460516 
-0.05757504643802008 
-0.1924832254696576 
-0.4166522608108447 
0.3142854835129453 
0.4042437782330094 
0.1901882844946544 
0.1901882844946544 
0.1625194202390192 
0.1389368753257575 
0.1901882844946544 
0.1901882844946544 
0.1901882844946544 
0.003493817560745182 
0.1901882844946544 
0.1901882844946544 
0.04305655921174846 
0.292031180814816 
0.1901882844946544 
-0.2517318564487401 
0.1901882844946544 
0.9221165669496078 
0.170393694816057 
0.05558690268450582 
0.05558690268450582 
0.05558690268450582 
0.9856386941383768 
0.05558690268450582 
0.05558690268450582 
0.2408216181651901 
0.2408216181651901 
0.2771903098436584 
-0.02578446328465298 
0.04799258410228801 
-0.2243406340733749 
-0.1562966729719804 
0.3192506433934789 
0.3154887352971483 
-0.27333300549683 
0.3320401180736938 
0.3320401180736938 
0.3320401180736938 
0.6409213660696288 
0.6485846685221757 
0.3049132905471189 
-0.3001767605237123 
-0.474307518699678 
0.2051957917716376 
0 
-0.2302200738096027 
-0.02302419132210826 
-0.474307518699678 
-0.2695087037124048 
0.2999429534885314 
0.06743026530644655 
0.2024389578138379 
0.4011141075676293 
0.2365287704124675 
0 
0 
0 
0 
-1.734723475976807e-018 
-1.734723475976807e-018 
0.2170256555617388 
0.1730758839515473 
-0.9028112619219173 
-0.4495855534882439 
0.2051957917716376 
0.837332562937568 
-0.2961283757949999 
-0.747963987053989 
0.08220966849664321 
0.1417520740228704 
-0.2428901208571104 
0.346764376925528 
0.1689942906725071 
-0.2849942496039012 
0.02575380220266394 
0.4230236236975565 
0.08220966849664321 
0.1281347392083703 
0.1281347392083704 
-0.4649457986009842 
-0.3541159922696619 
-1.256568165239927 
-0.418455807383097 
0.2883429888845702 
0.07432894344478244 
0.1712667451698872 
0.08220966849664321 
0.08220966849664321 
0.2275330944787254 
0.04209649664804171 
-0.2881777474778705 
0.1141241898388539 
-0.2881777474778705 
0 
0.1141241898388539 
0.5786770411521749 
-0.3300774960809804 
8.673617379884036e-019 
-0.06862326683844981 
0.4140976479209141 
-0.3432058746304924 
0 
0.05371007817326956 
0.06915151402610241 
0.3849565894357027 
0.2893607724596954 
0.04926506911495779 
0.4817136086173215 
0.04926506911495779 
-0.241873702250456 
0.2033357512850222 
1.095805923983849 
-0.7840444313524821 
0.06080130106224528 
0.01072314966883503 
-0.1822653693897777 
-0.2293416239441388 
0.5394406334550925 
0.3028328587720602 
0.03645145759723215 
-0.1711461466558747 
-0.2076510291498197 
-0.2242497743846304 
-0.1628257105044755 
0 
3.252606517456513e-018 
0.1124960877723921 
0.1733461433542848 
0.4028387128787517 
0.4028387128787517 
0.362606146725346 
0.1733461433542848 
0.1733461433542848 
-0.7783134517805863 
0.201885208072233 
0.2049265769763667 
0.3214057629477763 
0.3214057629477763 
0.2081662469844576 
-0.3270992795744765 
1.458747485487478 
0.5105810624267793 
0.03354400504477401 
0.01943156681373354 
0.2528574657763816 
0.117944376959219 
0.01943156681373354 
0.2528574657763816 
0.8422203162253149 
0.1803172208506182 
-0.178367241366334 
-0.8065934261460245 
-0.03556898727581725 
-0.06453162408225598 
0.1016395510384026 
0.78653388459638 
0.3182246560659042 
-0.1311234703129975 
-0.1311234703129975 
-0.3557273078683651 
0.5105810624267793 
0.5105810624267793 
0.1342403485474648 
0.0652042364150152 
0.04393805816256192 
0.1092994885400397 
0.3940023789205625 
-0.5511941886758532 
0 
0 
0 
0.5163845320592458 
0.4346816437851633 
0 
0 
0.4346816437851633 
0 
0 
0 
0.2433868102767108 
0 
0 
0 
0.08111969748291484 
0 
0 
-0.04910132701484696 
0 
0 
0 
0 
0 
0.7999390674265418 
0 
0 
0 
0.09687506026175864 
0 
0 
0 
-0.3903724910791348 
0 
0 
0 
0 
0 
-6.938893903907228e-018 
0 
0 
0 
0 
0 
0 
0 
0 
0.2767701152983345 
0 
0 
0 
0 
0 
0 
0 
0 
0.1295812778053653 
0 
0.1367921175828941 
0.09139795902128745 
0.1600961064977245 
-0.1938932220417032 
0 
0.1367921175828941 
-0.096030262384269 
0 
0.1914137362773576 
0.1914137362773576 
0.04872742852044887 
0.239907178684252 
0 
0.2458437971391864 
0 
-0.2797458761896123 
0.06430680805821344 
0 
-0.2610302232663068 
-0.2331904701630261 
-0.2186396641988679 
-0.5518330027240083 
0.2811547642569227 
0.09139795902128745 
0.1600961064977245 
0.8889661883044626 
0.1733152845002814 
-0.8251560185887772 
0.3566506546025168 
0.02676691180012032 
0.02676691180012032 
0.02676691180012032 
0.02676691180012032 
0 
0.03417829786845412 
0.03417829786845412 
0.2187498652598015 
-0.09850826700648382 
0 
0.003825406733383449 
-0.4383778619799806 
0.5054551807723742 
-0.140709360997311 
-0.166525283200114 
-0.1840636987727909 
-2.818925648462312e-018 
-0.4251954433578905 
-0.1750615284755594 
-0.2555181755648111 
-0.09850826700648382 
2.276824562219559e-018 
-0.1706507547092742 
-0.1706507547092742 
0 
-0.5028779231833648 
0.05045179054327798 
0.03468433437686397 
0 
-0.008259547751211419 
-0.8794940914691115 
-0.1522373101576248 
0.2357925553689113 
0.204692909705671 
0.03158043362208188 
-0.3874512864354607 
-0.00538688882652785 
0.1418472028635363 
-0.2391312671012272 
0.03158043362208189 
0.09085840093858946 
0.05037083279327288 
0.05037083279327288 
0.2606905181582393 
0.03158043362208189 
0.03158043362208189 
0.03158043362208189 
0.03158043362208189 
0.08118977990171743 
0.03158043362208189 
0.03158043362208189 
-0.8794940914691115 
0.05456791430410304 
0 
0.1564770487851321 
0.01699574794868164 
0.4185873900430693 
0.1227656681898392 
0.1227656681898392 
0.1227656681898392 
0.1227656681898392 
-0.2600085188508221 
-0.4237899700563294 
0 
0.1546386625754297 
0 
-2.818925648462312e-018 
0 
0.2540742386576916 
1.734723475976807e-018 
1.734723475976807e-018 
0.2960946562000069 
0.1204439751962808 
0.1204439751962808 
0.1204439751962808 
0.01660660774969858 
0.05207961553364071 
0.01860328402681385 
-0.6226643734362498 
0.3943579376859698 
0.1076815033094431 
0.1076815033094431 
0.1076815033094431 
-0.1129665297649328 
-0.1968431907575284 
-0.1968431907575284 
-0.3386942794613049 
-0.1968431907575284 
-0.1968431907575285 
-0.1104289535016584 
-0.4437381449527448 
-0.3642929846134073 
0.3199041114411169 
-0.1293185237549101 
0.3429685671677246 
0.5274689033157883 
0.5838555048200723 
0.8140219500013977 
0.3199041114411169 
-0.3642929846134073 
-0.00170183255606891 
0.08201022030965109 
-0.1293185237549101 
0.08169919491837038 
-0.2754298453676959 
0.2623129728784586 
0.3044195051173979 
-0.2886499122319852 
-0.2886499122319852 
-0.2007255855468754 
0.1267211876557237 
0.2412217884911521 
0.2412217884911521 
0.2412217884911521 
0.4579481939174822 
0.4008124338574306 
1.316953120085064 
0.4206857635384425 
0.754692777337305 
-0.1030509754705312 
0.3988909476467134 
0.3285741375686924 
0.3388919465131017 
0.1642565110732769 
0.1642565110732769 
0.164256511073277 
0.164256511073277 
0.2096899557587539 
0.07189471448165208 
0.1642565110732769 
0.1642565110732769 
0.1992114154710412 
0.1642565110732769 
0.5181201647841182 
0.1642565110732769 
0.4973790274900043 
0.3445007968911443 
0.3445007968911443 
0.1123568048341456 
0.581245962077383 
0.1320548409910055 
0 
0.3295701316157256 
-0.2518638329674319 
-1.734723475976807e-018 
-0.7271244384900499 
0.09972543746088472 
0 
-0.3539724293780721 
0.1964156572836144 
0.09536982424171274 
0.3368519248759667 
0.3519703466730191 
0.1937807177430299 
0.1937807177430299 
0.1937807177430299 
0.1937807177430299 
0.1937807177430299 
0.1937807177430299 
0.1937807177430299 
0.1937807177430299 
0.4226196076423804 
0.2853825482439508 
0.1937807177430299 
0.3583080429208014 
-0.3371286379882646 
-0.357934485968064 
-0.5963582723676375 
-1.473580370346526 
-0.4046366412017979 
0.2576150396083289 
0.3929901560766785 
-0.212711658843867 
0.2741419672954354 
-0.4762107719389489 
-0.2037942534303987 
-0.3539724293780721 
0.3465934375139183 
0.2466270933423325 
-0.04367039398345315 
0.1180424484704367 
-0.1465318222994591 
-0.6213017995622242 
0.02317413413687679 
-0.4372142209649373 
0.5170852850227816 
0.4449596429684639 
0.7210365705598685 
0.4449596429684639 
0.001067074466385936 
-0.4504641456941327 
-0.1173208206733726 
0.03009165231870557 
-1.240854003706599 
0.08901813918535242 
0.2072125905458884 
0.1161336541645827 
0.1666238907021713 
0.03009165231870557 
0.1666238907021713 
0.03009165231870557 
0 
0.09329829959195621 
0 
-0.03575323421015533 
0.1552315026533394 
0.1105917665064079 
0.08957838439511458 
0 
0 
0.04317238577854248 
0 
0.2952938908241344 
0.03822048460838781 
0.03822048460838781 
0.03822048460838781 
-0.07024919763643008 
-0.04348228583630974 
0.4226594115902621 
0.02791584596330161 
0.2474451166558977 
-0.1520320129275798 
0.1540108122153091 
0.2282876648812405 
0 
-0.09119993035530723 
0.05242005458419292 
-1.734723475976807e-018 
0.07997807157039168 
0.11634676324886 
0 
0 
-9.540979117872439e-018 
-0.2093585961525113 
-0.244610397988956 
0.4202920935773059 
-0.4879631047178282 
0.1682224829078488 
0 
0 
0 
0.03120139316235441 
0.1329147631169727 
0.04136904940629794 
0 
0 
0.1709592745517233 
0.4032002346138839 
0.4125366734135884 
-0.09629481231479468 
-1.965063689951237 
-0.3034510247146938 
0.1792416568603705 
0.4042011645934069 
0.3403004544613128 
0.3718270197000079 
-0.00226859117797868 
0.3461156026293628 
1.734723475976807e-018 
0.122612853019121 
0.004276466888268423 
0.1917497178723105 
0.1917497178723105 
0.1917497178723105 
0.001628658805538633 
0.176756471337761 
0.176756471337761 
-0.2036890855244194 
-0.2181265443975686 
0.2670760038373276 
0.176756471337761 
0.06151697805619118 
0 
0 
0 
0 
0.1689875996211348 
-0.2754130011341955 
-0.2754130011341955 
-0.3662976236689727 
-8.673617379884036e-019 
-0.9718046068040973 
-0.03419800383502435 
-0.01012394018100389 
0.1789076606343671 
0.1789076606343671 
-0.4317055452797755 
0.9380983951879608 
0.02012454351262799 
-0.1111019175488717 
0.3713657630731269 
0 
0.1006896465923871 
1.166269559024614 
3.903127820947816e-018 
0.1223949284018362 
0.1223949284018362 
1.066589799781805 
0.04832977810193875 
-1.734723475976807e-018 
-0.149501174409846 
0.1353659721778034 
0.0811495435944045 
-0.06351197358721997 
-0.06351197358721997 
0.8074267838105026 
0.705188237652658 
0.00253734453647957 
0.6896055079380988 
-0.4331183250469388 
-0.2694480053905709 
8.809142651444724e-019 
0.1508805938426739 
-0.02579968365298387 
0.05018886608179042 
0.05018886608179043 
0.05018886608179043 
0.0726548692743922 
0.05018886608179042 
-0.02579968365298387 
0.07467623537721081 
0.07467623537721081 
0.05018886608179042 
0 
0.07493209738691276 
0.1689722494542026 
0.03387173844919603 
0 
-0.05243967469775091 
0.08534016280173114 
0.08534016280173114 
0.2183657130009829 
0.2429930070165753 
0 
-1.734723475976807e-018 
-1.734723475976807e-018 
0.04361882870267274 
0.04361882870267274 
-1.734723475976807e-018 
0.3174925429134126 
-1.734723475976807e-018 
0.1332610767116877 
-0.1737023654569184 
0.6128088472299524 
0 
-0.2476345899205588 
-0.09884113235521304 
-0.09884113235521304 
-0.09884113235521304 
-0.0180187683018849 
0.2703650937632913 
-0.04686067295066575 
-0.1276469050959828 
-0.2121943347756379 
0.03570668572686208 
-1.734723475976807e-018 
0.4148921031267577 
-0.03883920274008145 
-0.4777320917919681 
0.003125641187167504 
0.7174933478654209 
-0.3059722634006658 
-0.8989975821689683 
0.1935582667087004 
0.3814745173119869 
0.1466952488234502 
-0.005862984430369839 
0.02004802391257254 
-0.2637414654129493 
0.2633141718079244 
0.3041951806007058 
0.3041951806007058 
0.1550958062273505 
0.2136577167118901 
0.1782699403642272 
0.1782699403642272 
0.1782699403642272 
0.1782699403642272 
0.1169065988890062 
0.4575488975611845 
0.2699180522408876 
-0.005842381002762489 
-0.4435385313874415 
0.03279360623718948 
0 
0.2963540455541842 
0.1269807082968656 
0.1269807082968656 
-0.005842381002762489 
0.1102047652387791 
0.2970374995361346 
-0.2268073720455988 
8.673617379884036e-019 
0.04402310917842959 
-0.2975245493366103 
-0.335802886159858 
4.336808689942018e-019 
-0.2724595840824618 
4.336808689942018e-019 
2.168404344971009e-018 
2.168404344971009e-018 
2.168404344971009e-018 
2.168404344971009e-018 
2.168404344971009e-018 
2.168404344971009e-018 
0.05474586999542691 
-0.093704890359377 
-0.093704890359377 
2.168404344971009e-018 
-0.6872687665576948 
-0.093704890359377 
2.168404344971009e-018 
-0.093704890359377 
2.168404344971009e-018 
0.1019110862003617 
0.3297281491140359 
-0.03393778903226117 
-0.2975245493366103 
-0.01115928532789456 
2.168404344971009e-018 
2.168404344971009e-018 
4.336808689942018e-019 
2.168404344971009e-018 
0.3654781363442339 
0.3035819986707757 
-0.01040778006454364 
0.3381298770015274 
0.04136904940629792 
0.06151730436080852 
0.04136904940629794 
0.04136904940629794 
0.05983539032042145 
0.2268820912162599 
0.1208992283227968 
0.04136904940629794 
-0.1843934985982545 
-0.6733753116666894 
-0.1307491306354393 
0.1746301261179857 
0.3595906783742837 
0.04136904940629794 
0.2281068141598845 
0.1426175332360462 
0.1024754019673024 
0.1088294901807173 
-0.1113896639986053 
0.08009524558080879 
0.08009524558080879 
-0.3847567202353742 
0.200655818333587 
0.1426175332360462 
0.2992779306725565 
0.2992779306725565 
-0.06928659986047299 
0.2413244646268916 
-0.1991386030140609 
0.08009524558080879 
0.08009524558080879 
0.08009524558080879 
0.03574660254532443 
-0.1406328074358298 
-0.3388361682881966 
0.2610066263660761 
0.0996185197668122 
0 
-0.04915192615263822 
-0.08395507459836539 
-0.109137255243706 
-0.0652637241978819 
0 
-0.04020546483392534 
1.040834085586084e-017 
1.040834085586084e-017 
-0.07170844878223319 
1.040834085586084e-017 
1.214306433183765e-017 
-0.4180745912965992 
1.084202172485504e-018 
0.04637966543102575 
0.1009170237912416 
0.1009170237912416 
-0.03159747021570195 
-0.1213569863024723 
-0.3462407820244042 
-0.2545756447122711 
0.09986449876194409 
0.06677832242978385 
0.03315956605291981 
0.2547343643138039 
-0.7435247222829969 
-0.5561577544746111 
-0.3539572584287627 
-0.3539572584287627 
0.01974955213397714 
0 
0 
0 
0 
0.0706066547770898 
0 
0 
0 
-0.3621681324001407 
0 
0 
-0.09776367827251351 
8.673617379884036e-019 
8.673617379884036e-019 
-0.100282234413739 
-0.5004459627841704 
0.6147619888739171 
0.1195897409716546 
1.516641946283119 
-0.2028513553531014 
0.1195897409716546 
0.1195897409716546 
0.6147619888739171 
0.1166477802797031 
0.1166477802797031 
0.1195897409716546 
0.1195897409716546 
0.1195897409716546 
0.2877348005475173 
1.516641946283119 
0.1999650839594027 
0.2155219755902796 
-0.1714787593178879 
-0.1155719272873642 
0.2661164118337621 
0.2661164118337621 
0.4709857018442862 
0.2883853679517732 
0.2299530527576996 
0.4294467660349093 
0.3331856295620665 
0.4612604210683657 
0.4123193025891279 
0.3532477817484038 
0.09351478002201893 
-0.08344151955590559 
0.3316869753781184 
0.3316869753781184 
0.06711490106099781 
0.1102147153238664 
0.1102147153238663 
0.2137261708555325 
0.1862260316798878 
0.284751716189842 
0.5076638263986096 
0.5329501898357655 
0.198139095219504 
0.3117468084651438 
0.3117468084651438 
0.05367967079427901 
1.247336965721557 
0.7818123329696848 
0 
0.1029649738086618 
-0.1095456804078619 
0.2168632555234238 
0.1029649738086618 
0.1186125423432587 
0.1186125423432587 
0 
0 
-0.0369462737005063 
0 
-0.06403321737855239 
0 
-0.1609895133350132 
0 
0 
0.4476517378266651 
0 
0.2903201090869954 
0.2903201090869954 
0.4476517378266651 
0.6980247005262972 
0.3061869556615663 
0.6980247005262972 
0.3061869556615663 
0.2130977509899154 
0.8416778203521766 
0.0476097850184724 
-0.1326801130367652 
0.1419813129254633 
0.2130977509899154 
0.3517200136139374 
0.1031421101853819 
0.8416778203521766 
0.1419813129254633 
0.1419813129254633 
0.1550060952178715 
0.1419813129254633 
0.1419813129254633 
-0.1511058704282807 
0.7506185872184157 
0.1419813129254633 
0.1419813129254633 
0.8471993036702783 
0.1570506294915497 
0.1419813129254633 
0 
0.4007191131467044 
0.07048415173809274 
-0.2809223700404527 
-0.0182965993399331 
0.4305542256579085 
0.112598101406169 
1.412158860669037 
0.01617323095126653 
-0.3463686982796188 
0.6520298700541536 
0 
0.112598101406169 
0.112598101406169 
0.2092845228596064 
0.2722999708769762 
0.1660757622707048 
0.1660757622707048 
0.112598101406169 
0.08421374039845389 
0.2228945065116248 
0.112598101406169 
-0.2880296312947737 
0.112598101406169 
-0.009354860310654366 
0.112598101406169 
0.1309685441224314 
0.3242164419571793 
-0.3483377255275393 
-0.3483377255275393 
-0.4034077052764859 
-0.05818854705421835 
0.231519727774054 
0.1827941933293323 
-0.0847837640061356 
-0.3945746085284925 
0.6672668204632708 
-0.5855430736941679 
-0.2196213008155789 
0.2060134782270601 
-0.2196213008155789 
0.2060134782270601 
0 
0.1955369582690259 
0.8645279474641275 
0.1748094292515947 
-0.1269462575609022 
0.2418812161294942 
-0.08786546323479855 
0.1955369582690259 
-0.06529996143437865 
0.2763207061360639 
0.2763207061360639 
0.2763207061360639 
0.5192017642294989 
-0.1139798257698394 
0.04697444675576183 
0.04697444675576183 
-0.1528807183640662 
-0.1019012691178314 
3.469446951953614e-018 
3.469446951953614e-018 
0.04697444675576183 
0.04697444675576183 
0.2327571643091962 
-0.4025645629585299 
-0.0145709508454169 
0 
0 
-0.006699427231601824 
0.1821988155269739 
0.1821988155269739 
0.3562316761748984 
0.08126265296203988 
0.1503789901321878 
0.4068924053388993 
-0.4871153863587366 
0.1205121339498149 
0 
0.02960389036415383 
-0.4025645629585299 
0.09311667770019175 
0.4540514438012244 
-0.1616183777554672 
-0.1297017253997926 
-0.1792297013199982 
-0.7732759430401081 
0.3587438983943046 
-0.0281053230232622 
0.2239649723536829 
-0.1149050295838287 
0.01791690715537346 
0.01791690715537346 
0.01791690715537346 
0.01046617672696883 
-3.035766082959412e-018 
-3.035766082959412e-018 
-3.035766082959412e-018 
-3.035766082959412e-018 
-0.2115935206392348 
-0.2115935206392348 
0.4739294615360641 
0.5259800318618207 
0 
-0.8568224597421198 
0.08109281217821271 
-0.1548563641170039 
0.1004665557036718 
0.9196795641398166 
-0.2771776882716314 
0 
0.7867845143120679 
0.331929112565402 
0 
0 
0.06447423944858789 
-0.2339151354224825 
0 
0.1399987778937022 
-0.3126436130721624 
-0.9321163351742756 
0.06536679701674208 
-1.463672932855431e-018 
-0.4176420826211901 
0.1360056383351837 
-0.143274937354268 
0.1388396102465335 
-0.2229698834621978 
0.2629481628851858 
0.4419450290893541 
0.2641075421666728 
0 
-0.06917660558279772 
0.1168415232310388 
0 
0 
0 
0 
4.336808689942018e-019 
4.336808689942018e-019 
4.336808689942018e-019 
0.2915942943797812 
4.336808689942018e-019 
0.1863795070242832 
-0.2543855654949545 
-0.6158719002291374 
-0.1945876545821972 
0.2093455655154475 
0 
0.04476523251313889 
0.1559997632047921 
0.1559997632047921 
0.1982881726834022 
0.02238015638649363 
-0.1215252550670339 
-0.3404437101232349 
-0.3307700675516103 
0.1732607502291675 
0.04476523251313889 
0.02238015638649363 
0.02238015638649363 
0.1323973691695136 
0.04667030155131823 
5.421010862427522e-020 
0 
0.04667030155131823 
0 
-0.4267255919204602 
0.05038282751904395 
5.421010862427522e-020 
0.0366437347848287 
0.0366437347848287 
-0.04377018412317375 
0.05886594048591136 
0.05886594048591136 
0 
0.2419218432906525 
-0.2741751973237152 
-0.02332482273619767 
0.06929809658089781 
-0.02332482273619767 
0.2936499171942164 
0.1932294040453226 
0.01630140031971657 
0.1490675207219986 
0.0999155945693604 
0.2419218432906525 
0.3806545646197037 
0.1490675207219986 
0.1490675207219986 
0.3426257874306992 
0.1490675207219986 
-0.1047520443369291 
0.1490675207219986 
0.7119468494634558 
0.1712897264230813 
-0.1006765422530924 
-0.09024892683922124 
0.2849734840026023 
0.1490675207219986 
0.1490675207219986 
0.408810954944077 
0.2071113434875367 
-0.01354613822815914 
-0.5107581397377566 
0.6583241726591933 
0.4749574077253577 
-0.1256671371474711 
0.2205156647494083 
0.3987301383446227 
0.3987301383446227 
0.07647193146047922 
-0.09998907014232274 
0.2277157126449684 
0.1453063372439016 
-0.628262289176327 
0.408810954944077 
0.1508805938426739 
0.1130346540075899 
-0.3156632339963179 
0 
0.07550321750976505 
0.4116422151330635 
0.187086093147811 
0 
0.06643868807124326 
0.1509219525262275 
0.2614222271350098 
-0.1429426823854589 
0.2614222271350098 
0 
0.01448029788103864 
0.4112191589760744 
-0.7859131304063086 
0.1587543212296714 
-0.05405606226528554 
0 
0 
0 
0 
0 
0 
-0.2510698864456153 
0 
0.4112191589760744 
0 
-0.7859131304063086 
0.004490261655035675 
-0.5928647173317566 
0.0728678745358365 
0 
0.07901224637424552 
0.4144019156637164 
0.283551815471577 
-1.734723475976807e-018 
-0.02528241769522535 
-0.100923956527084 
-0.4716868420272171 
-0.2426043257056006 
0 
-0.3119251607958167 
-0.1336816271355725 
-0.1336816271355725 
-0.04035327329893693 
-0.03424619017984976 
0.08610642908714819 
0.2365111050830891 
0.1952736265575392 
0.04221239643180936 
0.1614708801281462 
-0.03078633866964913 
-0.5483599866003343 
-0.04217432590699278 
0.2220405383576595 
0.4404561069051147 
0.6428818583082259 
0.6221367889812438 
0.1207104661317604 
0.3107613854503962 
0.5969678390447974 
0.3328753700508926 
0.3328753700508926 
0.1502810390888593 
0.3354127145873722 
0.113539977755553 
0.2414187687108516 
0.1507176996998552 
-0.03699604429970063 
0.1990667140201183 
0.1990667140201183 
0.2414187687108516 
0.2414187687108516 
0.2948881818600713 
1.442444198207174 
0.2414187687108516 
-0.1928088150693635 
0.1528556163336932 
0.1528556163336932 
0.09237065171251176 
-0.201902981670526 
0.1528556163336932 
0.09237065171251176 
0.2414187687108516 
0.3393128930182208 
0.3891018042193122 
0.2414187687108516 
0.121496145780169 
-0.005041564059475127 
0.04716333333187461 
0.1015191168728975 
0.3388172791427102 
0.08705194206422953 
-0.07343596239803488 
-0.1204777343555372 
0.09866128795100064 
-1.534394558239445 
0.5630610015742673 
-3.469446951953614e-018 
0.04647394779437439 
0.6206136890627314 
0.0657294619416101 
0.2920818082381669 
0.2920818082381669 
0.2920818082381669 
-0.2472147041552493 
0.2814391147025109 
-3.469446951953614e-018 
0.1167011191370275 
0.2110666535169394 
-0.4725291011355134 
0.2283399942535169 
0.1967329355682529 
0.1967329355682529 
-0.2278112027257832 
0.1056628421537058 
0.6271907629912303 
0.3147753840386898 
1.110260255554604 
0.1967329355682529 
-0.1583440614422445 
0 
0.8111763461506392 
0 
-0.2800915397870127 
-0.2800915397870127 
0 
-0.2800915397870126 
-2.168404344971009e-018 
0 
-0.4289921872696389 
-0.4289921872696389 
0 
0 
0 
0 
0.08635435650571541 
0.2477865380587775 
0.4415396044501187 
0.4415396044501187 
0.1401007363065683 
0.4415396044501187 
0.1401007363065683 
0.4415396044501187 
0.1401007363065683 
0.122612853019121 
0.122612853019121 
0.122612853019121 
0.122612853019121 
0.122612853019121 
0.122612853019121 
0.122612853019121 
-0.202844590497397 
0.0482229354799756 
0.08788956026092479 
0.08788956026092479 
0.04822293547997559 
0.08788956026092479 
0.04822293547997559 
0.3192042936455998 
0.0839296212068377 
0.06532484728192665 
0.6804284634375164 
0.0482229354799756 
0.0482229354799756 
-0.4825079329247703 
0.09796203902629418 
-0.007403865869299134 
0.04452564606350944 
-0.202844590497397 
-0.202844590497397 
0.1073034428637616 
-0.3725771099940221 
-0.04761079300251378 
-0.001754760322015126 
-0.225210771023244 
-0.04304129440416395 
0.1113153523509373 
-0.04304129440416395 
-0.2909515020216802 
-0.108759933325851 
1.188375288396272 
1.31188462870746e-017 
0.00215365563867069 
0.1245415868649853 
0 
0.1870575788334677 
0.3234367415215239 
-0.001754760322015126 
-0.3002100983767744 
-0.3002100983767744 
0 
0 
-0.1285144844045593 
0.01266439263207927 
0.01266439263207927 
0 
0.4219172387067189 
0 
0.2234640841395589 
0 
0.3383375283647088 
-0.08267584294571913 
0 
0 
0 
0 
0 
0.06143447497281913 
0 
0.5626611161560179 
0.2597931804009129 
2.168404344971009e-018 
0.01458332206307626 
0 
-0.4964928708302794 
0 
-0.1487720401334297 
0.1028609926062353 
8.673617379884036e-019 
0.08455730521404167 
0 
0.3383375283647088 
0.1022224127039161 
-1.301042606982605e-018 
0.08618992718349307 
-1.301042606982605e-018 
0.06864911777801992 
-0.4179578974242833 
0.3147931025147875 
0.1017458683980474 
0.0104840964275037 
-0.1285749327879922 
-0.1148744353296659 
-0.1674141355280737 
-1.301042606982605e-018 
0.004127094504616204 
0.01626743433072889 
-1.301042606982605e-018 
0.009431290010310888 
0.1727879077901827 
0.1727879077901827 
0 
-0.03143996519412209 
-0.1486254024014413 
0.05178952419835878 
-0.1486254024014413 
0.05178952419835878 
0.05178952419835878 
0.1319603383178448 
0.1319603383178448 
0.1319603383178448 
2.096368517920925e-005 
0.1319603383178448 
0.1319603383178448 
0.1319603383178448 
0.1319603383178448 
0.1319603383178448 
0.1319603383178448 
0.1319603383178448 
0.1319603383178448 
0.5125640871349837 
0.1319603383178448 
0.1319603383178448 
0.1319603383178448 
0.1319603383178448 
0.1319603383178448 
0.1319603383178448 
0.1319603383178448 
0.1319603383178448 
0.1319603383178448 
-0.2655179017878813 
0.04995287861016698 
-0.1070458071841834 
0.1121923451733073 
-5.204170427930421e-018 
-0.120114775253045 
-0.08291630851729419 
-0.1946885318478875 
0.08054894668893504 
-0.69664323203493 
0.1404193908049029 
-0.6084130157073427 
-0.3783168849451719 
0 
0.1262582067950223 
-0.1171868182296494 
0.003360348960944569 
4.336808689942018e-018 
0.1604743133191842 
-0.1899202701537047 
-0.2856353181734045 
0 
0.04625860415313673 
-0.1128698952352622 
-0.2093417938644739 
0.4695859548498005 
-0.190257044916176 
-0.004565218340926828 
0.1314900132706108 
0.1407937437548637 
0.1407937437548637 
0.1407937437548637 
0.1407937437548637 
-0.3623425658781346 
0.1407937437548637 
0.1972206136480926 
-0.1017133699546183 
0.900001217891278 
0.08080834437067511 
-0.281529471140615 
-0.02543314403737966 
0 
0 
0 
0 
-0.09835106360789289 
0.09198389578878762 
0 
0.1199860184903551 
0.0645203584965114 
0 
0.08705626572455859 
0.1911415722267149 
0.1790697597555107 
0.1790697597555107 
-0.01501829727649361 
0.3057454876294313 
0.3834040451217244 
-0.1275107655667694 
-0.1275107655667694 
-0.1275107655667694 
-0.1275107655667694 
-0.2163631923844333 
0.03601457918043569 
-0.547303507702639 
-0.08062748490701281 
-0.04435576467301638 
-0.05877126175745984 
-0.7447987072105173 
-0.02526941517922517 
-0.03675591580226169 
0 
0.2829874743138692 
-0.1420490468824002 
-0.02991410896553873 
0.02960389036415383 
0.02960389036415383 
0.02960389036415383 
0.1306576652311345 
0.02960389036415383 
0.02960389036415383 
0.02960389036415383 
0.02960389036415383 
0.02960389036415383 
0.02960389036415383 
0.3587494949293635 
0.02960389036415383 
0.02960389036415383 
0.02960389036415383 
0.586659802729098 
0.02960389036415383 
0.2932392381700458 
0.02960389036415383 
0.02960389036415383 
0.02960389036415383 
-0.406238843676467 
0.02960389036415384 
0.02960389036415383 
0.02960389036415383 
0.06163520394233915 
-0.1420490468824002 
-0.1420490468824002 
0.02960389036415383 
0 
0.02960389036415383 
0.02960389036415383 
0.02960389036415383 
-0.02991410896553873 
0.02960389036415383 
0.02960389036415383 
0.2097396831068847 
0.02960389036415383 
0.02960389036415383 
-0.008432385487922835 
0.1585653340686931 
0.1585653340686931 
0.01475643731673337 
0.06246273413785562 
0.2290137990208159 
0.1207589363358435 
0.1207589363358435 
-0.4117562722601244 
0.2290137990208159 
0.1207589363358435 
0.390422815143457 
0.07344428681872402 
0.07896531063360493 
-0.002470138484669864 
0.07926053424767771 
0.1339918646413561 
-0.04910132701484696 
-0.03948674087739642 
0.02133091087072716 
0.3128432424224006 
0.4887911920342815 
0.1002098546746469 
-0.009344992678385499 
-0.2049752383699973 
-0.3352985560444138 
-0.5125303807579537 
0.1446091774451993 
0.04048759203546243 
0.1314900132706108 
0.1314900132706108 
0.5442804704104934 
-0.03326549593474265 
0.09986449876194405 
0.04964537846377798 
0 
0.6854865900293424 
0 
-0.1710323203810847 
-0.09941420363575765 
-0.1044780495280255 
2.602085213965211e-018 
-0.1552800055288165 
0.09427823976626329 
0.01928471712623799 
0 
-0.1937530663913409 
-0.5697140385849773 
0 
0.6854865900293424 
0 
-0.1149760666601773 
-0.2033850326428568 
-2.38524477946811e-018 
-2.38524477946811e-018 
0.3230866554877563 
0.3230866554877563 
-0.3794266113834363 
0.3205304781893833 
0.2047838888325686 
0.2047838888325686 
0.01711388313257354 
0.01711388313257354 
1.084202172485504e-018 
-0.1253448033635941 
0.06806134370879942 
1.084202172485504e-018 
-0.09263932170430955 
0.1344102331892011 
0.1374790475233172 
-0.01562481289682965 
-0.09263932170430955 
-0.4028685016600334 
-1.165625015141382 
0.9598341956687738 
-0.2802394216891892 
-0.1096907342208915 
-0.1096907342208915 
0.1398222256040564 
0.9083198977915313 
-0.5560513981890358 
0.0616778977701458 
-0.2046199960922889 
0.2223212626177635 
0.07493209738691276 
0.1305347565967988 
0.07493209738691276 
0 
-0.156349274309611 
-0.2601891173411817 
0.3318855236874027 
-0.5257400713538037 
0.4645082305237309 
0 
0 
0.278021843515682 
0.001496743923905649 
0.07216064802232337 
0.07398055959281058 
0.1049542671721709 
-0.01987119421269656 
-0.1050022913351022 
0.07398055959281058 
0.3424363022224876 
-0.4291166962261713 
0.2239828218691352 
0.2082203754921403 
0.1819411282168775 
0.1274582204573464 
0.5996677399323411 
0.1329070464594575 
0.03854863832558089 
-0.1685860864958901 
-0.6184770643425799 
-0.1885787399947529 
-0.6024393931132324 
-0.1885787399947529 
0.370888641554593 
0.08947603494090217 
0.08947603494090217 
0.08947603494090217 
0.0949349417985994 
0.0949349417985994 
-0.1685860864958901 
0.005174326396588 
0.005174326396588014 
0.005174326396588014 
0.3467432369770729 
0.3467432369770729 
0.6659675589783443 
-0.07553183138575449 
0.164719571597592 
-0.07553183138575449 
0.164719571597592 
0.1493273330047002 
0.2210846242764275 
-0.5206511499171658 
-1.166472058520436 
0.020313123696971 
0.310462302170292 
0.5157829183195792 
0.020313123696971 
0.007070126850854181 
0.02031312369697101 
0.02031312369697101 
0 
0.04881107161529912 
0.04881107161529912 
-5.421010862427522e-019 
0.1434887096749922 
-0.0325591870798992 
-0.0325591870798992 
-0.02234474506579325 
-0.0957632007086648 
-0.07918946507678783 
0.1370686884589409 
-0.4059524369418549 
-0.4059524369418549 
-0.2308369579364609 
4.336808689942018e-019 
0.7102268007630586 
0.475627167284072 
0 
4.336808689942018e-019 
-0.4072589292571803 
0 
0 
-0.2569292735962557 
0 
0.1512286761934109 
-0.222305299528896 
-0.2768984349450066 
0.6593582900102979 
-6.938893903907228e-018 
-6.938893903907228e-018 
-6.938893903907228e-018 
-6.938893903907228e-018 
-6.938893903907228e-018 
0 
-5.204170427930421e-018 
0 
0 
-0.222305299528896 
0.325946854642048 
0.05213691537763768 
-0.3982116295310004 
0.9520624782419699 
0.2590758096189589 
0.03160270590485603 
0.4842012984480781 
0.2410891047378752 
-0.2238427143256319 
0.08879037151890566 
-0.2064713135986876 
0.6464016353266422 
0.2590758096189592 
0.4035087567808889 
0.6597879863331753 
0.5707005408008959 
0.9520624782419699 
0.02817997301403047 
0.2820291412174813 
0.466600758926803 
0.1202303238653941 
0.02817997301403047 
0.02817997301403047 
0 
0 
0 
0.162475403834776 
0.018790399171191 
0.018790399171191 
0 
0.018790399171191 
0 
-0.0933220375793189 
0.503524084527481 
0.001797477145993219 
0.1299052052982815 
-0.09008180339524442 
0 
0 
0.552683584967013 
0 
0.01025657266849049 
0 
0 
0.2340736881646216 
0.2340736881646216 
-2.168404344971009e-019 
-0.4046318533190729 
0.1882246849078708 
-0.04293589084273218 
0.03908223887024866 
-0.09222667417859602 
-0.1314339778921232 
-0.1314339778921232 
0.1388287452135614 
0.154010812215309 
0 
0 
-0.1306941890454538 
0.01388362165519852 
0.2315705566475832 
0.05344612897583719 
0.037302616679654 
0.4804111365783957 
-0.5330626552515143 
0.1072022737550253 
-0.1743275675672674 
0.09983546322650308 
0.2999664822171159 
-0.003072265993302423 
0.08637796809104069 
-0.4536664296582988 
-0.3342106642439127 
0.2040334165962241 
0.3077777372460598 
-0.1425734714054728 
0.2366409093547358 
0.2310638662998446 
-0.7008865259399422 
-0.3186415366579212 
-0.0003875407538339346 
0.1018748321057408 
0.07678948368006226 
-1.734723475976807e-018 
0 
0 
0 
0 
0 
0.07678948368006226 
0 
0 
0 
0 
0 
0 
0 
0 
0 
0 
-0.2461610290258799 
0 
0 
0 
0 
0 
0 
0 
0 
0 
0 
0 
0 
0 
0 
0 
0 
0 
0.09684141464150861 
0 
0 
3.469446951953614e-018 
0.02143684255405164 
0 
0.04667030155131823 
0.02707309266019076 
0.02707309266019076 
0.02707309266019076 
-3.252606517456513e-018 
0.01579317016883129 
0.07567299009348619 
0.05237311892526687 
0.02565784605051488 
0.02647441914799947 
-0.1669673613513903 
-0.09386565948666717 
0.3637917866853151 
0.2763300917825803 
0.2615197290220209 
-0.2255479925015758 
0.166912337172765 
0.289700185211482 
-0.105567216059298 
-0.2380419985007509 
0.2696638788076135 
-0.05421748322023869 
8.673617379884036e-019 
0.3375524335632739 
0.2516135836367131 
0.5667441574490281 
0.3427884308042195 
0.09932151726474416 
0.007205746205790119 
0.007205746205790117 
-0.05421748322023869 
0.2540203045417535 
8.673617379884036e-019 
-0.004182671419220512 
0.9117720328293728 
0.09909724300115268 
0.2639964655073296 
1.144385769657127 
-0.5163227478423955 
0.1410670291632107 
0.3474842567201583 
0.4849480599160255 
1.144385769657127 
0.2702109976350959 
0.3524315720373064 
0.5540891967083993 
0.2247932209169364 
0.3697769180528627 
0.03394620291151666 
0.4325232298619261 
0.2639964655073296 
0.1703464988731518 
0 
0 
0 
0 
-0.2686727093585862 
0 
0 
0 
0 
0 
-1.734723475976807e-018 
-0.5325668619155305 
0.1018382556934862 
-1.369798892203958 
0.02319613406884993 
0.001088774580136059 
0.001088774580136059 
0.001088774580136059 
-0.2082530192843379 
0.001088774580136059 
0.001088774580136059 
0.001088774580136059 
0.001088774580136059 
0.001088774580136059 
0.02715484113192976 
0.001088774580136059 
0.001088774580136059 
0.001088774580136059 
0.001088774580136059 
0.001088774580136059 
-0.3660197985307323 
0.001088774580136059 
0.001088774580136059 
0.001088774580136059 
0.001088774580136059 
0.001088774580136059 
0.001088774580136059 
0.001088774580136059 
0.001088774580136059 
0.001088774580136059 
0.001088774580136059 
0.001088774580136059 
0.001088774580136059 
0.001088774580136059 
0.001088774580136059 
0.001088774580136059 
0.001088774580136059 
0.001088774580136059 
0.001088774580136059 
0.001088774580136059 
0.001088774580136059 
0.001088774580136059 
0.001088774580136059 
0.001088774580136059 
0.001088774580136059 
0.001088774580136059 
0.001088774580136059 
0.001088774580136059 
0.001088774580136059 
0.001088774580136059 
0.001088774580136059 
0.001088774580136059 
0.0923499233141863 
0.001088774580136059 
0.001088774580136059 
0.001088774580136059 
0.001088774580136059 
0.001088774580136059 
0.001088774580136059 
0.001088774580136059 
0.001088774580136059 
0.001088774580136059 
0.001088774580136059 
0.001088774580136059 
0.001088774580136059 
0.001088774580136059 
0.001088774580136059 
0.001088774580136059 
0.001088774580136059 
0.001088774580136059 
0.001088774580136059 
-0.01575473908373214 
0 
0 
-0.1302905281089015 
0 
0.4515076245766258 
0.01081521492597691 
0 
0.09610651147023029 
-0.1302905281089015 
-0.1315138144664702 
0.2419868025774872 
0.2419868025774872 
0.1089596382633554 
0.1628657658033497 
0.01580181804212878 
0.1089596382633554 
0.1089596382633554 
0.05257814005471367 
-0.09202824065923602 
-0.433197000605684 
-0.2616985329155304 
0.1089596382633554 
0.07042553689856471 
0.06078962097459522 
-0.2224501576373201 
0 
0 
0 
0 
-0.2006116077812644 
0.115168373028895 
0.1632375992293589 
0.9635810062422506 
-0.07257238537560785 
0.2052800740450268 
0.03981873628752484 
0.1287942300192958 
-0.2625179451257563 
0 
0.4235965612299865 
0.03918082112122501 
0.02325934652661962 
1.626303258728257e-017 
1.626303258728257e-017 
-0.07062666172790505 
-8.673617379884036e-019 
0.004276466888268426 
0 
0 
-0.03094693028218648 
-0.3117851908601115 
-0.1137184012339355 
0.07100226591947836 
0.04017483382572129 
0.2794991057764227 
0.1102964051054559 
0 
3.469446951953614e-018 
0.5212978591828719 
0.5212978591828719 
0.3305451076023884 
4.336808689942018e-018 
-0.8302468467203521 
0 
0.06540016922165333 
0 
0.0445867935054821 
-0.1670089722378808 
0.1220560333182999 
-0.1996316247781196 
0.09638081684062744 
-1.734723475976807e-018 
0 
0 
0.2713512946166188 
-0.06190771139035592 
0.2224749844590298 
0.2224749844590298 
0.2029513589583931 
0.1480679578282737 
0.1480679578282737 
0.1480679578282737 
0.2224749844590298 
0.2224749844590298 
0.2224749844590298 
0.2224749844590298 
0.2224749844590298 
0.2224749844590298 
0.2224749844590298 
0.2224749844590298 
0.2224749844590298 
0.2224749844590298 
0.1480679578282737 
0.2224749844590298 
0.1480679578282737 
0.1480679578282737 
0.2224749844590298 
0.2224749844590298 
0.2224749844590298 
0.2972194517822028 
0.2224749844590298 
0.2224749844590298 
0.2224749844590298 
0.5308346814150828 
0.2224749844590298 
0.2224749844590298 
0.1480679578282737 
0.08408922199433151 
0.2224749844590298 
0.1480679578282737 
0.1480679578282737 
-0.2002697676992655 
0.1480679578282737 
0.1480679578282737 
0.2106858231448774 
0.2224749844590298 
0.1685913686105534 
0.2224749844590298 
0.1685913686105534 
0.04581933851197052 
0.2224749844590298 
0.1685913686105534 
0.04581933851197052 
0.04581933851197052 
0.04581933851197052 
0.04581933851197052 
0.04581933851197052 
0.04581933851197052 
0.07838009254314754 
-0.07816604334482895 
0 
1.761828530288945e-018 
0 
0.2270655630485922 
0.02699509227530172 
0.02699509227530172 
0.1335669452428874 
0 
0.3733719622536836 
0.4920281850494798 
0.01991596737924474 
0 
0 
0 
-0.06226441208668481 
-0.07816604334482895 
-0.1997925894382796 
-0.1997925894382796 
-0.1997925894382796 
-0.01422668470456333 
0 
0 
0.0542044452746091 
0 
0 
0 
-0.1680048824351504 
0.296158167837128 
0.1593749618766848 
0 
0 
0.04142354076777868 
0.2624324498477582 
-2.168404344971009e-019 
-2.168404344971009e-019 
0.02500223239403874 
0.5217029954557443 
0.7155201945369593 
0.2967344130974977 
0.1382689808747162 
0.1692050751073477 
0.02500223239403874 
0.360329454857024 
-0.08123982450283687 
0.1862826392943018 
0.1862826392943018 
-0.6024496099633241 
0.1862826392943018 
0.3276705073301291 
0.3276705073301291 
0.5649145038797301 
0 
0.1082548626849725 
0.2053206161492873 
0.2446719991844972 
0.005124382877391009 
0.276142794860222 
0.1948424090010998 
0.4741578498707495 
0 
0.1308355965665072 
0.5896238429109415 
-2.168404344971009e-019 
-2.168404344971009e-019 
-2.168404344971009e-019 
-2.168404344971009e-019 
-2.168404344971009e-019 
-2.168404344971009e-019 
0 
0.07811075264361923 
0 
-0.1766643308286654 
0.1465525349963953 
0 
0.1922306988415388 
-5.800481622797449e-018 
0 
0 
0 
0 
0 
0 
-0.06085005558189274 
0.1070789227371885 
0 
0 
0.05892648686664687 
-0.3438511521233131 
0.07123902594534191 
0.07123902594534191 
0.07123902594534191 
0.07123902594534191 
0.07123902594534191 
0.07123902594534191 
0.07123902594534191 
0.07123902594534191 
0.07123902594534191 
0.07123902594534191 
0.07123902594534191 
0.07123902594534191 
0.07123902594534191 
0.07123902594534191 
0.07123902594534191 
0.07123902594534191 
0.07123902594534191 
-0.2304290950772594 
0.07123902594534191 
0.07123902594534191 
0.07123902594534191 
0.07123902594534191 
0.07123902594534191 
0.07123902594534191 
0.07123902594534191 
0.07123902594534191 
-0.1369502128715949 
0.07123902594534191 
0.07123902594534191 
0.07123902594534191 
0.02359561493145491 
0.07123902594534191 
0.07123902594534191 
-0.03085394773843387 
0.07123902594534191 
0.07123902594534191 
0.3702954962228074 
0.07123902594534191 
0.3702954962228074 
0.07123902594534191 
0.07123902594534191 
0.07123902594534191 
0.07123902594534191 
0.07123902594534191 
0.5731323733097593 
0.07123902594534191 
0.07123902594534191 
0.07123902594534191 
0.07123902594534191 
0.07123902594534191 
0.07123902594534191 
0.07123902594534191 
-0.1747916557381378 
0.07123902594534191 
0.07123902594534191 
0.04424784138711799 
0.07123902594534191 
0.07123902594534191 
0.07123902594534191 
0.07123902594534191 
0.07123902594534191 
-0.8847803144100463 
0.07123902594534191 
0.07123902594534191 
0.07123902594534191 
-0.1560928832709174 
0.07123902594534191 
0.07123902594534191 
0.2055447732447921 
0.2055447732447921 
0.2055447732447921 
0.2055447732447921 
0.4243808118327216 
0.2493308990359117 
0.2633824754711771 
0.1722332262672237 
0.1722332262672237 
0.01770464606654657 
0.01321463536067589 
-0.3005209202138938 
0.1727533290580478 
0.09126331994114682 
0.2560257060386915 
0.3510433592630404 
0.07998349955807407 
0.4165543221085146 
-0.03443240269353826 
0.1281995335151954 
0.1281995335151954 
0.02930110777008468 
0.1281995335151954 
0.1281995335151954 
0.1281995335151954 
0.1281995335151954 
0.1281995335151954 
-0.157837536849383 
0.1281995335151954 
-0.1356153311483003 
0.1281995335151954 
0.9517917836897849 
0.2048772676997536 
0.1281995335151954 
0.3510433592630404 
-0.7398625398969694 
0.1281995335151954 
-0.3942366007125194 
0.01084591865872742 
-0.1108754485065142 
0.04958261002919498 
0.6564356744290768 
0 
-0.09402574302060851 
-0.09402574302060851 
0.01626759164959313 
-0.3942366007125194 
0.1289614437045393 
0.1289614437045393 
0.1289614437045393 
0.4167343500595584 
-0.09099212565037454 
1.734723475976807e-018 
0.5059282445159266 
0.2971753122413794 
0.6562946186263418 
-0.1153446350621005 
0.8226262600778347 
-0.1153446350621005 
0.08054894668893504 
0 
0 
-0.2122323843789157 
0.03966662478094916 
-0.3882287328807587 
0.4032528311344608 
-0.3365598043528334 
0.3491282449781094 
-0.05144173444453554 
-0.2420224187505692 
0.00788710865907165 
0.165405801663185 
0.165405801663185 
8.239936510889834e-018 
-0.1595492412335759 
0.7473915037033008 
0.09717535820141272 
0.06260551827315444 
0 
-0.07649791017776321 
0 
0 
0 
0 
-0.1007404508925374 
0 
0.1925660274576559 
0.1925660274576559 
0.1925660274576559 
0.1925660274576559 
0.1925660274576559 
0.1925660274576559 
0.1925660274576559 
0.1925660274576559 
0.1925660274576559 
-0.1955235927230136 
0.220035511126992 
0.220035511126992 
0.220035511126992 
0.04062801314123245 
0.06932065573887716 
-0.03042760307709821 
0 
0.4169812146519237 
-0.1022137291218408 
-0.1845716177093217 
0 
0 
-0.6751890768467316 
0.3086141636176077 
0 
0 
0 
0.3665133868088556 
0.2102193655392744 
0.188734662291268 
0.188734662291268 
0.2843452722442282 
0.2843452722442282 
0.2138300778255166 
0.05804294179100254 
0.0004076008747306526 
-0.6069623312778703 
-0.005284115617663506 
-0.03949839445329752 
-0.0210637513497386 
0.4618985062699642 
0.0174200544701366 
0.1440146129379719 
0.3665133868088556 
0.1505141776828801 
-0.4583786992811996 
0.2034117783336573 
0.0780298323470742 
0.257284855991654 
0.07772626410265919 
0.1446531599455107 
0.1446531599455107 
0.1367902324058839 
0.8617740840538398 
-0.5495329052692655 
0.07772626410265919 
0.07811960503169328 
-1.734723475976807e-018 
-0.05641740494052206 
0.1190875130548367 
0.1190875130548367 
0.1190875130548367 
0.07811960503169328 
-0.3595909718437125 
-0.7774382603300341 
0 
0.1363791626880562 
0.2094393931554164 
0.1329147631169727 
0.1310575781151258 
-0.00226859117797868 
0.2353886684420586 
-0.5869138590175589 
-0.2321575204986482 
-0.2279839699414785 
0.08906388750297666 
0.1440267462099979 
-0.1860957575597049 
-0.1860957575597049 
-0.1860957575597049 
0.06093904950957658 
-0.1860957575597049 
-0.1860957575597049 
-1.734723475976807e-018 
0.1845094287891314 
0.06130759507486143 
-0.1815554511457055 
0.07769429041049183 
0.2353886684420586 
0 
0.2609632405341042 
-0.1919649419480196 
0 
0 
0 
0 
0 
0 
3.469446951953614e-018 
0 
0.2071897623915553 
0.4220459365879283 
0.03493750260016131 
0.7201992963950108 
0.1422894511393873 
0.2609632405341042 
0 
0.114680756752569 
0.1146807567525689 
0 
-0.06066595389475505 
-0.0655385418234711 
0.06167479805413715 
-0.0374641133471275 
-0.2047988149872732 
-0.05677500273891549 
-6.938893903907228e-018 
-0.2841951369073994 
-0.05764704316604442 
0.4502873699363466 
0 
0.1091170931379516 
0 
-0.02699118455822388 
-0.08077380567026549 
-0.06646239117403371 
-0.06646239117403371 
0.09991087157620435 
0.1587288997182066 
0.1510398857494345 
0.1510398857494345 
-0.1647028923983158 
-0.1647028923983158 
-1.084202172485504e-018 
0 
0 
0.3932357408951538 
-0.210714709394582 
-0.210714709394582 
0.3897503128570192 
0.02306189253723448 
0.1369328267586426 
0.1916819645424039 
-0.1107747534020529 
0.2140774259090593 
0.2140774259090593 
-0.1107747534020529 
-0.047186730448396 
0.3349920543063669 
0.137669397404159 
-0.02001856046828983 
0.1377661791308887 
0.1661130887394847 
-0.7448935105409351 
3.252606517456513e-018 
0.1521109462124025 
-0.13610998072784 
0.4231341834492127 
-1.65521901110176 
-0.03421427883563401 
-0.03421427883563401 
-0.04837907123496616 
0.2285532309247687 
0.2285532309247687 
0.174505936948827 
0.0275264780019055 
-0.006499564744908212 
-0.7448935105409351 
0.03265894752689496 
0.001160049054616305 
0 
0.05595662533906975 
-0.01709161654338407 
0.3814703414834277 
0.1069511270795845 
0 
0 
0.2844543522908554 
-0.3811757442207451 
0.3893999176689744 
0.3893999176689744 
0.7010246488509117 
0 
0 
0 
0 
0 
0 
0 
0 
0.344025706908777 
0 
0 
0 
0 
0 
0.01499324653454948 
0 
0 
0 
0 
0 
0 
0 
0 
0.01214646807576647 
0 
0 
0 
0 
0 
0 
0 
0 
0 
-0.4121806816317502 
0 
0 
0 
0 
0 
0 
0 
0 
0 
0 
0 
0 
0 
0 
0 
0.2418268349670635 
0 
0 
0 
0 
0 
0 
-0.5134996886976566 
0 
0 
0 
-0.004404562397265894 
0 
0 
0.1281707964143635 
0 
0 
0 
0 
0 
0.04131615835079741 
-0.03702590931396356 
0.413793949828892 
-0.1365915483032105 
0.7315139953978546 
0.2138633646211273 
0.04441424223646242 
0.0325795193731219 
0.103994475245606 
0 
0.1329300060885207 
0 
-0.1561124758059476 
-0.3207384094943438 
0.004500905208979428 
0.05826205794097245 
0.2508461201932167 
0.5941876918815955 
0.09632828143317164 
0.09632828143317164 
0.6264232752052275 
-0.722225649203155 
0.2705073157426652 
0.4501701398499791 
0.6743087241101776 
0.1924382162505482 
-0.07354185821780052 
0.07853497357236045 
0.336801912351465 
3.469446951953614e-018 
3.469446951953614e-018 
0.05752108498323003 
-0.1263453463085947 
-0.2881777474778705 
-0.2881777474778705 
-0.5656291958068342 
0.2534238011007209 
0.2534238011007209 
0.2534238011007209 
0.2084217780180283 
0.02245605934808586 
0.07767877280450081 
0.1334002399000087 
0.2560802664902497 
0.2560802664902497 
0.1685554839174547 
-0.2518368596445965 
0.3800791019402686 
0.3784375348452643 
0.05465035572813012 
-0.493787380620656 
8.673617379884036e-019 
-0.493787380620656 
-0.09246272484757409 
-0.1728380678353222 
-0.2955717331839983 
-0.05383638941997243 
-0.0379569823336587 
0.3942710888927412 
0 
0.05465035572813012 
0.01070058411793863 
-0.3589729169487733 
-0.3589729169487733 
-0.2303718637869822 
-0.1006644711389166 
0.5739171126477203 
-0.04949277196310671 
0.2063214514217321 
0.6027762310394013 
0.1165603112231579 
-0.2009971803452354 
0.01188712561590283 
0.2154119447250583 
-0.4842326397653591 
-0.726501465973785 
-0.3907023076432273 
-0.5228318269972224 
-0.1266205415863675 
-0.1958126402228019 
-1.734723475976807e-018 
-1.734723475976807e-018 
0.1912783127853644 
-1.734723475976807e-018 
-0.01398724330021936 
-0.2155477101610078 
0.1162426860644138 
0.1162426860644138 
0.1162426860644138 
0.1162426860644138 
0.1162426860644138 
0.1162426860644138 
-0.01398724330021936 
-0.1597926651668712 
0 
-0.2530096053033957 
-0.2155477101610078 
-0.2530096053033957 
-1.626303258728257e-018 
0 
-1.734723475976807e-018 
8.673617379884036e-019 
-0.2724595840824618 
0 
0.05213691537763768 
0.2247702431988363 
0.6728463856699787 
0.5271747338252305 
-0.143218643719276 
-0.3542363623925564 
-0.1900048840896746 
0.05358491978293247 
-1.734723475976807e-018 
-0.2192215500303499 
-1.734723475976807e-018 
0.2247702431988363 
0.1280838217453989 
0.2247702431988363 
0.1280838217453989 
0.1417692838784792 
0.1634449861073284 
0.1634449861073284 
0.1634449861073284 
0.2172416773415236 
0.3740347200747948 
0.2972452363947324 
0.2972452363947324 
0.1604457460065902 
0.1604457460065902 
0.1417692838784792 
0.4947091232979449 
-0.5028256875818932 
0.09536525615899763 
0.5237711171974644 
0 
-0.1028594230562203 
-0.2497440629750911 
-0.2497440629750911 
-0.2497440629750911 
-0.05747633368878109 
-0.1488742927100686 
-0.1488742927100686 
-4.336808689942018e-019 
-0.1488742927100686 
-4.336808689942018e-019 
-0.5028256875818932 
-4.336808689942018e-019 
-0.04818222839295645 
0 
-0.2364004761438641 
0 
0.1494361377462319 
-0.1778121426429771 
0.2548441680190631 
0.2548441680190631 
0.4289962846265475 
0.4313939466536446 
0.4313939466536446 
0.2548441680190631 
0.1704296740955512 
0.2257629941224115 
-0.1148171787652244 
0.2120475787787116 
0.1494361377462319 
0.07407607777125656 
0.4169774502129148 
0.3249221979644733 
0.08042608017143879 
1.734723475976807e-018 
1.734723475976807e-018 
1.734723475976807e-018 
1.734723475976807e-018 
1.734723475976807e-018 
-0.3687902106513251 
1.734723475976807e-018 
1.734723475976807e-018 
1.734723475976807e-018 
-0.4798277929287284 
1.734723475976807e-018 
1.734723475976807e-018 
1.734723475976807e-018 
1.734723475976807e-018 
1.734723475976807e-018 
1.734723475976807e-018 
1.734723475976807e-018 
1.734723475976807e-018 
-0.4042758312658433 
-0.2320444737142165 
-0.2320444737142165 
1.734723475976807e-018 
1.734723475976807e-018 
1.734723475976807e-018 
1.734723475976807e-018 
1.734723475976807e-018 
1.734723475976807e-018 
1.734723475976807e-018 
1.734723475976807e-018 
1.734723475976807e-018 
1.734723475976807e-018 
1.734723475976807e-018 
1.734723475976807e-018 
1.734723475976807e-018 
1.734723475976807e-018 
1.734723475976807e-018 
1.734723475976807e-018 
1.734723475976807e-018 
1.734723475976807e-018 
0.07350574838192123 
1.734723475976807e-018 
1.734723475976807e-018 
1.734723475976807e-018 
1.734723475976807e-018 
1.734723475976807e-018 
1.734723475976807e-018 
0.1583176930607287 
0.1829714860089944 
0.075020102146221 
0.075020102146221 
0.125515071173771 
0 
0 
0.323688213903638 
-0.02317708028392947 
0.1659178776566108 
0 
0.06875020265563583 
0 
0 
0.1561803126678287 
-0.05177933886175904 
-0.01966431647320126 
-0.01966431647320126 
-0.1742829738504673 
-0.009169151763766497 
0.2661030830490425 
0.3815467715115446 
0.1417358120640193 
0.00463079703423971 
0.06092811406172358 
-0.07957911931503783 
-0.1876896897029317 
-0.1954337570483796 
-0.02182379978278319 
0.5241274890209029 
-0.2887642385802265 
0.1846678620827453 
0.3476110549124859 
0.07003684673568872 
-0.169641178073651 
0.5956027290720926 
-0.07806895307235848 
0.07656970950307114 
-0.1929704468983231 
-0.1929704468983231 
-0.1929704468983231 
0 
0.1561803126678287 
-0.05177933886175904 
0.1295812778053653 
0.1624850710481502 
-0.2280347801910649 
-0.2280347801910649 
-0.2280347801910649 
-0.0401423197029426 
0.2558688774991903 
0.04547826939976123 
-0.1080559490506222 
0.2695796413092531 
0.04868356683703523 
0.1295812778053653 
0.1112469507135729 
0.05934211281901358 
-0.2020007727813324 
-0.2456688010371346 
-0.1079745993167769 
-0.1469179749118749 
-0.1439848449204328 
0.239855178548337 
0.2631808650719315 
0.2101482422380294 
0.2996820461894552 
0.2531194875980245 
0.1112469507135729 
0.1112469507135729 
0 
0 
0.01991596737924474 
0.1823336952730321 
0.1242524800375505 
0.170356942772565 
0.2614352772596055 
0.03966662478094916 
-0.1058430561012444 
4.336808689942018e-019 
0.2109286660804776 
0 
0 
0 
0.3501623883430595 
0.004881907540396313 
0 
5.014435047745458e-018 
-1.355252715606881e-018 
0.3076462987666898 
-0.4144228356604951 
-0.3174815848811232 
0.009163359383381938 
-0.3463609666426972 
0.1405817950408133 
0.1405817950408133 
0 
0 
0 
0.1376631375201308 
0.27939894958415 
0.1376631375201308 
0.2152878151326806 
0.27939894958415 
0.2910235302718301 
-0.1085219708603818 
0.06966693807654785 
0.0889986372362661 
-0.07283133082431341 
0.5227702752563368 
0.4324953615727214 
-0.07283133082431341 
0.1244803352520114 
0.1225547707979661 
0.1852347154806843 
0.1852347154806843 
0.1852347154806843 
0.2535990751433244 
0.1852347154806843 
0.1852347154806843 
0.1852347154806843 
0.1852347154806843 
0 
-0.2615064730809265 
-0.1302905281089015 
0.2775710253816612 
0.1730758839515473 
-0.1503804329704992 
0.007132450970962759 
0.04572604358862569 
-0.07948705330914843 
0 
0 
0 
0 
-0.2615064730809265 
0 
-0.2983234956253685 
0.4142792774071304 
-0.2260599652271884 
-0.2983234956253685 
0 
0 
-0.3034879187890168 
-0.3308850129588273 
0 
0 
0 
0.03994113524370827 
0.1067646299547089 
0.01385762784666392 
0.09357408966267326 
0 
0 
0 
8.673617379884036e-019 
8.673617379884036e-019 
8.673617379884036e-019 
8.673617379884036e-019 
8.673617379884036e-019 
8.673617379884036e-019 
-0.1828852290728125 
0 
0 
-0.2449754195473519 
6.505213034913027e-019 
0 
0.04696821123666643 
0.004447301392542905 
0.1069511270795845 
0 
0 
0.5634169811902675 
0 
6.505213034913027e-019 
0 
0.5464074445459689 
0.1862773332399747 
0 
-0.01337730879249264 
-6.938893903907228e-018 
-6.938893903907228e-018 
-6.938893903907228e-018 
-6.938893903907228e-018 
-6.938893903907228e-018 
-6.938893903907228e-018 
-6.938893903907228e-018 
-6.938893903907228e-018 
-6.938893903907228e-018 
-6.938893903907228e-018 
-6.938893903907228e-018 
-6.938893903907228e-018 
-6.938893903907228e-018 
-6.938893903907228e-018 
-6.938893903907228e-018 
-6.938893903907228e-018 
-6.938893903907228e-018 
-6.938893903907228e-018 
0.01906071310704056 
0.01906071310704056 
-6.938893903907228e-018 
-0.3784171323653042 
0.1004775634850129 
0.1086734320490632 
-0.02532868075906799 
-0.02532868075906799 
-0.2755976211780028 
-0.2755976211780028 
-0.2755976211780028 
0.3416546175029433 
0 
0.1004775634850129 
0.1086734320490632 
0.3125096277629049 
-0.1099708926154891 
-0.5583031829439431 
-0.5583031829439431 
0.05420444527460912 
0.05047607885332006 
-8.673617379884036e-019 
-0.05565276535632173 
-8.673617379884036e-019 
-8.673617379884036e-019 
0.09313252506990195 
0.09313252506990195 
0.09313252506990195 
0.09739412953972679 
-0.05129742321478963 
0.08336367426740259 
0.07040266125858988 
0.1298185992249112 
0.02351424117907097 
-0.09249054593528124 
-0.2358414596417194 
-0.4680908264639985 
0.1253117661043613 
0.05759614780288748 
0.007205746205790113 
-0.1267562943999892 
-0.2437143299758979 
0.1768609648871023 
-0.03533336988853559 
0 
-0.322441096324756 
-0.3182077652984098 
0.1335788338197153 
