solver_type L2R_L2LOSS_SVC_DUAL
nr_class 2
label 1 -1
nr_feature 47689
bias -1
w
0.04562609507131665 
-0.4003194301430151 
-2.671046775318509 
-0.428842658295043 
1.313119248048954 
-1.386508544726743 
-1.541384356471115 
-0.3668661537203176 
-0.7321515170533742 
-1.209078623660525 
-1.510800689417575 
1.585082475412647 
2.007168638946502 
-0.309027359552776 
1.312076785399251 
-1.415840664832526 
1.257672646914546 
-0.909196040308954 
0.3515795990115994 
0.4887297917197706 
-0.1047312238613123 
1.76787343667938 
1.364956168698108 
0.1162059667432324 
0.6555751524725764 
0.3016135723765608 
1.115975760790446 
0.3280326359282577 
-1.895343978566555 
-0.5338412412036753 
2.347526217357675 
1.302952344198361 
-1.861364359022783 
0.4312772248591964 
-0.397756929629197 
0.5265641090020544 
-0.2016149534795382 
0.9590720824425454 
-1.589897355528877 
-0.004354063387094729 
-0.8205067154962957 
0.5928464214948725 
-0.7910882616130081 
0.08847190101097398 
-0.1137899504935515 
-0.2257026026822377 
-1.335697335963098 
0.1526800663360386 
0.1982528469249825 
-2.001244408743639 
-0.5897914486895621 
-0.819737097809112 
0.8542409357164793 
-0.2544104593962394 
-1.048013967685743 
-0.06070592170875883 
0.4611910295336315 
0.555797344113547 
-0.5220277918024496 
0.7005762936703843 
-0.6540225889023998 
0.7044329236916181 
0.6751570599669642 
1.294152918951617 
0.2988292401428839 
0.03322817137070638 
-0.02322771757447002 
1.099347393579382 
0.3729845008656676 
-0.4978394574014854 
0.1685702271314966 
-0.3704459681516294 
-0.3059818882115422 
0.6711303532232715 
0.1793957507581722 
0.7810286708264408 
0.6298688920231456 
0.2371603147720646 
-0.1512002717508766 
0.3207753003246145 
-1.00185475635882 
-0.4333143899118461 
-0.6459727445221387 
-0.08463125851166597 
0.6940714552842332 
-1.044161752250148 
-0.3106717609432393 
1.061335203333433 
-0.2627947370936051 
-0.1066921262935341 
-1.37408383400404 
0.4835619444381354 
0.3219554803925787 
-0.2511834871729077 
-0.004613540387068272 
0.615353967305986 
-0.5537241932164879 
-0.1585168637361475 
-0.5085608751717929 
-0.2169205048540336 
-0.794240139640201 
-0.3806019046067802 
0.02825299236361635 
-0.3518655839884749 
-0.3132685701122001 
0.3453581534190204 
-1.030356187468032 
0.445425486257323 
0.4430353189481202 
0.6265946963772419 
-0.3784657679649752 
0.53202140052814 
-0.06330102766958463 
0.8669391802837088 
0.7962939678885571 
-0.1903523708712784 
-0.9143530698689818 
-0.2129237369079667 
0.08178105166278481 
-0.5621046413444575 
-0.6167143187859815 
-0.7872764412905124 
0.4541407477949712 
-1.44765863645871 
-0.296440233269583 
-1.139229300424336 
0.395420676234539 
-0.03707930937076897 
-0.3785457017552029 
-0.5551407205801123 
0.0003050582060773387 
0.6063624990644405 
-0.5871367862109762 
0.02674057666908641 
1.051440310869404 
-0.8626172589420427 
-1.064380952289209 
-0.82670396667084 
-0.3158245469674768 
0.5298858941796981 
2.283683546360872 
-0.6823345774585059 
-0.6324184193627918 
0.4362774386873491 
0.1184371083213868 
-0.7044175936663037 
-1.197475303021341 
0.1936519626907941 
0.276752568255102 
0.1826783981603085 
0.762144421987231 
0.673449423730476 
0.04153915380062294 
0.4649975122769996 
-0.2565132281584913 
-0.2225900171212953 
0.6439734408230465 
0.7135681829651739 
-1.111864752285606 
0.9624663320133582 
0.7519746873047714 
1.923712835081912 
-0.941831459748618 
0.282870275969251 
-0.3589778497511209 
0.5820005370026027 
1.521654005785021 
0.1156632869967832 
0.8533037894862887 
0.5088575356019162 
0.5088575356019162 
-7.137889178062456 
-1.563766646364557 
-4.420142727624461 
7.603720557940251 
1.079749252009009 
1.659407355779885 
0.3937733196523786 
0.3751962994610391 
2.739232600201788 
1.37424177430369 
0.08790990767415584 
-0.2497890213829997 
-1.286683694405989 
-1.036880438954136 
-0.1248498271458065 
-0.1393918501070321 
1.636628425441307 
0.07693904944493016 
-0.1393918501070321 
0.3539735291385849 
-0.6138884734022788 
-1.533677673788199 
0.1333742036429726 
3.659609320199431 
-0.48459572047763 
-0.4205782626739921 
0.3975564224164769 
0.3274280677891364 
-0.6531712321330092 
-2.15754350964843 
-0.06956435738973928 
-0.01447186209255146 
2.340597147186655 
0.1321949050139671 
0.3467826428895798 
-0.6560780613311156 
0.1566920665042032 
0.3105816742606976 
-0.5496016936505256 
-0.2268240241678413 
-0.2497890213829997 
-0.03343599028526107 
-0.02216403493542822 
-2.099417895079244 
0.1132437697004989 
-2.0515333967647 
0.6388949183210534 
0.08790990767415584 
0.1215915701661286 
2.565828040590346 
0.5768725242784023 
0.7389268038419693 
-1.029201529014063 
0.6903778789858569 
0.07579918303620813 
-0.08565421987931661 
0.5342796592725269 
0.4387712223246513 
0.04646044007368925 
0.1127660229607407 
-0.02296351542383898 
0.9717722375738713 
0.4210678995269708 
0.4210678995269708 
0.4210678995269708 
-0.07294833672075897 
0.0644540960129833 
0.4210678995269708 
0.4599014896464616 
0.4210678995269708 
0.340363039700791 
0.2919622218131771 
-1.798508024929807 
0.04154619897394592 
-0.6353007780236331 
-0.03029416318654498 
0.2567035961749377 
-1.282735759753679 
-0.2792910918717256 
0.1214993456386498 
0.09021198370056638 
-0.7935898110710759 
1.058799685570647 
0.2578948027220929 
-0.03058029463465526 
-0.6698566420533813 
0.2494768763045832 
0.04421635507114204 
-0.5950599923475838 
0.2494768763045832 
0.2494768763045832 
0.2494768763045832 
0.2494768763045832 
0.2494768763045832 
0.2494768763045832 
-0.06706190272234389 
0.03806897525357112 
0.03806897525357112 
1.158429092794889 
0.03806897525357112 
-0.804982232928103 
-0.3274384548804263 
0.07579918303620813 
-1.354382963796315 
-0.2372771350963497 
-0.3820180103064838 
-0.8267872688715541 
-0.1000560430774891 
-0.1000560430774891 
0.3245390720263805 
0.7712156247079431 
1.996235704312859 
0.8558914750877835 
1.892074529055967 
0.3555334431054114 
-0.3081413280548287 
-0.1675965903979033 
0.4857042463434415 
-0.3553255850779807 
-0.5222431942496183 
-0.254061428597621 
0.1803957118468027 
0.1803957118468026 
0.06255815397107989 
0.1803957118468026 
0.1803957118468026 
-0.4210236147415759 
-0.4743426561955844 
0.1803957118468026 
0.1803957118468026 
0.9027279210714693 
0.1803957118468026 
0.1803957118468026 
-2.505186446503463 
0.1803957118468026 
0.1803957118468026 
-0.3622982235655186 
-0.03434815771746395 
0.770437491511825 
-0.8575639683752615 
-0.1997578582062465 
2.258199087836186 
-0.01658193161106019 
0.1509640730468803 
-1.025927220627294 
0.06874410322030254 
-1.145458980400389 
-0.1047895938284519 
-0.1717999746507214 
-0.3178711572103019 
0.01490662988570029 
0.2005630277532088 
0.2005630277532088 
0.2387701587920962 
0.19058601059724 
0.2705845034245114 
2.659059835951856 
0.07529017796127471 
-0.1755727104396971 
0.1534552450422339 
-0.2702333450393011 
-0.9386914374238612 
0.1534552450422339 
2.315564185220271 
1.547871018439742 
0.8651183344460651 
0.007549096031152927 
0.1988438487643379 
-0.3036906503932648 
0.01696484296663691 
-0.1062446443613651 
-0.3538147735406703 
-0.1501452738539173 
-0.07904977159575864 
-0.05554736741940703 
-0.0386015703711094 
-0.1025018730944735 
0.01725404636280141 
-0.200574249473487 
0.1359551154737331 
0.5681404610433377 
-0.04496820745300383 
-0.1267339235038219 
-0.7020522875673398 
-1.601096130622099 
-1.20686598410078 
0.4544491161089108 
0.245835167268549 
0.02031091122968612 
0.09732498222534378 
-0.4955672089693217 
-0.501894311838134 
-0.2897374911309616 
-0.8234560663595771 
0.4941275093377556 
0.2547817205053934 
0.7013363575552198 
1.037397078854827 
-0.2806457910556192 
-0.2503469425752279 
0.1531004097924872 
0.06506287224519168 
1.650521019827744 
0.1206763590360382 
0.8651183344460651 
1.008954230324758 
0.2264258678376603 
0.8838393501834508 
-0.2397190426566982 
-0.3638361591278235 
-0.1951340011967463 
0.3558931610506828 
0.4414824986510482 
1.379522597597173 
0.5774531243450218 
0.9802527456389383 
0.08361063079174486 
0.2186052200358553 
1.020714431308995 
0.6260985955727966 
-0.02795849213344987 
0.7654377034505135 
0.5638553281158503 
0.07020064968338644 
-0.07941476368532734 
0.08866976702651148 
0.7504740015842988 
0.5527622285720003 
2.977300645398009 
1.374827305115927 
-0.6538854777700622 
1.474305416152046 
0.8271626972221082 
-1.079818571886856 
-1.899593966311853 
0.5527622285720003 
0.1348711801529707 
3.209449542850941 
6.938893903907228e-018 
-0.5136245975004985 
-0.1344982166578651 
-0.217992780253621 
0.4487442571718374 
0.08631830443012872 
1.008643660550817 
0.1467095139568961 
1.388972509837816 
0.360552960566407 
0.09277304649425644 
0 
0 
0.05044635306320216 
0.2624904678937153 
-0.2219542201159418 
-0.3252891735887406 
0.02702349427770404 
0.02702349427770404 
0.2053241933095099 
0.5665901779353227 
0.02702349427770404 
0.02702349427770404 
1.442812813170092 
0.942871190554596 
0.522925525170944 
-0.08083314149282272 
1.804758473668624 
-0.7752647252835347 
-0.9416756982568173 
-0.6538854777700622 
0.1112946536436634 
1.474305416152046 
0.04276330858902091 
-0.2369336226086036 
0.8271626972221082 
0.2993414654356932 
-0.6784836610971778 
1.291942117326911 
0.9012772161613497 
0.08697590471631393 
0.3562820568694513 
-0.9189847026448645 
-2.005699662631101 
-0.01200488706161054 
-0.2310820746439098 
0.6607166019727168 
0.1224892309386323 
-0.03149460888470908 
0.07434319639029624 
0.07434319639029624 
-0.700132899280037 
0.1301254130805184 
-0.3981625729389005 
1.482225150433145 
-0.3981625729389005 
-0.07680059101168503 
-0.05849105133043128 
-0.8188238579239573 
-0.0159914570864825 
-0.03965813673994454 
1.276863241329441 
-0.06016164592228754 
-0.7843038430225394 
-0.1417481822088361 
0.5417528792373966 
-0.1799190347766888 
0.8942433721469653 
0.5453854558158382 
0.1628895700960154 
0.3415728733084653 
0.3497298526485884 
0.4946400200667909 
0.3497298526485884 
-0.1988418751523595 
0.05433651898814636 
0.05433651898814636 
0.7758552686858701 
0.4703302149560694 
2.168404344971009e-018 
-0.4766426733363131 
-0.2735658181539857 
0.7567725677012774 
0.4034291515874857 
0.4034291515874857 
0.4257024115269699 
0.3113798650264611 
0.267500400644688 
-0.5342192415313853 
0.4166434756308863 
-1.784125516833149 
0.403194309860471 
-0.04757267564436178 
-0.310108496799777 
-1.334168849685611 
-0.02369307134097423 
0.8578478406834764 
1.167816675712646 
-0.2271643046918078 
-0.3438702122237827 
-0.1827232878193436 
0.2960926904277351 
0.3918297172718073 
0.3918297172718073 
0.6702988932583659 
0.1717102748812805 
0.09014803870585877 
0.2073553867610909 
0.1754948741082864 
1.390498636769562 
0.2073553867610909 
0.1754948741082864 
0.1754948741082864 
-0.2008266310639764 
0.01619446898061435 
-0.1195401938399538 
-0.1152883356614203 
0.3443614681840793 
-0.8591433636611344 
0.07571599295349958 
-0.167019169468839 
0.869415051990984 
0.01869887260124501 
0.2602549041369041 
0.2248182681478582 
-0.01397120772242588 
-0.7115890529585431 
0.510154828616303 
1.903700610570682 
0.3628330404642803 
0.488850834438012 
0.3327340809501558 
0.2640267595643562 
0.4322995599440444 
-0.1270732239198817 
0.3296814156016841 
0.4719863523785099 
0.921801529202033 
0.3048326839401654 
0.2495862801115141 
0.4662953914124223 
-0.6844226274369142 
0.2495862801115141 
0.4662953914124223 
-0.591106004963052 
1.071622425394539 
0.4167899219305632 
0.3378962171063376 
1.309578974998905 
0.442857917479128 
0.2832093168055959 
0.0732893760812656 
0.1018381982864568 
0.2957265830204869 
0.1706290329688584 
0.5933426996509005 
-0.1396764378999974 
0.8210632708210534 
-0.0275306964220209 
-0.9597181956360761 
0.0947178498954025 
0.0551470124788539 
0.0551470124788539 
1.254095617790856 
0.0551470124788539 
0.0551470124788539 
-1.50276635371931 
0.0551470124788539 
0.0551470124788539 
0.0551470124788539 
-1.477406759012775 
0.0551470124788539 
0.0551470124788539 
0.0551470124788539 
1.093724177213381 
-0.5789251780604747 
0.0551470124788539 
0.2785225292212888 
0.0551470124788539 
0.0551470124788539 
-0.261851344407784 
0.0551470124788539 
0.0551470124788539 
-0.8103773952309749 
0.0551470124788539 
0.0551470124788539 
0.0551470124788539 
-0.5022105131246194 
0.3583169952856024 
0.0551470124788539 
0.0551470124788539 
0.0551470124788539 
0.0551470124788539 
0.0551470124788539 
0.0551470124788539 
0.0551470124788539 
0.0551470124788539 
0.0551470124788539 
-0.1694430998924829 
0.0551470124788539 
0.0551470124788539 
0.3452411504341284 
0.0551470124788539 
0.0551470124788539 
0.0551470124788539 
-0.0275306964220209 
0.0551470124788539 
0.0551470124788539 
0.0551470124788539 
1.415845678678736 
0.0551470124788539 
0.0551470124788539 
0.0551470124788539 
0.2439673320023644 
0.0551470124788539 
0.0551470124788539 
0.0551470124788539 
0.0551470124788539 
0.0551470124788539 
0.0551470124788539 
0.636196875211504 
0.1448063538639995 
0.0551470124788539 
0.0551470124788539 
0.2978486424037889 
0.2978486424037889 
0.0551470124788539 
0.785143521698479 
1.024602811026262 
0.0551470124788539 
0.0551470124788539 
-0.1275601445891978 
0.0551470124788539 
0.0551470124788539 
0.9022094644891061 
0.0551470124788539 
0.0551470124788539 
0.0551470124788539 
0.0551470124788539 
0.0551470124788539 
0.0551470124788539 
0.0551470124788539 
-0.6829307943545212 
-0.3060059495710518 
0.0551470124788539 
0.0551470124788539 
0.5869391347129663 
-0.4722553070075915 
0.0551470124788539 
0.0551470124788539 
-1.135418249628919 
0.0551470124788539 
0.0551470124788539 
0.0551470124788539 
-0.08679300410972615 
0.2408865204991329 
0.0551470124788539 
-1.15884458530873 
-0.5547865291939764 
0.5247161637364032 
0.3445834356755695 
0.0551470124788539 
0.0551470124788539 
0.8837572742855163 
0.317084409426564 
0.2128406852466635 
-0.1954884885294264 
0.08670040715218452 
0.3499511592046565 
-0.02160255440024108 
0.05424268980214854 
0.05424268980214854 
0.05424268980214854 
0.1600152315813166 
0.4337251519618784 
0.05340104372999757 
-0.1480892978358528 
0.1795318537252945 
0.2626678054629749 
1.756593438442253 
1.308074537253259 
0.8837572742855163 
1.545077269075843 
1.29568028384725 
-0.06860552835442842 
-0.309598173424727 
0.5259529417469769 
0.04835506461704625 
0.3237016487428954 
-0.2500722407701411 
-0.5075763268538088 
0.2082083021176759 
-1.605243827743157 
0.317084409426564 
-0.6956991035018328 
0.9528872345318036 
-0.2053179571388074 
-0.0696295102818041 
2.02387826569505 
0.4398613233407758 
0.104942613030757 
0.01907193102426135 
0.01907193102426135 
0.409167697059507 
0.0911686390254811 
0.2230283537308206 
0.3358032029501422 
0.5670262389603396 
0.4398613233407758 
0.4591489185511832 
0.2433633361288746 
0.767209718914181 
0.4051306071116817 
0.2433633361288746 
0.6332299045248095 
0.6286213736781918 
-0.8188807261106297 
0.6286213736781918 
0.8157691298709999 
0.8896444354857563 
0.9152380007764588 
0.2862234543012312 
-0.449722852665491 
-1.538822979643033 
0.4778076920437771 
0.1489747896852745 
0.5271520917436764 
0.6459078011293766 
-0.1299503053083467 
-0.8188807261106297 
0.3833758269202587 
0.110558153403043 
0.110558153403043 
0.064644512564435 
0.363335403592384 
1.37600429551779 
-0.1854108765057338 
0.4790301318973914 
-0.2545482555770659 
-1.340760500029434 
0.07794273222892507 
0.2690106991158169 
-0.3754891191199575 
-0.1180872043043858 
0.3211241059412203 
0.6990060817765528 
0.6990060817765528 
-1.690211248266919 
-0.265593408712742 
0.06419290554129355 
-0.3771105928793732 
-0.3771105928793732 
-1.690211248266919 
-0.5028659317798094 
-0.9081239813776918 
-0.04382446358565796 
0.1971791672852729 
0.2676610902600489 
0.3375190544881221 
0.4926045580810067 
-0.2006158444545788 
0.4716640638856187 
0.3364213671408329 
0.03438169785277911 
0.03438169785277911 
0.1224402532867018 
0.03438169785277911 
0.03438169785277911 
-0.5337277272801593 
0.3293178155469022 
0.1058350966685272 
-0.3170894538075139 
0.1058350966685272 
0.1058350966685272 
0.3388281280904525 
-0.4678252539483964 
-0.04146474609821396 
0.2805532093949892 
0.2886878891193053 
-0.2612614043708508 
0.1058350966685272 
0.1497116513740683 
8.673617379884036e-019 
-1.210250415651986 
8.673617379884036e-019 
0.6041925330006176 
0.8216721351207273 
-0.04768440625418227 
0.1005926563652589 
0.2701130033519727 
-0.9569171887781095 
-2.624714235368736 
-1.252285861254886 
0.9565693647897873 
0.3044430490510952 
0.3044430490510952 
0.5335368959352066 
0.2071174726087056 
0.5156668550238529 
0.4086875251661137 
-0.7701251870565357 
0.9757223176628567 
0.02951261574765461 
-0.5376671310007908 
0.4287621010985823 
-1.210250415651986 
0.1314428622416748 
-0.1352004030252189 
0.09201202462652287 
-0.0003503372907522943 
1.075624958713002 
-0.04213738815817483 
0.20477658360065 
0.3488004101200802 
0.5057472964773699 
-0.2830674070196504 
-0.4814277559018226 
0.530989628297566 
0.2240314912298166 
1.118261205599586 
-0.08325673073695342 
0.804908109255788 
0.244157054367338 
1.075624958713002 
-0.2066201823848489 
-0.6249071899058192 
0.1785205786697031 
0.321229715172437 
-0.1766542252653815 
0.3354238847319782 
0.002532948292644608 
0.5382057991344744 
-0.6688465938658195 
0.4473395200470877 
0.06796279865426852 
-0.2594281764758575 
-0.3304427096657951 
0.5043117497504496 
-0.02831917968234486 
0.3614080762926085 
0.5563971516654873 
-0.1524961728702334 
0.3380374091256131 
-0.2167641353674078 
0.06717346662336921 
0.09966848320115897 
-0.542893888355384 
-0.1150171093662083 
1.184882063489513 
-0.6893061219419207 
0.7786530305412653 
0.3393153965709748 
0.1515354785826328 
-0.2079665426343762 
-0.2079665426343762 
1.874965885547512 
-0.2079665426343762 
0.9781908948580299 
-0.2079665426343762 
-1.16691453082594 
0.1652799035942042 
0.3443117476466161 
0.1234085313563995 
-0.818049891471358 
-0.2079665426343762 
0.6716622300779822 
-0.7540834210243457 
-0.2079665426343762 
-0.2079665426343762 
-0.2079665426343762 
-0.2079665426343762 
-0.2079665426343762 
-0.2079665426343762 
-0.2079665426343762 
-0.2079665426343762 
0.28933228151258 
-0.2079665426343763 
-0.2079665426343763 
-0.2079665426343762 
-0.2079665426343763 
-0.2079665426343762 
0.3228436931387468 
-0.2079665426343762 
0.1515354785826328 
-0.2045952639451049 
0.9824262199581654 
0.5961336834546269 
0.1488244769771958 
-0.165087006887798 
-0.07769438558453171 
-0.2847497442597258 
-0.4729564239366531 
0.01340168621816323 
0.01340168621816323 
0.1003738956904367 
0.01340168621816323 
0.1003738956904367 
0.1488244769771958 
0.1488244769771958 
0.6008748554596364 
-0.165087006887798 
-0.002954066527591977 
0.04171709924740224 
1.460089816877034 
1.244743762919994 
2.586314990919264 
-0.2263419168687144 
-0.9150948685353095 
0.7552786892999522 
0.1704203727822023 
-0.2637052439986733 
-0.8077814684795377 
0.03433362692312663 
0.03391216513742004 
-0.2125169188664697 
-1.080452587114599 
0.06106741519294557 
0.7997676985819053 
0.2830745425265551 
0.3506820295809637 
-0.3559838802134155 
-0.02874103604671557 
0.5121387266883928 
0.4060336472390091 
-0.01263788187459708 
0.7711921171147426 
0.5333696107869058 
-0.2083438286379155 
-0.06301681717877358 
-0.6874382485640627 
-0.4638832621739998 
-0.9150948685353095 
0.1310429242233203 
-0.4176725604347304 
1.278895536629056 
1.215547738780864 
-0.2160721753061694 
-0.4411657867783332 
0.01510529922739658 
-1.412548836530787 
0.1054407188875738 
-0.2583534092513194 
-0.6262677424471449 
1.559114012082009 
0.3212495249995566 
-0.2402444057991457 
-0.8782050336064802 
0.1794869893584588 
-0.2142811877527123 
0.152943171322628 
-0.2958871889075234 
0.4123914916286076 
1.061094702959716 
0.1043140235344535 
-0.379804280941943 
2.218691205803274 
-0.7455523661413412 
3.020352625931825 
0.9976312057590745 
2.912570370091351 
2.274781615759283 
0.5383495570634066 
0.230190546903577 
0.9577460365313775 
0.001830906372402468 
0.4531114613582643 
0.1121441003936367 
0.3252906515422347 
0.5624753646499849 
-0.1931912443534946 
-0.3547306899170842 
-0.6834463096637078 
0.08061659205257701 
0.2580604382116634 
-1.869583181941099 
1.083864746778195 
-0.2948393894253685 
0.05031104485126198 
0.05241317480058291 
0.150931849891063 
0.150931849891063 
0.150931849891063 
0.01631732095887062 
0.6732804019005214 
0.04524494548802367 
0.8833874161682467 
0.3400445236953167 
-0.005429499709122245 
0.3141221115182076 
1.024054106369475 
-0.3423885626247549 
0.01631732095887062 
-0.3481536951078663 
0.1975447125347919 
0.434371610300594 
0.3184935402901425 
-1.167005896650518 
0.1747886449737745 
-0.4222951609687893 
0.3412581189300811 
0.4862008135399977 
-1.447011562156787 
-0.1900451788253345 
-0.2154950438641033 
0.5256436553660413 
1.160361958649273 
-0.656652106980626 
-0.3820695687077628 
-0.3820695687077628 
-0.3460386197981354 
-0.4932409888398701 
1.984190974154401 
0.4990600905898257 
0.6006212936733133 
0.461423820995194 
-0.4058193439505796 
-0.3342249230742487 
-0.3620986483646801 
-0.3093205970496815 
-0.3620986483646801 
1.250412693085815 
0.2172006427544665 
0.1065654213751301 
0.370619078175087 
-0.01823236932052498 
-1.389719641327723 
-0.1711562110834766 
-1.157355012473684 
1.011967792083284 
0.1455189159296373 
1.325383398957847 
-0.2545840378879669 
-0.06780476987920033 
-0.6259867743642985 
0.1455189159296372 
0.8722304775708764 
0.2225828111592009 
-1.332036582460346 
0.2978412324701093 
0.2978412324701093 
-0.6606680498790126 
-0.7219688033035681 
0.6846290245255153 
0.02328074215977275 
0.2363951231600328 
0.3162291072938926 
0.2088605019993367 
-0.08466675687102437 
0.4641046692326218 
0.933777101171819 
1.150116858936363 
-1.904764735524908 
-0.01655065588753949 
-0.01655065588753949 
-0.0005777175129219288 
-0.0005777175129219288 
-0.7065966594555334 
-0.840829344775558 
1.665538400988423 
-0.7745091266698998 
-0.008851651344330379 
0.04326378599607857 
1.190020010874232 
0.3203691727632337 
-1.146442433713888 
-0.06520246031766931 
1.143767819197419 
-0.06856546007906177 
-0.173738741548171 
-1.217509767810464 
1.352201072371763 
0.2641466368134203 
0.0723779934175368 
1.683384354406266 
-0.2562425189517924 
-0.7212503152552869 
-0.4764840333883358 
-0.4764840333883358 
0.2972881294606949 
0.063574656086653 
0.063574656086653 
0.2775132237279966 
0.2109512745690801 
-0.6541850907171773 
1.144556406786784 
0.1700136375365716 
1.869476031833828 
-0.7793614075432436 
0.1985183593508536 
0.1985183593508536 
-0.2845310409756252 
0.2667895758740864 
0.2822477914030422 
0.1738971848998638 
0.01626802021423776 
0.3310889188577835 
0.1738971848998638 
0.4212583842010472 
0.4176146348876955 
0.45307672639074 
0.1484111687460421 
-0.1568229094363498 
-0.01397761520685056 
-0.05301841549579799 
0.3014842387643955 
-0.05301841549579799 
1.620144393363798 
0.530699226435288 
0.530699226435288 
0.1070997166502613 
0.5828582679905179 
-0.1091560354065937 
-0.0372571232391071 
0.9710438457383795 
0.5005381649981493 
0.9710438457383795 
0.5005381649981493 
0.242478168459199 
0.242478168459199 
0.242478168459199 
0.242478168459199 
-0.005059656577298819 
-0.1996760425112489 
-0.02184337242544811 
0.9531834832632887 
0.5124461320625654 
0.386537316603609 
0.1168633960615157 
-0.2132515530480097 
0.6221133500785029 
-0.5409384756911683 
-0.7841617081792306 
0.2827733595691205 
0.706470335420093 
0 
0.2827733595691205 
-1.26194201189708 
-0.1900272617720036 
0.706470335420093 
0.3751047296118918 
-0.009837610259928242 
0.03039135429533786 
0.4191343176699713 
-0.3264183628332644 
-0.4758311233512078 
0.8591934114529941 
0.8591934114529941 
0.5155184079700576 
0.2889233638074362 
-0.277395033016073 
0.111624793970952 
-0.1402713122479805 
0.3068101890623328 
0.1467023969719775 
-0.4270236684605917 
-0.01498918854990768 
0.428492382819907 
0 
0 
0.138023212636179 
0.07198910383416986 
0.008851842053665519 
0.001126819532233016 
0.08062251170538641 
0.4020576680943141 
-0.9535552455041084 
-0.5444602216464478 
0.7864356615634444 
-0.08783682018596029 
-0.7646251472671014 
0.1598456776863792 
0.1598456776863792 
0.1598456776863792 
0.007066697867396831 
-0.307823775865093 
0.1598456776863792 
0.1598456776863792 
-0.03296201340433069 
0.1598456776863792 
-0.3102623055584441 
-0.05624686163501174 
0.3156134078872452 
0.199489821477501 
0.3817888849375791 
-0.0756771042106093 
0.1956290905512863 
0.4489392731519336 
0.02516902488619619 
0.1637547463993655 
0.09156973747152843 
-0.2144940534878295 
0.1778371486103026 
1.619242348554825 
-0.875984255111002 
0.2132204420695999 
-0.2098005615161392 
0.1520110143994256 
0.2877476913315337 
0.7185258473418769 
-0.06062512047405188 
0.02199883642967326 
0.03981929026250751 
1.585043724686679 
0.1639943533136785 
-0.1872355138752409 
0.07383524344302557 
0.003194218851791964 
0.117091897070825 
2.025353491616917 
0.127818506486743 
-0.09078563140379051 
0.3883777410139317 
0.4945213368433424 
0.3883777410139317 
-0.01483059371341461 
0.3630389451275755 
-0.6207550783302704 
6.938893903907228e-018 
0.4945213368433424 
0.3334584084955129 
-0.05035953703026262 
-0.4558687571731117 
0.4415687224758954 
-0.07000969538710526 
-0.9716051627535334 
0.7473052386788359 
0.0821532808564665 
-0.2870017311785877 
0.1589463893790958 
0.1933272066497656 
-0.7941525553394943 
-0.1026403945942449 
-0.05952965365399904 
-0.002951195819822406 
-0.511159995056822 
0.1117582000743346 
-0.02877468313945097 
1.776408448488892 
-0.1735472156375579 
0.4396344411517936 
-0.8939202810478982 
0.6281831615922758 
0.4190792787320499 
0.4190792787320499 
0.8845569045933616 
0.8590770910587634 
0.1966627390766835 
0.2890176826593787 
0.2485152855195918 
0.06221688660868633 
-1.247174178832033 
-0.7169792640434547 
0.06569287903465669 
-0.3411895991190401 
-0.2696725609447765 
0.05485580408920892 
0.2037727222816526 
0.2037727222816526 
-0.03254439746963731 
-0.6665437563422794 
-0.2373133976348239 
0.5704040511297815 
0.2770510640090089 
0.2801865142759449 
1.472392478493156 
0.1827906292300952 
0.8966009290638511 
0.2604609422527072 
0.4006360845225704 
0.137977299647275 
-0.2551946854828671 
-1.16340718774427 
-0.397621142934822 
-0.2575978093656642 
1.495733650246774 
-0.08055632246953563 
-0.2787630836956312 
0.8316038698336615 
-0.2787630836956312 
-0.1556866077208544 
-0.3178647980752849 
-0.4449210971520621 
-0.4449210971520621 
1.047212810968382 
-0.7173653808181683 
0.3044238758833346 
-0.4322505056041485 
-0.2971869025123406 
-0.6360375103003693 
0.1180607325607879 
-0.3269945506921951 
0.4693371686193183 
-0.7012550203212868 
-0.4139832879455088 
0.4165186025990539 
-0.09942005145718948 
0.6735712381662262 
-0.86330341461898 
0.4870620690572504 
-1.858072799798489 
0.5710725180544433 
-0.8348009265404111 
0.04663158902372726 
-0.7904441441060536 
-0.1157929228091707 
-0.272851139817801 
0.3231996824258461 
0.1829425408226283 
-0.4343460958976722 
0.03189806728588675 
0.3887212959993611 
2.762786438591948 
-0.03144789325515395 
-0.1876431141309134 
-0.6025362846562296 
-1.80771126159329 
-0.2775486523816499 
0.03480085413307014 
0.3525744197094578 
0.1860563332358161 
0.1860563332358161 
0.0430129492074359 
0.3527627907617469 
0.4870620690572504 
-0.6998717273850139 
-0.01537692210563286 
0.7654969494190763 
0.03925741902945573 
0.03925741902945573 
-0.04247748776711655 
-2.141258463057857 
0.145368442056621 
0.6123074352107178 
0.4283683985809293 
0.5320111142303046 
0.3344635521247995 
0.4855241112090826 
0.3380425482357615 
0.3740510866170722 
0.4869520140147368 
0.5229605523960472 
1.226106970993807 
1.22693859928987 
0.7733052802626125 
0.5555970612405597 
1.468492181699324 
0.42477733281202 
0.3982743637046468 
0.3982743637046467 
0.5941993879534994 
-0.01537692210563286 
0.3780784272633375 
0.3869877477811697 
0.1762528609061248 
-0.4460271740758531 
0.3629115085004749 
0.2842872678887616 
-0.08261289652490754 
0.1224848959031562 
-0.2443737011334648 
0.5729954348708608 
0.2076011829410051 
-0.04983104133647848 
-0.2405307055910912 
0.9728740949900591 
1.121100765598614 
0.09798427101441243 
-0.1304207794875508 
-0.5205934565669486 
1.391910128157575 
3.172111032869269 
0.1734781344679559 
-0.06340745763844666 
-0.01113537793107614 
-0.5514877900940627 
-0.1269998981685019 
0.05822624929074206 
0.200252249539998 
0.6944516315184778 
0.6944516315184778 
0.7942443494773162 
0.1793795491941196 
0.5374825178764354 
0.1174876942949981 
0.1174876942949981 
0.1121225735881246 
0.2156582998598262 
0.2158656162976678 
0.2158656162976678 
-0.1304207794875508 
1.070231414292933 
0.8598864687894799 
1.175377550749155 
-0.3441406698336339 
0.8598864687894799 
3.469446951953614e-018 
0.3059086805546974 
-3.469446951953614e-018 
1.175377550749155 
0.1785655917059814 
-0.2150121580654814 
-0.5280805194184886 
-0.1156241693882027 
0.06147737196468033 
1.617369417967041 
-1.244322601452026 
-0.1669734855879076 
0.0883112811873101 
1.227208942305889 
0.0883112811873101 
1.488475860143131 
3.469446951953614e-018 
0.03896834560224419 
0.2207549113328219 
-3.469446951953614e-018 
-0.9218462201843821 
-1.125812727965675 
-0.3850692344297999 
-0.3649646191692885 
-0.09759773841911165 
0.1157419926603971 
0.2373154677693053 
0.1157419926603971 
0.2373154677693053 
0.3704537450231024 
0.1868251512387394 
0.6170214351471809 
0.1795210748333674 
-0.849998648515147 
-0.4358802966721132 
-0.3052403408321671 
-0.1821002388958905 
0.3144477857222667 
-0.4032057221498689 
0.4452533227172133 
-0.07588258121494516 
0.007708434661361407 
-0.4613099366757991 
-0.01755911675250924 
1.263444644044876 
0.3204051983225647 
-0.2056896773150932 
-0.06613727882858957 
-0.4968009379904132 
0.4739227948465689 
0.7184709482204194 
0.3938755865014527 
0.7043011386194688 
1.134731261774214 
0.5769595329657249 
0.07255791339756969 
0.8403480220557319 
-0.2135642928178454 
-0.5634826160583117 
-0.2212605596182911 
-0.2212605596182911 
-0.1494974804490323 
-0.008103469515654852 
-0.09960132850875969 
-0.4758311233512078 
-1.412520313613602 
-0.3385645086497992 
0.8529456737559698 
1.363046353230881 
1.279572453238845 
0 
-0.06075557172395217 
-1.951563910473908e-018 
0.5324289216943173 
0.105530590686698 
0.7844328455228217 
0.5732741908410566 
-0.2762106847232348 
-1.412520313613602 
1.110427417336191 
-0.1937541736700803 
0.6146601211196671 
0.4307243938533863 
0.1936345313018206 
1.122633748583664 
0.3037119794884772 
-1.850318378961393 
1.01911695295796 
0.3145292704724198 
0.2179031154438798 
0.4782492565121007 
0.3410514292310674 
0.1759999396750104 
0.3902354535463835 
0.0251209842784671 
-0.8809572287925664 
0.3148858892575264 
0.8509972650845441 
-0.1797944358455673 
2.878379535585089 
2.996908707458957 
1.507239236510916 
0.4525343949294022 
-0.01551057055146108 
-0.3721423203044934 
-0.1291184732529457 
0.930793043787573 
0.07980485725945249 
-0.8668666335113622 
0.5302714150164248 
0.4001402107903236 
0.09751143507380997 
1.54321088821144 
-0.2401782438008795 
-0.1059525634075685 
-1.039504709980135 
0.04844123630416905 
-0.6184786212617786 
-0.09154778930148404 
2.151672915127887 
-1.572093150103981e-018 
-1.572093150103981e-018 
1.559243854719969 
-1.572093150103981e-018 
-1.572093150103981e-018 
-1.572093150103981e-018 
0.7021663940272463 
0.1003178413405202 
0.1003178413405202 
0.1969781209608395 
0.4226762051652693 
-0.2865201845403431 
0.4226762051652693 
0.7986059398050766 
0.2880703173679883 
-0.6144621588453204 
0.4371306149040455 
-0.7800422591578796 
0.320082384099724 
0.06498874391929024 
-0.07382766958306149 
0.3662880963512297 
-0.8411914646651529 
0.4019255910953629 
0.1538518637654608 
0.4011830659132872 
0.08787215733170858 
0.0850590980020992 
0.8136363677109507 
0.7944911283317261 
0.1506127574597899 
-0.5177526394185649 
0.2951264532904496 
1.904597566350686 
-0.6989571456448658 
0.3355456518051661 
0.09607298820580019 
0.2916381915292632 
-0.0816703620141713 
-0.0816703620141713 
0.1776559661773115 
0.08183634468910891 
0.2579445493093616 
0.6587191519254979 
0.1169234639997081 
0.3940548059867727 
0.9785190050663797 
1.904597566350686 
-0.1075815888188749 
-0.1209817289141898 
0.1307045196827248 
0.3627332587901945 
-0.3668728125407962 
-0.6989571456448658 
0.7002676182663541 
0.7251065694989387 
-1.290520318784395 
0.09947849216664396 
0.7251065694989387 
-0.1205547265582199 
-0.1205547265582199 
-0.1205547265582199 
0.6438963955499835 
0.3956075750482881 
0.2223214773449002 
-1.146734594124749 
0.2572967897294968 
0.6011106057941816 
-1.290520318784395 
0.1223066120542942 
0.01436561947071558 
0.474994696157037 
-0.157073097043628 
-0.6142563485847412 
0.1660220078574804 
-0.9063882926999544 
0.08000677992463044 
0.3797809908276773 
0.4009389575829072 
0.8928516608877974 
-0.1500321455089323 
-0.0952683299223538 
-0.1145582256038186 
-0.3516008198873138 
-0.2020318836477709 
1.363310588907184 
0.5345126068036902 
0.8896081850393391 
0.3739974502929315 
-0.1667542205441039 
-0.06079229417756522 
0.3976481946014216 
-0.06079229417756522 
0.06538168709646561 
0.6024429886176087 
-0.5290266343200968 
-0.1291182922743677 
0.4651350101057974 
0.4105715295148844 
0.06699895015019565 
-0.5235963543397819 
0.1827053530452471 
-0.00246269997825107 
-0.1467984754916999 
0.07207211881483745 
0.6772597029657138 
0.3308418465956696 
0.1883238571685088 
0.286506103090356 
0.1883238571685088 
0.1883238571685088 
0.4295363398106935 
0.8564286213924385 
0.1508869101360934 
0.4276730965765079 
0.7252089303807432 
0.5181783380022111 
1.516819880791719 
0.4126440199602588 
0.06699895015019565 
-0.4287805988274981 
-0.5270293012625302 
0.4533941854927522 
0.444729013274063 
0.26320546999367 
0.6267657585657415 
-0.01725861221147846 
0.1824528425039287 
0.1824528425039287 
0.8680939186492723 
-0.1040890834249443 
0.4863189982410258 
0.6847908675627348 
0.8572385193689036 
-0.8509539218250256 
-0.1847032550230656 
0.04993658462678188 
0.1778267995282686 
0.880785388615311 
0.2665104661600871 
0.2665104661600871 
-0.02160714563334332 
-1.803603974185074 
0.6267657585657415 
0.1031854950246097 
-0.3602458377340343 
0.2152630186816055 
-0.09460714746618039 
0.09607711568043736 
0.4180755764276372 
0.1360280899866079 
0.7612227209642321 
0.3018941407396866 
0.2971708209105388 
0.3031381912969295 
0.04009272324212807 
-0.1758275006626206 
-1.237573736023985 
-0.3319169047183109 
0.1783147108447507 
-0.07254734131883296 
0.02073728349494426 
1.306846151138312 
-0.479174200063811 
-0.07953439704027292 
-0.2234865262838642 
0.4654265036012835 
0.1041545105361003 
0.2889125912156351 
-1.72643857532414 
0.4259325816544826 
0.2949336894098101 
-0.2969008983757495 
-1.482301861601795 
-0.6674477847926796 
1.245667976774903 
0.7125229690055155 
0.3565089710914776 
0.3823825964258358 
-0.7972594191515555 
-0.2673970849756231 
-0.3847073699462433 
0.09759196051773976 
-1.577990723067476 
0.09759196051773976 
0.6350962676596873 
0.07066209480943038 
-0.1889970554813999 
0.4782023627209263 
0.4782023627209263 
0.7017795032902726 
-0.1722921989043227 
-0.6674477847926796 
-0.05267521902622917 
0.3327910337598773 
0.3243948201294464 
-0.009661854943236209 
0.03839586951491566 
0.03839586951491566 
0.2745508275148218 
0.03839586951491566 
0.2139898682157502 
0.2139898682157502 
-0.4745843748959087 
0.5696849107876515 
0.5700582156163861 
0.1962378939380884 
-0.5193852889295667 
-0.5193852889295667 
-0.05684827173965509 
-0.1775195936074553 
0.1250861688559831 
-0.621503376948095 
-0.4816715604680784 
-0.1245964381446564 
-0.4293356128273283 
-0.1464328042446099 
0.02003106458711516 
0.1719021112261795 
1.183361366128607 
-0.2014122692588519 
0.133957734247012 
0.133957734247012 
1.893963296684788 
1.239591860676018 
0.1461250254275881 
1.085615061281511 
0.1461250254275881 
0.1126503169356526 
0.2993455144701677 
0.08273154365709851 
0.2512103790995152 
0.2512103790995152 
1.857611016219239 
0.5610439249948042 
-0.8308227848642591 
-0.03378324602127085 
0.993502338545683 
-0.2374767903652411 
0.5173116351793443 
-0.1474116779748895 
0.3834312398208684 
0.8930562116163975 
0.01212201367117401 
-0.4938355412784207 
0.2666649979161498 
0.3667546397548076 
0.3530737188878904 
-0.192929265723591 
0.5385744299215689 
0.232264192079889 
1.857611016219239 
0.400921887583386 
-0.4270081305118713 
0.924821196433416 
-0.3388051745640484 
-0.5424677864682276 
0.2285047869191421 
0.2285047869191421 
0.2622779409538568 
0.05162009474843234 
0.8009997399028612 
0.2647053847194104 
0.2252073036421519 
-0.02604832576427126 
-1.955468879564806 
0.4887473284392644 
0.8780557328371601 
-0.622315275397421 
0.6089684340767323 
0.05857896365796501 
-0.6659136813124046 
0.2094290456434927 
0.250417115994767 
0.7784578231132218 
0.8870390668209509 
0.1337498055293328 
-0.184609295568391 
-0.0007361260550531961 
0.6674059491096086 
0.09926713639473468 
0.3071268255347677 
-0.07873499145958061 
0.2070049068743972 
0.7036267807219865 
0.06614891686983224 
0.3285396886769541 
-0.7524406812759142 
-0.07734657451804863 
-0.9561032747196575 
0.4992827248790602 
0.07202538669713535 
0.3610413617617702 
0.08288359478011118 
-0.4316270284351825 
0.06867331251951271 
0.5008167749298323 
0.3785303406553753 
-0.1279509206819983 
-0.02938264404647837 
0.23921715825711 
0.08560357664905133 
-0.315479794104777 
0.0673316251777476 
0.0673316251777476 
-0.1864334948712833 
0.8240928524129126 
-0.1864334948712833 
0.03603094890962748 
-1.046872166400335 
0.2228283589580351 
0.3330529511019609 
0.02821570930421311 
-0.7173244972231898 
0.01775926056506513 
0.4726885192343406 
0.1956695804600061 
1.94569634002746 
-0.7173244972231898 
0.01775926056506513 
-0.2841077563679099 
-0.1711721258585944 
-0.7523361080728481 
0.01775926056506513 
-0.04256784292289319 
-0.04256784292289319 
-0.08805468733956291 
-0.04441540696539902 
-0.42429006976866 
0.6199029528788282 
-0.2209982733756903 
0.1526924940917538 
0.1526924940917538 
0.2251531530824385 
0.6119134480988169 
0.2251531530824385 
0.1510577317109929 
-0.9632362592677336 
-0.4477025283825875 
0.07923539407034401 
0.008310192470539374 
0.4121511385310527 
0.4696052342163833 
0.4470310503076895 
0.1561321427866845 
-0.08368481173087859 
0.1055603062519113 
0.5576464714057062 
0.3441204491491409 
0.6500595518844998 
-0.3036818548746671 
1.079875363677349 
1.281871604321292 
-0.3620551309452619 
-0.3021745639599132 
-0.07659445806037131 
0.01341787556263241 
-0.3856221679948223 
0.0603314338211014 
0.6398519904269706 
0.7787574036936453 
0.1874145651664411 
0.1328087140653365 
-0.5440018370929995 
0.5070611287727378 
-0.248997582831109 
1.558310306786185 
-0.3945789467248293 
1.281871604321292 
0.3735397691515625 
0.06257595705412476 
0.3067845736090049 
0.8343674964093238 
-2.040876909816249 
0.9698662198259515 
-0.9177428907524922 
-0.006989578161983143 
-0.9177428907524922 
0.6452047206364264 
0.06288323571962851 
1.084202172485504e-018 
1.084202172485504e-018 
0.973111639218841 
0.2508935413899007 
1.155205773070598 
-0.1061024767894505 
-0.5828755125892794 
-0.1665084533631684 
0.4999258070125044 
-0.05946550497727929 
0.2589761225035323 
-0.08873884666363871 
0.07476829722650914 
0.809361638838571 
0.1624194432607773 
0.3538064968010324 
-0.3994243981509233 
-0.05309573841307012 
-0.6745251491589065 
0.0314082083260467 
0.7037184883542902 
-0.1390530767757962 
1.084202172485504e-018 
0.2492178161327783 
0.2492178161327784 
-0.1006767913848864 
0.2492178161327783 
-0.1004214157383128 
0.5200704297008071 
0.156687315250895 
0.2492178161327783 
0.3153748147332042 
-0.7623249496709743 
0.0141023720070979 
0.7637292218783491 
-0.01841458703245245 
0.4998077635999549 
0.7637292218783491 
-0.01841458703245245 
0.202075104211399 
-0.05725273119373028 
0.2492178161327784 
-0.009196944250191316 
1.23500848902381 
-0.4145033936833653 
0.4179730716591061 
0.2667365306735613 
-0.2875345460989806 
0.6606018110524163 
0.02211309708651735 
0.02211309708651735 
0.4721701854753961 
0.175029372545013 
0.1040284961769544 
0.4179730716591061 
0.7595622887364966 
-0.01173925937602018 
-0.4885488035012421 
-0.4036019134479296 
0.8619495676507724 
0.613139424399139 
0.02211309708651735 
0.2667365306735613 
0.1088140958687873 
-0.01753076392873984 
0.04399100123630757 
-0.07153205798603067 
0.01192330298507154 
0.01192330298507154 
0.01192330298507154 
0.01192330298507154 
0.01192330298507154 
0.01192330298507154 
0.01192330298507154 
0.216689297538512 
0.01192330298507154 
0.01192330298507154 
0.01192330298507154 
0.01192330298507154 
0.01192330298507154 
-0.3372525837018519 
0.01192330298507154 
0.01192330298507154 
0.01192330298507154 
0.01192330298507154 
0.01192330298507154 
0.089917676643085 
0.1213673011049633 
0.01192330298507154 
0.01192330298507154 
0.1213673011049633 
0.01192330298507154 
0.01192330298507154 
0.01192330298507154 
-0.6530214186921332 
0.3141725389880669 
0.3141725389880669 
0.04306324699480244 
0.3220328209441228 
0.01192330298507154 
-0.0272267947746104 
0.01192330298507154 
-0.30041870161583 
0.01192330298507154 
0.01192330298507154 
-0.24781626762042 
0.01192330298507154 
0.01192330298507154 
0.01192330298507154 
-0.3011151473230648 
0.01192330298507154 
0.01192330298507154 
0.01192330298507154 
0.01192330298507154 
0.01192330298507154 
0.01192330298507154 
0.7169868749180324 
0.6277192429061559 
0.3336109306709833 
0.4210627057732627 
0.6765761801925022 
-0.1225911222856736 
0.2261341952546669 
0.4210627057732627 
0.2364639816393484 
0.2791961986089419 
0.06260568088668479 
-0.5435865141096143 
0.7848440465920269 
-0.7242098626707524 
0.2387316296165985 
0.06711822118379508 
1.12803934659804 
-0.1645662154996346 
0.4893784762266633 
0.5026919575800521 
0.0233523348211267 
0.3780976236745277 
-0.09822478625433399 
0.1210197982944984 
0.0892410952904476 
-0.7463547789946337 
0.4383130359409698 
0.2887323942417864 
1.276596144598383 
0.1042526335721305 
0.4383130359409698 
0.6395138339211044 
-0.3140863476912491 
-0.8650514212184398 
0.03078107444498928 
0.03078107444498928 
0.2887323942417864 
-0.9965605709254819 
-0.1878044978782136 
0.4459362880926907 
0.3300987971113759 
-1.026325665646113 
0.02915264380362921 
-0.483792526174904 
-1.734723475976807e-018 
-1.154525187681332 
0.2125185023376254 
-0.3820917605722741 
0.02657752469079668 
1.276596144598383 
0.05819829877720808 
-0.2989311955647701 
1.155217379558263 
0.1692004425038202 
-0.09387074428268886 
0.6804974267346389 
0.4058295310946847 
0.4058295310946847 
0.9102700025212831 
0.9102700025212831 
0.4334200650020755 
0.6025519584947993 
0.8836507595445885 
0.3727399327478687 
0.1372266547804865 
1.08167202573337 
-0.1018137115783281 
0.1872618804832612 
0.5979102383563356 
1.007336935181826 
-0.1584660233508018 
0.1845737068899691 
0.4628318002385418 
-0.4400141586616108 
0.287621335710457 
0.287621335710457 
0.287621335710457 
0.287621335710457 
0.287621335710457 
0.3420156606303485 
0.287621335710457 
0.287621335710457 
0.287621335710457 
0.7239358708388591 
0.287621335710457 
0.287621335710457 
0.287621335710457 
0.287621335710457 
0.287621335710457 
0.287621335710457 
0.287621335710457 
-0.5259853092905918 
0.287621335710457 
0.287621335710457 
0.287621335710457 
-0.5239575960742018 
0.41389722474548 
0.287621335710457 
0.41389722474548 
0.287621335710457 
0.09778554998527922 
0.6470737073742184 
0.4306838762759471 
1.165058497741643 
0.2570112360447568 
0.2570112360447568 
0.2570112360447568 
0.2570112360447568 
0.3478182604070928 
-0.1422678549152134 
0.04324117257975369 
0.540924925334983 
0.4216972225708176 
0.540924925334983 
0.01456422346652003 
0.540924925334983 
0.4169144839000757 
0.4042659609620995 
0.257901819541803 
1.165058497741643 
0.257901819541803 
0.2248398142570234 
0.4776600203496376 
-0.237329153109891 
-0.237329153109891 
-0.237329153109891 
-0.5634635708554715 
-0.5634635708554715 
-0.5634635708554715 
-0.5634635708554715 
-0.5634635708554715 
-0.1126188580338991 
0.1270156366249782 
-0.224317274211831 
-0.224317274211831 
0.1009265600367029 
-0.3719757853176163 
-0.224317274211831 
0.1009265600367029 
-0.7188605610328389 
0.1009265600367029 
0.3263244232622796 
-0.005440480718165354 
0.4269523314260421 
0.06608684489237968 
0.006327683542978178 
0.1402741816194303 
0.4612413052880109 
0.1000334143155781 
0.453140773196426 
0.1000334143155781 
0.2427415872545813 
-0.2288499089052071 
0.1936079162591803 
0.0106724210783307 
-0.2737964020586226 
-0.6019482231673642 
0.006327683542978174 
0.5615145373488187 
-0.1893771842998585 
-1.087404615460532 
0.465824945995077 
-1.430666429115493 
-0.2451791553734777 
0.0495710315634923 
0.1050615758660634 
2.275125408774923 
-1.734723475976807e-018 
-0.4629565801711639 
0.1546499098570218 
0.05339534370084298 
0 
0 
-0.02504317076718808 
0.01789421507787443 
-0.2567282062994946 
0.1716825702842914 
0.2626416600941549 
0.1137310750603935 
1.462901215334959 
0.01331370695960163 
0.1208803183070006 
0.09838490993687114 
2.275125408774923 
0.1395344613005496 
0.6404456036311387 
-0.9345767261482184 
-0.3193389631079225 
-0.7819412493859705 
-0.165219623833727 
-0.3547834982751245 
-0.06632854136782657 
-0.05107071646930042 
-0.7819412493859705 
-0.09279434644404402 
-0.09279434644404402 
-0.3895353168333727 
0.1122705062499736 
-1.64400423201488 
-0.077492478194448 
-0.2786563392947059 
-0.1407231404916716 
0.4583531306810669 
-0.1081533594702824 
0.2472985917556375 
0.1484348243737484 
0.2606684753497137 
0.128691574792812 
0.6833184316950568 
0.4110449310258268 
0.2478174802430125 
0.5641796000023552 
1.492823148024308 
0.4158519613794335 
0.5382197220932821 
0.6755289461947281 
0.128691574792812 
-0.05187394210214324 
0.79233915266274 
-0.0396558452119584 
-0.3276753398087456 
-0.06959761842489505 
0.2200366068345713 
-0.3814241999367611 
-0.1406525480406719 
0.7171420389670334 
0.1961801511690184 
0.1115304044498763 
-0.1671367763209268 
0.1889583542645322 
-1.119608509293349 
0.1032883942108333 
0.572000973108743 
0.08283139573893615 
0.08283139573893615 
0.08283139573893615 
-0.2592022714752399 
0.7494266176290799 
0 
0 
-0.3706383298507802 
0 
0 
-0.5079624023080874 
0.137208213982873 
0.08283139573893615 
-0.1085531629277495 
-0.1560540079177003 
-0.2897026252443904 
0.8908127486974304 
0.1033043914179622 
-0.1901837551678478 
0.7586956731036039 
0.3134137357999821 
0.364598865456415 
0.364598865456415 
0.1355918637362037 
0.518278940866386 
0.4934243991509793 
0.5830863646686412 
0.2741308909466177 
0.4810837833355254 
-0.6209047622794705 
0.2857852852339834 
0.6247548542622756 
0.3541139127266916 
-0.04047950661756195 
0.8908127486974304 
0.3143773258095947 
0.1113254279274185 
0.0914849379503275 
0.7645245456396042 
-0.06246144906438843 
-0.8454618272069105 
0.7645245456396042 
-0.06246144906438843 
0.4634188710014969 
0.3534780719287643 
-0.7093614342313792 
0.0301641452683128 
0.1751079569440684 
0.06466732618726527 
0.004349509103798228 
0.0940528392958366 
0.34694261771097 
0.3055386903110174 
-0.9551653644945659 
-0.01881657237037211 
-0.3581856171762688 
0.633995681151507 
-0.1868725309941749 
-0.2155715337676479 
-0.005733801563386396 
-0.3033079068264683 
-0.4274884353906084 
-0.1544784852404085 
-0.1544784852404085 
-0.1544784852404085 
-0.1544784852404085 
-0.7029415784163825 
0.1247020715097872 
-0.0812184246648761 
0 
0.143122047368538 
-0.549950197829453 
0.08082613858573984 
0.7503477311372476 
0.3751043081573515 
0.3289919148637497 
0.4952099295529771 
0.4675272979812468 
-0.03177193543783301 
0.1610082592928386 
0.423509289321664 
0.423509289321664 
0.5830398525505418 
1.346868150960207 
-1.301153222585825 
-0.2367210986922247 
0.3602912793771981 
0.3602912793771981 
-0.04284864079705977 
-0.2298205188297339 
-0.07787386737738873 
-0.1742726469274916 
-0.01078188441403243 
0.956065099435147 
0.9400396532391312 
-1.234420346125317 
0.06505488624236112 
-2.073278128392985 
0.04497885363074471 
0.3289919148637497 
0.3289919148637497 
0.4570449931415614 
0.6597260018914934 
0.0604129563775751 
0.2907190625545923 
0.7271229837281462 
-0.3743788921653022 
-0.1519750684587234 
-0.3242628418055627 
0.4594822409033176 
0.4515624341768815 
0.5752554152285085 
0.4180969466969459 
-0.05392338813706536 
-0.06855432029703376 
-0.06599323342399911 
-0.4233077364224467 
-0.5696621588981858 
-0.2198591888884801 
-1.007170796785586 
-0.2054330448913216 
0.1654359839119696 
-0.0310328932905041 
-0.03103289329050409 
-0.5605413537699995 
-0.4090219622122533 
0.5847569213099132 
0.8069900705749635 
0.8584749246307584 
0.07672664025788038 
-0.1116304735392618 
0.2222902838678451 
0.7147695195746405 
0.08675532480790846 
0.7706495484505771 
-0.01315975094899559 
0.3138001134573744 
0.1127211899919732 
-0.2568971762906067 
0.08036501279042288 
1.474364641653052 
0.652206841672705 
0.652206841672705 
0.1070899082417237 
-0.01176337112381481 
-1.40966929780841 
0.06027352553283898 
0.001130299762703027 
0.005167148981742032 
0.005167148981742032 
0.4634227557666334 
0.1360302425647502 
0.005167148981742032 
0.005167148981742032 
0.2850079406085556 
0.005167148981742032 
0.005167148981742032 
-0.007618445007314546 
-0.8522974862456307 
-0.3448109297893269 
0.005167148981742032 
0.005167148981742032 
0.005167148981742032 
0.005167148981742032 
0.005167148981742032 
0.005167148981742032 
0.005167148981742032 
0.005167148981742032 
0.005167148981742032 
0.005167148981742032 
-0.08580782212557196 
0.005167148981742032 
0.005167148981742032 
-0.08580782212557196 
0.005167148981742032 
0.005167148981742032 
0.005167148981742032 
0.1694630996596467 
0.2198470330391802 
0.005167148981742032 
0.005167148981742032 
0.005167148981742025 
0.03326744202358042 
0.005167148981742025 
0.1580430686550149 
0.005167148981742032 
0.01998055414848117 
0.1189902725070961 
0.1189902725070961 
0.1189902725070961 
-0.1238425332915221 
0.1189902725070961 
0.1189902725070961 
0.1189902725070961 
0.1189902725070961 
0.1189902725070961 
0.4189503833655239 
0.3667163010614049 
0.3667163010614049 
0.3667163010614049 
0.3375895822077685 
0.3667163010614049 
0.3667163010614049 
0.3667163010614049 
0.3667163010614049 
-0.006378186600287421 
-0.006378186600287421 
0.308353528875977 
0.7008875065962916 
-0.3996838351245862 
0.7113724529375616 
0.3412356080239677 
0.06184951436661467 
-0.1287155721254865 
0.01998055414848117 
0.218315908431182 
0.5949818688803996 
1.511120565435251 
-0.0004810779837364642 
0.20729675770123 
0.5562134888477541 
-0.3398540393701078 
0.03442554442133177 
0.351864990522383 
0.1456494945781632 
0.1456494945781632 
0.1456494945781632 
0.2560386300694308 
0.1456494945781632 
0.1456494945781632 
0.09744408293689129 
0.1456494945781632 
0.1456494945781632 
0.1836332142112252 
0.1456494945781632 
0.1456494945781632 
-0.2147922022810642 
0.1456494945781632 
0.1456494945781632 
0.1456494945781632 
0.1456494945781632 
0.1456494945781632 
0.3717297298295175 
0.3699865641820598 
0.1456494945781632 
0.1456494945781632 
0.5191764886514616 
0.1456494945781632 
0.1456494945781632 
0.1456494945781632 
-0.1146551439426449 
0.1456494945781632 
0.1456494945781632 
0.1456494945781632 
0.2381564142037738 
-0.2096188318184955 
0.1456494945781632 
0.1456494945781632 
0.1456494945781632 
0.1456494945781632 
0.1456494945781632 
0.07128150032254503 
0.1456494945781632 
0.1456494945781632 
0.1456494945781632 
0.05954999527536948 
0.1456494945781632 
0.1456494945781632 
0.1456494945781632 
1.26885504046234 
0.1456494945781632 
0.1456494945781632 
0.1456494945781632 
0.3642506351849408 
0.1456494945781632 
0.1456494945781632 
0.1456494945781632 
0.1456494945781632 
0.1456494945781632 
0.1456494945781632 
0.1456494945781632 
0.1456494945781632 
0.1456494945781632 
0.1456494945781632 
0.1456494945781632 
0.115972849662194 
-0.5351921128543172 
0.1456494945781632 
0.115972849662194 
0.115972849662194 
0.115972849662194 
0.1456494945781632 
0.1456494945781632 
0.1456494945781632 
0.3928319295310525 
-0.002636760561230587 
0.2803168975749677 
-0.9396844490512292 
0.1912357293079209 
-0.1985528021920656 
0.5109739305156432 
0.4005735434928629 
0.4005735434928629 
0.5744229791830087 
0.1437770380165132 
0.4005735434928629 
0.5744229791830087 
0.5744229791830087 
0.4223537025825095 
0.2101630818887329 
0.5842811322415342 
0.4480333865859456 
0.4098026018598815 
0.4098026018598815 
-0.8591288067402222 
0.4098026018598815 
0.62458417952874 
0.5654635892462673 
0.6388424794108135 
0.1233213452379157 
0.2303049280136231 
0.2240807117548591 
0.08796939786805756 
-0.4735061271206646 
0.1274133372800798 
0.2240807117548591 
0.1045386989030673 
-0.2081526662692221 
-0.3378900772409721 
0.378798997012583 
0.07223973570288171 
-0.1853178452488544 
-0.1853178452488544 
0.0177619753174964 
0.0177619753174964 
0.4929432247707445 
-0.1106912957726712 
0.2803368697498776 
-0.1403088765362112 
-0.05637448943124251 
-0.446993696828771 
-0.7527801142566289 
0.07906621819506741 
0.2143428998097202 
-1.285197128923052 
-0.06142185446855389 
0.1911205551298527 
0.9924828550873824 
0.6261338715700251 
0.2247952821245625 
0.717499330878467 
0.02150141967325353 
-1.488315385415358 
-0.6456087885755881 
0.0600336327083505 
-0.4389029806641424 
0.3562450842146911 
-0.1346325784701687 
-0.1346325784701687 
0.2841553045440935 
0.3994439346776941 
0.4818124456826657 
-0.3081423302095553 
-0.2384213483120679 
-0.2029326811807675 
-0.6630905204761499 
-0.2322069497013911 
-0.6961780628101425 
0.2432789407141058 
0.04294287589974363 
1.157877827834411 
0.0689725981787984 
0.04776578902723045 
0.1523224679767278 
-0.7783043920791822 
0.4738782320175873 
0.2908601991624492 
1.383038496598311 
-0.07094414355915307 
0.7422160884757147 
0.7422160884757147 
-0.1249369158186701 
-1.143108116099989 
0.0363686200596078 
0.07265895568691608 
0.3838168134799102 
0.4803207293769271 
-0.3316147431304438 
0.0265679128262928 
-0.05211093151057496 
0.3039574223427201 
0.8813459894273249 
0.7479038921447443 
-0.1977344715138693 
0.2104434742584725 
0.07563003538429212 
1.053572497060561 
0.01794402706735222 
-0.2770448207484447 
0.1945881285062153 
-0.04398157495386261 
1.260110122552236 
-1.465076289057511 
-0.2483470824734606 
-0.7777065853935542 
0.2049089268607941 
-0.6438719101839145 
-0.1988162632767731 
0.3226080107389451 
-0.0133549844373726 
-0.194021829783457 
-0.273728996896757 
-1.088958645249546 
-0.3652137702410428 
0.07070539818493211 
-0.1808963150160174 
0.1915097094789791 
0.0607062653383199 
0.1321801537886958 
0.06040701453920314 
-0.07384319818224498 
-0.5473559264689367 
0.5217671944554084 
0.1018412115683033 
0.2438314084862281 
0.005677327788432015 
0.1675693477420364 
0.1675693477420364 
0.3226080107389451 
0.1675693477420364 
-0.194021829783457 
-0.194021829783457 
-0.1839250560505082 
-0.1839250560505082 
-0.1341102621267442 
-0.1839250560505082 
-0.007583449643035843 
0.2468111619775909 
-0.0421556797932305 
-0.0421556797932305 
0.2403257009794641 
-0.01327152627368016 
0.06640433475276703 
0.231353922557732 
0.170403419615853 
0.5229820317465536 
1.117853459544989 
0.565580961184996 
-0.6638314779180577 
-0.2555948636324579 
-0.6638314779180577 
0.3092224712216919 
0.4109765420660622 
-0.1052745988750753 
0.6433587846744823 
-0.1052745988750753 
-0.1052745988750753 
0.236234961246577 
-0.2603037200379537 
-0.1052745988750753 
-0.1052745988750753 
0.1537893074351623 
-0.07127967688988497 
-0.07127967688988497 
0.1187413755955349 
-0.07127967688988497 
0.1187413755955349 
0.1187413755955349 
0.1187413755955349 
0.1187413755955349 
-0.2818581958042208 
0.2435002399480689 
0.2435002399480689 
0.3890450818832068 
0.1248162120255905 
0.1600294996420451 
0.5196543491293866 
-0.7665991665957282 
-0.2555948636324579 
0 
0.8337046647408146 
0.2042247497642714 
-0.1470227710167456 
-0.036393698725668 
0.07330864744386116 
0.07330864744386116 
-0.08397124799231739 
1.026824415884921 
0.6713009120943558 
0.2315852490059379 
0.5627348827337891 
0.6767470049985676 
-0.1265669573033794 
0.4084220265097011 
0.2407377131858416 
-0.01511130780798795 
0.6767470049985676 
0.6767470049985676 
0.9340035174451236 
-0.4288383811973369 
-0.4342846318389519 
-0.1792885509840972 
-2.106010743097118 
0.2576820707676443 
-0.4288383811973369 
0.3985333749208253 
0.08328179788650059 
-1.325977209499563 
-1.461223628125524 
0.3088642485144889 
0.3088642485144889 
0.3088642485144889 
0.5473514308368618 
0.5473514308368618 
0.04646321563592588 
0.210457229377564 
-0.4342846318389521 
-0.3352471396278676 
0.07265716725410887 
0.04020408888269542 
0.1103784746874575 
-0.263949108764943 
0.1175035680614946 
-0.4216783877354505 
0.1638440652972841 
0.6624346645937635 
0.2250347985858151 
0.12048212481524 
-0.6617121390414973 
0.3833468858985737 
0.6311272900353613 
-0.09265617571747574 
-0.4009733695021741 
0.191172844157996 
0.2438858365610811 
-0.4541466808232167 
0.1828671660589494 
0.243885836561081 
-0.08408731341250533 
-0.08408731341250533 
0.2855738165898963 
-0.4541466808232167 
-0.03667159125805719 
-0.4541466808232167 
-0.03667159125805719 
0.1719775913132535 
0.1719775913132535 
0.3618959548122885 
-0.07602569117252392 
-0.6739795072362955 
0.2448104770136914 
0.06000615551705924 
0.7768207866678064 
0.5097306078129104 
0.1719775913132535 
0.3919085618831724 
0.08603038408029179 
0.08603038408029179 
0.08603038408029179 
0.765142195211053 
0.1884543780986297 
-0.06822363172975351 
0.4309452352734948 
0.3698937344732776 
-0.1373184814176426 
-0.1373184814176426 
-0.1373184814176426 
0.2180783363654119 
0.2180783363654119 
0.2180783363654119 
0.2712368149988385 
0.2180783363654119 
0.779573539351066 
-0.3808524617481373 
0.1884543780986297 
0.3070858499856817 
-0.228716490569873 
-0.3433856960514556 
0.2626698818064716 
0.6339002374704504 
-0.7443274298012705 
0.3012835751261085 
0.1169638233720395 
0.279940379577071 
0.08169167326532099 
0.08169167326532102 
0.2587410199819258 
0.6134159004200492 
0.06170157635424253 
0.08089306441373059 
0.02255985860291379 
0.2398292853554196 
0.2040575042484402 
-0.1564269076707495 
-0.3997694381590964 
0.006859872549433583 
0.3782179359479027 
0.4826711303906437 
0.8043774604503965 
0.02462432499165037 
0.7613940173501925 
-0.162702818663179 
1.417858410420005 
0.3041006912298399 
0.06107978265710654 
-1.628640949699195 
0.3619737336762827 
0.3619737336762827 
0.03720364451366282 
0.4659938463617368 
0.4448069166186875 
1.584656914914282 
-0.1043749453901952 
-0.1043749453901952 
-0.1043749453901952 
-0.3550116579835292 
-0.1043749453901952 
-0.1043749453901952 
1.071067446725329 
1.282420958188091 
0.03720364451366284 
0.2350385179433809 
0.03720364451366282 
-0.1147267625025409 
0.282946125700306 
0.1260177939737315 
0.1260177939737315 
0.1260177939737315 
1.646069390993851 
0.1260177939737315 
0.3997643747886004 
0.4573968907630149 
0.2632260079566045 
-0.1283592619196555 
0.6089292431033214 
0.1440552805438775 
-0.07782105322680571 
0.2757018307210892 
-0.7747659541531005 
-0.02878593583530629 
-0.3186293797455537 
-0.8003570404283996 
0.2729540238649243 
0.2729540238649243 
0.2729540238649243 
0.4714743409270149 
0.440040901784317 
1.204712038204931 
0.8134252107578289 
0.7151038640405134 
0.8459245025173454 
0.7045072309435309 
-2.182910219926944 
-0.1106029359809475 
-0.1576983922310973 
-0.5174752947347328 
0.176226532020496 
0.4162575272421435 
0.1246603549518629 
-0.07720723441893901 
1.832994934858853 
-0.09700950153969469 
-0.5547300168640666 
0.3389696970074003 
0.8937836154321788 
1.734723475976807e-018 
1.734723475976807e-018 
-0.2312435253574892 
-0.03809210094037658 
0.2139340715823311 
0.2139340715823311 
-0.3251704152737938 
0.2361534738878583 
-0.3861431047537059 
0.4868475591992953 
-0.1576983922310973 
-0.5174752947347328 
-0.8285220750316138 
0.4289175698605768 
-0.1149508824126994 
0.6019520914400458 
0.133590063880438 
0.8407825048436369 
0.2076575872865141 
-0.270190934491456 
0.2854121996401194 
-0.0002891387623149383 
0.3435581968685554 
-0.2703874598726403 
-0.005601091799137615 
-0.4547852526103619 
-0.05356599747704154 
1.638828896029387 
0.5780775618070807 
1.633628162609072 
-0.3781081867690879 
-0.3972830705544259 
-0.1158977421563188 
-0.1158977421563188 
-0.1158977421563188 
0.3243733273060305 
1.940089408423841 
0.1970859104511453 
-0.1556529372699433 
0.3209836631231386 
-0.0885608792766919 
0.2596993027641907 
-0.3547265311311069 
0.6260370509821958 
-0.1709061133054738 
0.6260370509821958 
0.1618271591381934 
-0.1876537250661314 
-0.1709061133054738 
-0.225142678242866 
0.4066419871308434 
-0.3324452486802444 
-0.2199043545300025 
-0.440957192126171 
0.09778579177758294 
0.4565241400472019 
0.1246587424372904 
0.60393279984941 
0.2078732424017442 
0.2851555794966558 
0.2182362974150754 
-0.04857045843450257 
0.6203908728056741 
-0.08744297492398744 
0.0976295971043273 
0.2457745705086829 
0.1057415315084479 
0.645063452157272 
-0.4639094299422585 
-0.02565175650202608 
0.2699135290699758 
-0.03066815596064643 
0.2121441443261938 
-0.2389650820844998 
0.7402438224384189 
-0.2389650820844998 
0.06640763806750753 
0.4986516744536618 
0.3613163942718867 
0.08806642379388502 
-0.2084425835982236 
0.395599410139459 
0.6524738261360851 
0.5363896843576209 
0.078602194878654 
0.078602194878654 
0.2916425299350864 
0.4571199675205112 
0.4571199675205112 
0.1734090907660272 
0.0808815683424831 
0.3872245518019078 
0.2095875247642564 
0.2095875247642564 
0.1734090907660272 
0.2165081045925607 
0.2165081045925607 
0.2165081045925607 
0.2165081045925607 
-0.3275133803355864 
0.1586560724312005 
-0.1851717559067438 
0.2323016890696757 
0.3599923101468118 
-0.5180590579732002 
0.2511289792854324 
0.630753221301566 
0.1620670420482973 
0.1620670420482973 
-0.4152851322580425 
-0.4152851322580425 
-0.1323693640689933 
-0.06051750092379233 
0.3081793806557754 
-0.0295473474633587 
-0.1193436787389398 
0.7049923827710858 
0.456154463050426 
-0.2843523304066147 
0.7181163070775317 
0.2164316581644268 
0.05027996579461021 
0.993438066068958 
0.2164316581644268 
0.05027996579461021 
-0.1499323607425409 
-0.501903232766977 
-0.1499323607425409 
-0.2368216395979648 
0.05794290015567024 
0.1332736314923104 
0.2400574117251996 
-0.2611015696981986 
0.1710344473604044 
0.02325972377179307 
0.01363556105836912 
-0.10160034168245 
-0.10160034168245 
-0.10160034168245 
-0.10160034168245 
0.215710587251345 
-0.10160034168245 
-0.6656677193589902 
-0.3202698135408881 
-0.3202698135408881 
-0.224108597410403 
-0.2544937603114856 
-0.5342176416142426 
0.456154463050426 
0.3365061312231333 
0.05203969813874529 
0.7751199140750713 
0.4869643558988109 
0.05203969813874529 
0.2667058070980943 
-4.336808689942018e-018 
0.3895616353047774 
-0.00763046096454854 
0.4273492151687207 
-0.5811083765547869 
-0.1338303452842335 
-0.1338303452842335 
0.1520696861046595 
0.4693589051181505 
0.354708471231153 
0.254545186300953 
0.254545186300953 
0.354708471231153 
0.254545186300953 
0.254545186300953 
0.254545186300953 
-0.1873273965199503 
-0.09978667403259346 
0.254545186300953 
0.254545186300953 
-0.1678639762892568 
0.254545186300953 
0.254545186300953 
-0.3345226880004246 
0.254545186300953 
0.254545186300953 
0.254545186300953 
0.254545186300953 
0.254545186300953 
-0.01420697990170139 
0.254545186300953 
0.254545186300953 
0.254545186300953 
-0.4018990380197192 
0.003942548838938027 
0.254545186300953 
0.254545186300953 
0.4927332497256038 
0.254545186300953 
0.254545186300953 
0.254545186300953 
0.254545186300953 
0.254545186300953 
0.3113504850506433 
0.254545186300953 
0.254545186300953 
0.254545186300953 
0.254545186300953 
0.254545186300953 
-0.09493022233403767 
0.254545186300953 
0.254545186300953 
-1.63128308529027 
0.254545186300953 
0.254545186300953 
0.254545186300953 
0.254545186300953 
0.254545186300953 
0.254545186300953 
0.254545186300953 
0.254545186300953 
-0.02883525413008826 
0.254545186300953 
0.1917615669823909 
0.05709058447912211 
-1.407354667955354 
-0.2689970669726948 
-0.1472417422295961 
0.05869272867601609 
0.8357087843842936 
0.2530448575744214 
-0.2689970669726948 
0.4986880696940459 
-0.7642063811059489 
0.1600281790674488 
0.2025285630511245 
0.3929915339452012 
-0.1023904619012871 
-0.52188553817228 
-1.144902286788713 
0.2473688649708783 
-0.5241995587309801 
-0.1491355194178634 
-1.029614516757942 
-0.2396321049261677 
0.02566590289836317 
-0.01001874663727215 
2.745576018134662 
0.4972772397709974 
0.4024860750736452 
-0.1472417422295961 
0.05869272867601609 
-0.1798980916531023 
-0.1798980916531023 
-0.03397346059586605 
0.2634073263565355 
-0.03755080541970287 
-0.008327297407402037 
0.1070172545982616 
0.1070172545982616 
0.1070172545982616 
0.1070172545982616 
-0.2591161980888999 
0.3224466409952277 
-0.04866622262031099 
0.588134379832836 
0.3320185937234945 
0 
-0.07125734805087344 
-1.829699205167454 
0.6917534589693025 
0.1458819111063983 
-0.1993657181489735 
-0.5919482997082665 
-4.336808689942018e-019 
0.08578840325257525 
0.2964803892160771 
-0.2645364142104772 
0.3320185937234945 
0.3066534506977419 
-0.7317296233041944 
-0.7317296233041944 
0.3024682687039577 
0.7702031246584649 
0.3989547192711563 
-0.3578309147276625 
0.08969416723646093 
0.02713904883042448 
-0.8231181680932825 
0.2150900718308658 
1.369742738842851 
-0.3483689556959725 
-0.6960824538212465 
0.2802145266130315 
-0.1943084207769112 
0.9173456222946461 
0.7079096931335175 
0.2217565577455451 
1.350140479799409 
0.2156957531484931 
0.4653938208514903 
0.3972423693249332 
0.09991603442327231 
-0.4972107067057647 
0.2507917255071867 
0.1737487603226212 
0.4080099309653273 
0.4080099309653273 
-0.144078783861104 
-0.04712742360379851 
0.3448397603196862 
-0.1094359852209409 
-0.5437485992839485 
0.1825832262738798 
0.1082900049045259 
-0.3931310103470465 
-0.3484485151895437 
-0.6528438376372545 
0.5070152650294594 
0.904463186030308 
0.04227395463991992 
0.04227395463991992 
0.1281961198973409 
0.05201282321095349 
0.2685536152919565 
0.5343717691906166 
0.1360187442276943 
0.2688621385025842 
0.02496768469707427 
0.0579976297614739 
0.02496768469707427 
-0.212918257861468 
0.05069154705795161 
0.3483996571227934 
0.814895010139566 
0.3773406907729294 
0.3773406907729294 
0.3773406907729294 
0.8130589308627876 
0.03206360577342924 
-0.5579158115408794 
0.7756519442276765 
0.6118599849843547 
0.7199903628008206 
0.7199903628008206 
0.7199903628008206 
-0.242886988867194 
0.8297398212692823 
0.8297398212692823 
0.4008918889593375 
0.8297398212692823 
1.309418244987001 
0.4551705873613804 
0.6267478635306427 
0.3773406907729294 
0.3773406907729294 
0.3773406907729294 
0.3773406907729294 
-0.7165606713245954 
0.2337046112131249 
0.6889622638383528 
0.3154858560740753 
0.2069041185538986 
0.28508086269614 
0.6310443246254938 
0.2337046112131249 
-0.7165606713245954 
-0.08053519966972095 
0.2175241940690111 
-0.5115651020227739 
0.004523693346343979 
0.7504789658885217 
0.6266330286442849 
-0.08115156153478144 
0.1663834053714303 
0.05237320658711886 
0.8594789254460212 
0.8594789254460212 
-0.3775813947132197 
0.08789077057178184 
0.08789077057178181 
0.4041265718530519 
0.3036465573812096 
0.3036465573812096 
0.2982160579619927 
2.711428795647461 
0.5643195202619404 
0.1685750885396836 
-0.8729003569980488 
0.4206441266170051 
0.06561565946637055 
-0.4077162419758946 
-0.0732143040202099 
-0.3514954542782214 
0.3251085133598994 
0.1847196649156155 
0.3257576505945462 
0.3844387726827368 
0.3844387726827368 
0.7439884058125291 
0.3791424838006154 
0.0718283466338821 
0.0718283466338821 
-0.01928293093788825 
0.0718283466338821 
-0.7795897551722927 
0.195925087620921 
-0.4814807636667415 
0.1497757178121985 
0.1277960193288921 
0.4460489487636195 
0.6711799600341627 
0.4270985502836467 
-0.7651138860914475 
0.1180261411880836 
0.09091896257964949 
0.04761108731891608 
-0.5723936170210208 
0.3609817488523393 
0.7086246001740558 
0.2850913920448869 
-0.07181888371771017 
0.06495618619910328 
0.05928216895204134 
0.3678310884882988 
-0.02461716355901661 
-0.2968694989925558 
-0.2471035904413018 
0.0757429085441544 
-0.2280103446992025 
-0.2518099177697192 
0.3680665740775642 
0.3680665740775642 
0.3680665740775642 
0.3680665740775642 
0.3680665740775642 
0.3680665740775642 
0.3680665740775642 
0.3680665740775642 
0.2770737403938736 
-0.2527126867703805 
0.1612156295527232 
-0.2500910412840711 
1.21021912989166 
0.5394703628200518 
1.320894814397982 
1.204150888010424 
-0.1509781918221139 
0.2702763068377939 
0.04542982290700064 
-0.7381095797332299 
0.4146599924987182 
-0.3877354693189057 
-0.01743895772416722 
-0.4654119903203373 
-0.02461716355901661 
0.1319862283350243 
-0.4467463045706693 
0.3702247647338002 
-0.1486698953749533 
-0.1486698953749533 
-0.1486698953749533 
0.2201881730673602 
-0.1486698953749533 
0.9475732382144307 
0.1237643022545087 
0.1370419110502218 
0.3837858751812376 
1.704237689429479 
-0.2071082501613424 
0.410690553661156 
0.4796047823614128 
0.131733200074098 
0.0869062370320622 
-0.227666664336747 
-0.1385984472129833 
-0.1668703924295797 
0.4991797936209282 
0.09203959282224732 
0.4352906720310468 
0.1840277696971225 
0.4075576221905776 
0.07683837077490058 
0.4075576221905776 
0.07683837077490058 
0.2668022611891291 
0.209647084840237 
0.04490969140160159 
0.7206770815825908 
0.1431306429618357 
0.2832852807497289 
-0.08387511849014219 
-0.227325178470494 
-0.1466689937494997 
0.4226148419762453 
0.308032808159354 
-0.5508759517305307 
-0.232307723922066 
-0.1203482904206492 
-0.232307723922066 
-0.1203482904206492 
-0.2805369732814557 
0.1998435056790432 
-0.639051130763884 
-0.1576650543241337 
-0.1576650543241337 
1.209930856306824 
0.106168592766551 
0.106168592766551 
0.106168592766551 
0.3847524633182143 
0.5410117978275519 
-0.226444797784934 
-0.1403672002376027 
0.3618702271464157 
0.4295584057751136 
-0.2130230395619156 
-0.02458506478812594 
-0.038321020723688 
0.01468801448090495 
-0.04703353309866781 
-0.03585735964721724 
0.03204790916319283 
-1.506812624005723 
0.6175296284191375 
-0.2759143945118459 
-0.275916600898047 
-0.2759143945118459 
-0.1111060497035768 
0.2006538772948893 
0.1181553029840703 
-0.8694190512005903 
-0.472314496605359 
0.01264596407965993 
-0.5891681086804199 
0.8529515870070895 
-0.3300262886912543 
-0.322593216755764 
0.323576859484907 
-0.2365204628269843 
-0.2365204628269843 
0.424471801631054 
0.1033417143517057 
0.07495417952097977 
0.1113204693133951 
0.1113204693133951 
0.8244364076750934 
-0.4968785464322832 
-0.2795532331836948 
-0.2936014992229898 
0.2982510557511432 
0.3181829350459081 
1.689627604727595 
0.05593232993911401 
0.432357175139075 
0.3429625416468606 
0.2974006615464525 
0.2041434424384974 
0.2090209052045373 
-0.5049707650025006 
-0.5741247718343256 
-0.01127353365383965 
-0.01127353365383965 
-0.1028281450940921 
0.3622848010374715 
-0.3273549031328334 
0.313479337714739 
-0.1623265131056204 
0.07922358269719378 
0.005723830063626644 
0.005723830063626644 
-0.3529481740175405 
0.544167164790522 
0.2356547360466523 
-0.1423758895428205 
0.368775408148664 
0.368775408148664 
0.6664336139709638 
0.0810739847457793 
0.04103906156267806 
0.9802480932944304 
0.3196578543660549 
-0.2260500406332482 
-0.2093770203195662 
0 
-0.2093770203195662 
0.1138117482149909 
-0.1178739578249616 
-0.02787495450194351 
0.3129558851172173 
0.3129558851172173 
0.1727573497093397 
0 
0.5746169627318781 
-0.1344036286174847 
-1.241860507922616 
-0.3002690822987674 
-0.3002690822987674 
-0.4949950739722246 
-0.4949950739722246 
0.3547826068202829 
-0.1363751931020445 
0.01118606930902595 
0.06363055050933232 
-0.3632436075205971 
-0.945837613742074 
0.1370551017761945 
-0.2331023594790705 
-0.7780019009219735 
4.336808689942018e-019 
-0.0905201169806947 
0.1791122678162953 
0.1982387000287683 
0.03339054391876521 
0.1577105981818666 
0.1577105981818666 
0.6879581164971326 
0.1687603507925734 
0.1331577298326995 
-0.2684273793429615 
1.752941973536626 
0.1709610338028655 
0.3493655906663021 
-0.3251289368445106 
1.025384058356763 
0.02316137887824189 
-0.9870652098471262 
0.3402752024414053 
0.4103126876536901 
-0.0753509535957332 
0.8204716122643683 
0.4579688450341372 
-0.2371916111144823 
0.2518365896915891 
0.9064607965231003 
-0.2642333345175395 
-0.1240492098741849 
-0.0182325310214706 
0.2910758558170675 
0.2062895191341508 
0.9064607965231003 
0.4102258011886202 
0.4102258011886202 
0.07678842183895072 
-0.09150549644693179 
0.07661848932386922 
0.07661848932386922 
-0.4806636347178077 
-0.1459564664989745 
1.814875911371543 
0.129559903814191 
0.1651213557952739 
0.05154953958947713 
-0.2611485190006241 
0.3823131031840267 
0.3823131031840267 
-0.6203007591896951 
1.233111355127923 
0.04353514802549078 
0.04337753361934114 
-0.3007471964496753 
0.02048186911178525 
-0.3007471964496753 
0.02048186911178525 
0.2967756156385213 
0.1381474176393341 
0.1344461490886858 
0.3482007622983712 
-0.1971459740903115 
0.6940148480224265 
0.3482007622983712 
0.264302923600298 
0.05871659109611881 
0.2117009024142177 
0.7034872192811277 
0.09878765760690711 
0.3525241859114539 
0.3377484715116212 
0.157396446759185 
0.157396446759185 
0.157396446759185 
0.2852048142583675 
0.3679771652233705 
1.0746768833852 
0.3700890118810145 
0.03163321799100933 
0.08474953955819507 
0.07127276827051589 
-0.1651163520859763 
-0.09914044758823741 
-0.4232934927658286 
0.1685515879900555 
0.6940003244390344 
0.4050620284450232 
-0.5181297462566616 
0.2434703238677305 
0.3446916384402259 
0.3446916384402259 
0.4076641558671271 
0.4199670235518365 
0.9202754042723786 
0.4975885838335686 
-0.1665920804836409 
0.02721224151456689 
0.3538064968010324 
0.4723839218299658 
-1.177145465717191 
0.1037592640492916 
0.4600257897606778 
0.4930634089399859 
0.4930634089399859 
-0.04579671430461402 
-0.04579671430461402 
0.1493285196232586 
-0.2630872327397738 
0.7929066122213538 
0.4218710765232787 
0.7996807424785952 
-0.2907662787356537 
-0.802185140352163 
0.1695223224039276 
0.1555057406935597 
0.2582255182380847 
0.6277640647624225 
0.5432083711491835 
-0.2907662787356537 
-0.5080620337704278 
0.4268136567756687 
0 
0 
-0.3576733802937631 
0.02973559172240115 
0.1363395233023107 
0.9827786047538933 
1.734723475976807e-018 
0.1392289373110915 
-0.2257087793403302 
0.1722589738581407 
-0.04542334314521828 
0 
0 
0 
0 
0 
0 
-0.1636585075545443 
-0.2227101064813277 
-0.2227101064813277 
0 
-0.04105658000990749 
-0.2227101064813277 
0 
-0.2227101064813277 
0 
-0.5123715811965319 
0.2933352987483732 
0.03621907482578513 
0.1363395233023107 
0.7164300205982817 
0 
0 
0.04140392739995249 
0 
0.7756655674659559 
0.1406869034695857 
-0.7013386766015932 
-0.5859929765156865 
0.05444506540602547 
0.08324996432478569 
0.07761139799815822 
0.07761139799815822 
-0.161984656756406 
0.6808057327282211 
-0.07847444343496923 
0.1872513707149199 
-0.2381513747214312 
-0.2584824475629327 
0.01561839408541551 
-0.2528571373241334 
-0.6869860381690033 
-0.5349893257403098 
0.01341787556263241 
0.1404805063202202 
0.01341787556263241 
0.4457062036487154 
-0.06576580487553306 
0.1699317024408674 
-1.602867908764441 
0.5907509400463087 
0.1180357892937274 
0.02995347292037411 
0.5536510537658005 
-0.03714334388148958 
-0.06576580487553306 
0.1120538484758154 
-0.1558515914665347 
-0.3707433704808716 
-0.2321635128685936 
0.2002033240670185 
-0.02806475642936959 
-0.3064725160330789 
0.02995347292037411 
0.02995347292037411 
0.8476987623737392 
0.3039201768002344 
0.5289911872433266 
-0.2719431976220282 
-0.2719431976220282 
-0.2719431976220282 
-1.008259049905843 
-0.1409120591633953 
-0.9556825190918755 
0.2491227765179314 
0.1363479272986098 
0.1671497529523373 
-0.2679575657000106 
0.00549209719473698 
0.2538441728283881 
0.4308919180973693 
0.2484734025475437 
0.2484734025475437 
0.4169259645507889 
0.2484734025475437 
0.01268708260809422 
0.00892194247468262 
-0.04768346601466306 
0.2953885876111323 
0.2590257324620507 
0.2590257324620507 
0.2641913513679792 
-0.3516187989329253 
1.019505673288537 
0.4755282058190631 
-0.9309831272592227 
0.8330628570109017 
0.8330628570109013 
1.246485577739963 
1.047784737420973 
-0.227076940352692 
1.228981668259603 
0.3110206561875994 
0.3110206561875994 
0.2053554080896987 
-0.2585446620920457 
0.09143341667902312 
-0.9409004503034327 
0.04480860194036491 
-0.6434301166254871 
0.04480860194036491 
0.3904720197044367 
0 
0 
0.1114420225289218 
-2.38524477946811e-018 
0 
-0.2511171479302853 
-0.3308610455237959 
0 
0.0004579902015974785 
-0.3791121353167133 
-0.3791121353167133 
-4.336808689942018e-019 
0.04760557640614836 
-0.5197608237632948 
-0.2206943878453168 
-0.7547381198638004 
-0.7432145271613502 
0 
0.6017504824023215 
-0.3594187162443603 
0.05120854833320564 
0.1235923946974551 
0.1512851089410169 
0.4908707000502176 
0.635363184985502 
-0.4143454050765835 
-0.1125912589747701 
-0.3451852885859976 
-0.04343114248418437 
-0.3594187162443603 
-0.3594187162443603 
-0.4952730332910142 
-0.6489687184984485 
0.846854116431033 
0.1908178843451653 
0.3414902955775441 
0.2622504293827301 
0.3562583877277355 
-0.3819948988598539 
-0.0971183453219239 
0.5055359109072526 
0.5629264927517205 
0.07287281612707942 
0.2903438506214338 
0.4831483048956445 
0.3293024487471923 
0.6844548721471303 
0.2195564829312866 
-0.3345271809616561 
0.4759037877638795 
-0.6500345100070931 
0.1138041843637503 
-0.03483764921477866 
-0.3884886582420329 
0.2622504293827301 
-0.4938005524606735 
0.3320884985651598 
0.08235605798407822 
0.325418607089303 
-1.380464148407445 
0.08302397934173166 
0.2178225474133176 
-0.3108202010239241 
0.7492279884242939 
0.6096578111329506 
0.2774128852891374 
0.5110224880637833 
0.03282209211399214 
0.3605983220717457 
0.1066508737239754 
-0.04693037247991174 
-0.5274186113822279 
-0.07655505361094861 
0.2700279454761549 
-0.5536177444765104 
0.3361935401917063 
0.2700279454761549 
0.773009694739849 
0.773009694739849 
0.1547144832601815 
0.1547144832601815 
-0.558603281952493 
0.01829441807570321 
1.143397872791681 
0.03704893473263254 
0.895840271713484 
0.1545822588992762 
-0.1021592477367962 
0.07122380235134004 
0.1338485842665932 
0.05390088724978904 
-0.06344958115355649 
-0.2868042500611599 
-0.406615710244987 
0.1338485842665932 
-0.158604534597434 
0.1395557186546717 
-0.9706776780723435 
0.1395557186546717 
0.05390088724978904 
0.3263511471459956 
0.3598337669995075 
0.9040143163383121 
0.07307486696135593 
-0.004980952370029666 
0.3263511471459956 
0.2263566439091186 
0.4610241598613197 
0.4094063947389314 
-0.002166786507576574 
0.4473618667044229 
-0.3473205708751788 
-0.279211794068141 
0.45166112339675 
0.174792693738567 
1.249927526273481 
0.08663786219368737 
0.1585635118148548 
0.3385187029089595 
0.08036013925870686 
-0.4397025589846644 
-0.0814422327268985 
-0.3592259493025713 
0.6081025137936001 
0.3671637627298878 
0.6599429994725623 
0.3810816507895823 
0.474211001931089 
-0.1583626805521166 
-0.6229397548129951 
0.5205310531190994 
0.08036013925870686 
-0.1320079506876621 
0.05728106846382026 
0.05728106846382026 
0.4988072420419555 
0.3514985658531439 
0.009671614726588378 
-0.5744084452578326 
0.08715730309341684 
0.08715730309341684 
0.08715730309341684 
0.08715730309341684 
0.4562272522244352 
-0.2554884986798408 
0.1154033265344968 
0.1715625900322473 
0.1715625900322472 
0.05536755685834931 
0.1715625900322472 
0.346863933471505 
0.3007215115308755 
0.05728106846382026 
-0.1190034511066581 
-0.02488941389600942 
-0.5545373770893061 
-0.5069286624758778 
0.2520227533970155 
-0.8560200683187583 
-0.1737243587383715 
1.1697829465835 
0.05609594822718784 
0.2582882276608694 
0.6765828469982183 
-1.29416679636594 
0.03040419625523204 
0.2297710875469202 
0.6147858107475512 
-0.6187491485252888 
0.6147858107475512 
0.1109653872884266 
0.3718232143307341 
0.7361195086216673 
0.6060359311806629 
0.2116169833888138 
0.6419578104258477 
0.3969648852155993 
0.4422931252625389 
0.7361195086216673 
0.2103575560095548 
0.9788114690237912 
0.4021018852490036 
0.4021018852490036 
0.4021018852490036 
-0.949727633185834 
0.1692753545734863 
0.1744956288224773 
0.1744956288224773 
0.4169600116971171 
0.2993666936781584 
0.05129396278369183 
0.05129396278369183 
0.1744956288224773 
0.1744956288224773 
-0.05185707804260643 
0.02356943405929732 
0.02356943405929732 
0.4021018852490036 
-1.170207194542457 
-0.2254178799767508 
0 
0 
-0.4497663440504814 
-0.04001406462266737 
0.06158296349257105 
-0.4446451960184664 
0 
0.02065168864268378 
0.1897133081513294 
0.6861194391513216 
-0.1138272190381363 
-0.1188679964155611 
2.818925648462312e-018 
-0.240265389322443 
-1.170207194542457 
0.03875814388236112 
0 
-1.529741175567896 
-0.2684905058527791 
-0.1400778940725355 
0.5073969029868016 
-0.02474639873936329 
0.6561362942703347 
0.2681470068500461 
0.04417025007062511 
0.04417025007062511 
0.04417025007062511 
-0.03879484225986716 
0.2542187716462459 
-0.1032141366831405 
0.2901706134557918 
0.4403116579242002 
0.1717092254718642 
0.1159985457419258 
0.445297695166998 
0.1605150595591625 
0.1247647918270227 
0.1247647918270227 
-0.4222270205545042 
0.07414396897292083 
-0.5477456405106167 
0.3223888824321276 
0.07965599629074525 
0.1774606596030272 
-0.04414134962519483 
-0.2335037206552378 
-1.352569170777439 
0.1886116229541723 
-0.1735126484438529 
0.3442076756203984 
-1.200199489430624 
0.6850918973080509 
0.09515232053170793 
1.52334316048953 
-0.480196562703239 
0.3306307976853226 
0.3306307976853225 
-0.5959368342274736 
0.03124798701295914 
0.05425363020957129 
0.2531762007652891 
-0.2639143905247801 
0.5408243064430499 
0.1988173347549955 
0.4449747774483967 
0.5510969304915988 
0.03124798701295914 
0.2685189158365344 
1.566377354196075 
-0.01859691565309416 
-0.2657780524294698 
-0.492704244855237 
0.04925243294182692 
0.2807306236788703 
0.6330300181303764 
0.3415739170830804 
0.05955873231822224 
-0.1293811972877044 
0.485590089072955 
0.2356711120067792 
0.2356711120067792 
0.2662306163790517 
0.2602603258924262 
0.7479933041302804 
-0.1193881812040482 
0.3153476231020064 
0.04031042981416241 
0.3398352749596592 
0 
0.1044747170384104 
0.06916011649058582 
0.09371986944605648 
-0.2596226469478471 
0.208307183795543 
0.4804665497490349 
0.4804665497490349 
0.3980295940988002 
-0.01267911995080732 
0.1055657886762218 
0.781901161309287 
0.06641313401548782 
-0.5281618142751429 
-0.05618286825588797 
-0.3848428254435646 
0.1161034311866271 
0.2058170250592492 
-0.3545793632354085 
0.5923940546999031 
0.2866594468686106 
0.2058170250592492 
0.08032627977935544 
0.3147534227812681 
0.1537226545320647 
0.05060817763871633 
0.1399782295204934 
0.2764195825060518 
-0.2868157746241381 
-0.5631988101403248 
-0.5212911149362219 
0.5921917360884178 
0.1399782295204934 
-0.1343430143063949 
-0.1690056064244692 
-0.2687788407523372 
-0.2971205141215572 
0.2726228241031077 
0.3122065226767853 
1.239419762367813 
0.700191908863797 
-1.1792062562585 
-0.5871009232208685 
0.700191908863797 
0.5002661193210227 
1.420068483599169 
-0.9104652945494279 
-0.1469054870400424 
-0.5506305088538681 
-0.04379656100062236 
-1.1792062562585 
-0.04379656100062236 
0.2345494269353201 
0.2345494269353201 
-0.5927679337360807 
-0.7189613131322112 
0.1117611695048416 
-0.7189613131322112 
0.1117611695048416 
-0.4339319771825881 
-0.3755407487096543 
-0.129177210246568 
0.07712297946038857 
-0.3129968276757139 
0.341343765566846 
-0.7210128521733917 
0.01804490070012944 
0.2893437769522711 
-0.1691035865065495 
0.1471872808309013 
0.03341876831787693 
-0.129177210246568 
0.1972631643673803 
0.1312155603105573 
0.03341876831787693 
0.4903849106953263 
0.1272701513002357 
0.1489444738979295 
-0.06996432739428493 
0.7166718167420619 
0.3319294319456526 
0.1643613057874336 
-0.1212509979718691 
0.1694875128765161 
0.1107123772421491 
0.08972630220908337 
0.1201362211456516 
0.7238143834287416 
0.3037369813908224 
0.2914062793065168 
-0.0539615491093637 
-0.2827624770237536 
0.8372503473050398 
-0.4493971090459992 
-0.5388372968495224 
0.6527416106694386 
-0.1876266563447501 
0.04609381071887476 
0.5289840095275836 
0.3297894811956798 
0.3297894811956798 
-0.1094342784816186 
0.2805770627544201 
0.0365977006109509 
-0.09613122539375027 
-0.7191461211148464 
0.4706006665304259 
0.7238143834287416 
0.275746141937803 
0.06617770633118381 
0.6833843674702017 
0.088730580077618 
-0.2197226863226679 
-0.06279262273453735 
-0.02020227788923405 
-0.101114069604832 
0.1570672820789134 
0.310995275191838 
1.086127571242794 
0.56266046788594 
-0.1378574167992987 
0.56266046788594 
-0.5829665682172346 
-0.8171094777853835 
0.6696434162677967 
0.5311355051223045 
0.2086215727548118 
0.3785267717535908 
-0.6884042785242578 
0.286459985555056 
0.286459985555056 
-0.01691328972433533 
0.3217745861028805 
0.3217745861028805 
0.2057772057178023 
1.026231807484561 
0.2057772057178022 
0.4063516920609023 
0.587861699339104 
0.1322893636643798 
0.1050713986034037 
0.5311355051223045 
0.1649157292682119 
0.04397483373219701 
0.1395299402321205 
0.6848874527288655 
-0.1188335956158331 
-0.2437087632044802 
-0.2437087632044802 
0.4240337226933665 
-0.01014233430149135 
-0.6238022465822734 
0.02942327182374649 
0.8169053231014862 
0.3890808871131414 
0.2547847289027122 
0.2830324165204725 
-0.3673447881740096 
0.2332917830237692 
1.009152434483037 
0.08371264691782016 
0.2857180423420904 
0.6689221280514983 
0.7336223598441601 
0.7336223598441601 
0.4240337226933665 
0.08355377070918738 
0.5716811202768815 
0.1963553249978891 
0.1442727692637581 
0.05631994420860267 
0.3778661102229363 
0.2090421894872493 
-0.3787548653845815 
0.1270596027110731 
-0.874364886090633 
1.152264746676763 
0.4470390399462175 
-0.4163077874734069 
-0.3132647838730365 
-0.19222391069279 
-0.1571181602569332 
0.1787094424318599 
0.1690705747360614 
0.3556409796284558 
0.7133961955616804 
0.3259123068489214 
0.2764406009549341 
1.021275663438334 
0.6164171465035601 
0.6164171465035601 
1.076187458428929 
0.8235346191122659 
0.3556409796284559 
0.3556409796284559 
0.2197993456334781 
0.4694034574269054 
-0.3481728607840141 
0.07186180021285268 
0.07186180021285268 
0.07186180021285268 
0.2069924336717149 
0.07186180021285268 
0.07186180021285268 
0.1980692706444434 
0.3233306450044618 
0.07186180021285268 
0.07186180021285268 
0.3233306450044618 
0.07186180021285268 
0.07186180021285268 
0.07186180021285268 
-0.06657081495571182 
0.07186180021285268 
0.07186180021285268 
0.07186180021285268 
0.07186180021285268 
-0.1668567099274219 
-0.1668567099274219 
0.07186180021285268 
0.07186180021285268 
0.07186180021285268 
0.07186180021285268 
0.07186180021285268 
0.7971051744141481 
0.07186180021285268 
0.07186180021285268 
0.07186180021285268 
0.07186180021285268 
0.07186180021285268 
0.2232742215129948 
0.07186180021285268 
0.07186180021285268 
0.07186180021285268 
0.07186180021285271 
0.07186180021285268 
0.07186180021285268 
0.07186180021285268 
-1.150719701020402 
0.07186180021285268 
0.07186180021285268 
0.07186180021285268 
-0.60466213566677 
-0.2091593384802404 
0.03873485206936311 
-0.9575354570871333 
-0.08279953509929429 
0.03873485206936311 
-0.2709750522975626 
0.7703884051919195 
0.07186180021285268 
0.07186180021285268 
0.07186180021285268 
0.07186180021285268 
0.07186180021285268 
0.07186180021285268 
0.07186180021285268 
0.07186180021285268 
0.07186180021285268 
0.07186180021285268 
0.07186180021285268 
0.3495351044352281 
0.07186180021285268 
0.07186180021285268 
0.07186180021285268 
0.07186180021285268 
0.07186180021285268 
0.1713291001868598 
0.07186180021285268 
0.07186180021285268 
0.1298034847271917 
0.07186180021285268 
0.07186180021285268 
0.2244552383660407 
0.07186180021285268 
0.07186180021285268 
0.07186180021285268 
0.07186180021285268 
-0.304915408086231 
0.07186180021285268 
0.07186180021285268 
0.1525346215586122 
0.07186180021285268 
0.07186180021285268 
0.07186180021285268 
0.2813741655513133 
0.07186180021285268 
0.07186180021285268 
0.07186180021285268 
0.07186180021285268 
-0.2385374207097764 
-0.8093373536144705 
0.1225256609258449 
-1.352486809381883 
0.6146532456529891 
0.08724484374714199 
0.7754394030769344 
0.3555564772383129 
0.0282349439406575 
0.03739009824332651 
0.2460797804857748 
0.3500595108126815 
-0.02880181134680542 
0.4783036662715601 
0.2226967636001233 
-0.6672165467120121 
0.4483076633893497 
0.2598103339037219 
0.3328283257135586 
0.8276233821122094 
0.2350858884654982 
-0.3555501834834146 
0.5458243142068994 
0.3534582064143972 
0.164770743567578 
0.1939880515632661 
-0.1229447062187123 
-0.3070271420988753 
0.3311727152306122 
-0.8763656682386602 
0.2695276680453781 
1.003987110826805 
0.132025771573944 
-0.5593298302667429 
-0.2497627947833067 
0.9996804255190097 
0.4015622621753286 
-1.484880712464619 
0.3637019840844224 
0.8464792914760425 
-0.1720115029893198 
0.01601651478960427 
0.06794302045342258 
0.1135501846431384 
0.1135501846431384 
-0.0406544790664848 
0.3298568028837192 
0.1756521391740962 
0.04924207991107659 
0.1674241966994924 
0.1674241966994924 
0 
0 
0 
0 
0.1767224470490217 
0.6382963092536551 
0.4873328133492015 
0.4873328133492015 
0.4081337985922335 
0.4873328133492015 
0.4081337985922335 
0.4873328133492015 
0.4081337985922335 
0 
0 
0 
0 
0 
0 
0 
-0.2448404878850471 
0.03110349727177833 
0.0650837982537034 
0.2327882705271097 
0.2327882705271097 
0.2626659105078261 
0.2327882705271097 
0.2626659105078261 
0.4173798922238259 
0.150138389952795 
-0.4772036622114663 
-0.6644555218995365 
0.1445724438844092 
0.1445724438844092 
-0.4149408178986367 
-0.1562137414570547 
-0.09758877206943645 
0.03363229049455257 
-0.1651359341824739 
-0.5519139459875475 
0.03110349727177833 
0.03110349727177833 
-1.547052380823298 
-0.07714332123987054 
1.162756879522152 
0.8863553583372735 
0.05694359848462302 
0.2672506273593037 
-0.6031452132928362 
0.4911007892351501 
0.3341071072109287 
0.5446013465589092 
0.3341071072109287 
0.01328414538418549 
0.5195537200640662 
-1.856003284555962 
-0.7507362446662134 
0.5710760515164431 
-0.2322710747949028 
0.1149587561451094 
0.2684649086209449 
0.3626002193190963 
-0.6031452132928362 
0.4837244201374042 
0.4837244201374041 
-0.3689470681724022 
0.1921534567674756 
1.050663755172368 
0.03312413531665565 
-0.08661711187015789 
0.07241220958066209 
0.1208514604200389 
-0.08038054007148657 
-1.041486623944291 
0.2748786107402694 
0.1141539378751147 
1.048164595351194 
0.6996430383197634 
-3.469446951953614e-018 
-3.469446951953614e-018 
0.05992874927194308 
0.05992874927194308 
0.05992874927194308 
0.02252960127096432 
0.1316779686727677 
0.4428533716742116 
0.4604551898923941 
-0.06062542495532944 
-0.2398156901605776 
0.269766863021997 
0.00604712103177671 
0.1747395821631847 
-0.1434764155156209 
0.1091303116388543 
0.2514666996217447 
-0.2101874414405624 
-0.2354894895806884 
-1.734723475976807e-018 
1.048164595351194 
-0.4191516787565272 
0.4179986506914972 
-0.09254878811815243 
-0.4661432589461755 
-0.07362506045223706 
-0.5435728475187612 
0.2263246919629177 
-0.1013368134170445 
0.3136960747078277 
-1.357677634687259 
0.5566233266583899 
0.6084179147360138 
0.4999139830262656 
0.2060443092484727 
-0.705019818246802 
-0.09254878811815244 
-0.09254878811815244 
0.5243007113040409 
0.1187066324745776 
-9.540979117872439e-018 
0.00127854100149964 
-0.1510516386828887 
-0.1510516386828887 
4.336808689942018e-018 
-0.6471158502537456 
0.3782416320517188 
0.09252572341399587 
0.2059802885972468 
-0.06709617790567012 
-0.06709617790567012 
0.2232230717276081 
0.2232230717276081 
0.2232230717276081 
-0.04123162432350085 
0.002564984490604539 
0.002564984490604539 
0.002564984490604539 
0.002564984490604539 
0.002564984490604539 
0.03912779093477465 
0.002564984490604539 
0.002564984490604539 
-0.3752396959583054 
0.002564984490604539 
0.002564984490604539 
0.002564984490604539 
0.002564984490604539 
0.3828449730472739 
0.002564984490604539 
0.3828449730472739 
0.002564984490604539 
0.3828449730472739 
-0.5305025480816121 
-0.2723788985575369 
-0.04192244110206546 
-1.042440037311771 
-0.02891657356678672 
-0.2890761867583477 
-0.2890761867583477 
0.6034414037381086 
-0.03435309715223584 
-0.369344347795167 
-0.07393039711340295 
0.3129733000384158 
0.1773277667137433 
-1.086210785936063 
0.4005722327868679 
0.2054947467857434 
-0.1809402344123636 
-0.1468751824608694 
0.06575745132310808 
0.004671333846777631 
0.04215511631008966 
0.3375275614779792 
0.1514870662193039 
-0.05534206897738798 
0.2385948903894335 
0.2105436782361078 
-0.1384695344412071 
1.855149879955947 
0.2727613321789421 
-0.009618661872194883 
0.2919264339654608 
0.02408348588476615 
0.1032914793029454 
-0.6587364375251907 
0.07271770960205987 
0.07271770960205987 
-0.1807935258740552 
0.2724177737055303 
0.3048361008029927 
0.07595896748655068 
0.2512583371434741 
0.8694368237161453 
0.5598425618542092 
0.7662342317209631 
0.1239957299821852 
-0.2227455745359966 
-1.121009161520188 
-0.110161347825919 
-1.51512942579278 
0.2085382084499619 
-0.1754942245371394 
-0.5169769992675447 
-0.2352029070142485 
-0.5169769992675447 
-0.7612920970499661 
-0.4584272928834505 
-0.4584272928834505 
-0.01667598695150252 
-0.3444057392977295 
0.2037079038878509 
-0.2352029070142485 
-0.05445837050684402 
-0.2632781858550713 
0.2845333745058977 
0.2283202484284916 
-0.4432376162468847 
-0.17343639986147 
0.4680757238507499 
0.3602696049202109 
0.3602696049202109 
-0.07524361543251104 
0.1915766722929849 
-0.2512430297233811 
0.1849514216037914 
0.1849514216037914 
0.3137949619241666 
0.1849514216037914 
-0.097277076817613 
0.01127765231131468 
1.196554257931332 
0.8926949553639157 
-0.2334736845098991 
-0.8452106648481639 
0.2562898452220171 
0.5704098075629602 
0.1476234295533577 
-0.9721585573370538 
-0.2002870725683253 
-0.91894951434821 
-0.1476768203296468 
0.2586444308526709 
-1.241583146022503 
0.06969413864425746 
0.06969413864425746 
0.06969413864425746 
-1.415313051390857 
0.06969413864425746 
0.06969413864425746 
0.06969413864425746 
0.02897160418518782 
0.06969413864425746 
0.06969413864425746 
-1.149822905394094 
0.06969413864425746 
0.06969413864425746 
0.06969413864425746 
0.4697357747020642 
0.06969413864425746 
0.3195509065381764 
0.06969413864425746 
0.06969413864425746 
0.06969413864425746 
0.7003522596528773 
0.002834801656598952 
0.06969413864425746 
0.06969413864425746 
-0.007535182530933443 
-0.3928301324493595 
0.1616154246030616 
0.06969413864425746 
0.1616154246030616 
0.06969413864425746 
0.06969413864425746 
0.06969413864425746 
0.06969413864425746 
0.06969413864425746 
-0.2806202230635654 
0.06969413864425746 
0.06969413864425746 
0.06969413864425746 
0.03404037106200539 
0.06969413864425746 
0.06969413864425746 
0.06969413864425746 
-1.241583146022503 
0.06969413864425746 
0.06969413864425746 
0.4807823281874437 
0.06969413864425746 
0.06969413864425746 
0.114772714059624 
0.3022616706530296 
0.3022616706530296 
0.01356609678630255 
0.5696438038844403 
0.06969413864425746 
0.06969413864425746 
0.06969413864425746 
0.03798142353151448 
-0.08356110389072292 
0.3051109549183777 
-0.8358983307382245 
0.01475657988133759 
0.08881113468157696 
0.08881113468157696 
0.04549750817078761 
0.08881113468157696 
0.03798142353151448 
-0.08356110389072292 
0.3808015905489168 
-0.03311941382798225 
0.1188011655441272 
-0.01136225580216219 
0.3766089011700689 
0.3037177629211896 
0.0203805172163112 
-0.1647854353313363 
0.4962239085763042 
0.03965231023743781 
-0.1001481045364751 
0.221578929246601 
0.3038576817804843 
0.04728862348938356 
0.008420513177990731 
0.2845034703754196 
1.19466539423347 
0.07815607436861297 
-0.2805371144051229 
0.1188011655441272 
0.4623760750506067 
0.2740435353385909 
-0.01525049510280787 
0.3038650645686905 
0.3186204524800935 
0.03727616631464463 
-0.5509886482896983 
-1.109556734246908 
0.1553475021722138 
0.2667043182562568 
0.2667043182562568 
0.959483244981367 
0 
-0.3346878174224156 
-0.3346878174224156 
-2.899314585210027 
-0.7423972850550835 
0.6886994524109966 
0.01357280608894959 
0.07517147753099211 
0.5178110605049192 
-0.3447583742737099 
-0.0401664620308881 
-0.2706879252516797 
-0.488722412119566 
0.3233365244835966 
0.959483244981367 
5.204170427930421e-018 
0.830944949831407 
1.16272297657328 
0.2887005162420016 
0.2887005162420016 
1.016103429726531 
0.9848966235646015 
0.3574202040979718 
0.08255085791976664 
-0.1753157998304638 
0.5379613195560543 
0.387102761417873 
0.0355598954983176 
0.02464495698062477 
0.02464495698062477 
0.2887005162420016 
0.2135699889258316 
0.236513603846508 
0.2887005162420016 
0.2602070905156872 
0.2851094286234065 
0.6527887382889158 
0.2220736602968733 
0.1465314522743122 
-0.5165579237770528 
-0.1249437213342642 
-0.4821529418396359 
0.2095297830585957 
-0.1928013147054299 
-0.07978727594161136 
0.4597744886293169 
-0.4821529418396359 
0.3021471976588011 
1.06328810491194 
1.193904595695884 
0.1366577267007125 
0.459640900433216 
0.5035658769590511 
-0.3148331398971455 
0.3517947344362789 
0.8265698943210439 
0.4963371841675791 
0.3421080180637197 
0.5569383637685442 
0.5519263054779171 
0.04982462307045122 
-0.3190685476523532 
0.3778516152257899 
-0.8224515939755479 
-0.1787308709424538 
0.1315077793133604 
0.3296789394969319 
0 
0.08286121456018365 
0.190738123191504 
0.008846115940799086 
-0.8773135751405511 
0.7917726787194259 
4.336808689942018e-019 
4.336808689942018e-019 
0.1496336535582831 
0.1416966407320389 
0.04596168502438913 
0.1005866311992542 
-0.3879676887882474 
-0.6286771500845646 
-0.2438575847329398 
0.3961430718429193 
-0.1204177658268057 
-0.1122144508125336 
-0.1498391745524878 
-1.161107539990323 
-2.236877556850249 
0.1137388178242166 
0.708852598561957 
-0.3806789354587391 
-1.10144212417767 
0.1157878532466009 
0.03411466967918134 
-0.07055516530199898 
-0.1085815951308943 
0.3567076481422873 
0.5666525030421715 
0.3748056166853858 
-0.3809051063109107 
0.01414041888978938 
0.003341145496631508 
0.2574841641689923 
0.2574841641689923 
0.2574841641689923 
-0.04899311554277493 
-0.1447798288175073 
0.4560802617242523 
0.04063950787499165 
0.3658680905174286 
0.3658680905174286 
-0.7594373868613749 
-0.7594373868613749 
0.1001696580397356 
-0.2805812850236892 
-0.1044554311594682 
0.2111819163029217 
-0.2998089885790204 
0.2111819163029217 
-0.108525657602346 
-0.1836004382015221 
0.8608209724130668 
0.9129578307045478 
0.07648796084375985 
-0.1403102513872197 
0.06546325572229021 
0.06546325572229021 
0.06740860615822122 
-0.1175183239863126 
0.2226029867872537 
-0.3028751236765949 
0.0141032253328337 
0.3152914130176693 
0.2256714074308109 
0.07648796084375985 
0.07648796084375985 
0 
-0.07412378892898569 
-0.4958974437655915 
-0.1881663574986591 
0.2708801486165843 
-0.1504461285843673 
0.0002580448811659572 
0.53201821659753 
0.4203376314530018 
-0.2905215712205083 
0.5118365789916622 
0.3896994597404586 
0.3896994597404586 
0.159866611178512 
0.22372313901756 
0.8927353376583403 
0.1067397602072989 
0.1122244277547176 
0.116448314766901 
-0.2491664940971344 
0.1443227030310592 
0.09671712662491089 
0.2718324132873299 
0.09671712662491089 
0.4627552466672369 
0.2336130311235242 
0.313226544049399 
-0.03436979067584679 
0.5948336168290977 
0.6472328257897313 
0.3093534979900986 
0.3093534979900986 
0.3093534979900986 
0.3093534979900986 
0.3093534979900986 
0.213444564191789 
-0.6043031898334715 
0.213444564191789 
0.213444564191789 
-0.03436979067584679 
-0.2186952192790408 
-0.324133648149176 
0.5387215871055867 
0.09749043065611543 
0.05199762938491434 
0.1930034757827542 
0.4466711572624932 
0.6423125430747277 
-0.3460806220425431 
-1.083676130763729 
-0.4405298277558121 
0.2502345899479237 
0.3039812502862714 
0.06805664500826943 
0.1744224811328917 
0.5201566909891819 
0.1800381786577419 
0.05199762938491434 
1.990280741598996 
0.02850248807856905 
0.6381314067718064 
0.2927937557387987 
0.3947507904770942 
0.2049605155365914 
-0.3070580095826513 
-0.1844032550939175 
-0.1844032550939175 
-0.4775813375895742 
-0.2438140455003826 
-0.2438140455003826 
0.02713904883042448 
-0.5367991369722378 
0.02713904883042448 
